{"learner":{"attributes":{"scikit_learn":"{\"_estimator_type\": \"classifier\"}"},"feature_names":["Tau","length","GC","1-AAAAAAAAGAAG","1-AAAAAAAATTAATTT","1-AAAAAAATAAAATTG","1-AAAAACCACT","1-AAAACAAATAAAA","1-AAAACTCTTTT","1-AAAAGTGAA","1-AAAATATTTTAAAA","1-AAAGAGAACAAG","1-AAATATTTTTAAAA","1-AAATGAGACA","1-AACAGGACG","1-AACCGTCTC","1-AACGCGCTT","1-AAGACCAACT","1-AAGCATCCWGAA","1-AAGCTAGACAGAGWG","1-AAGTCKTTCTTGYTK","1-AATAAAAATGT","1-AATACTTCAACA","1-AATCCACTTGMTGAT","1-ACAAAGGTGAT","1-ACAACACAATG","1-ACAGACA","1-ACCAAAAGAA","1-ACCAGGTACA","1-AGAAAACAAAA","1-AGAGAGAGAGG","1-AGTATAGTACG","1-AMCGCGKT","1-ATAAAGCAA","1-ATATAAAAAAATTAA","1-ATATATATTTTTTA","1-ATATTTTAGAM","1-ATCCTGAAAATG","1-ATTGATCATAY","1-ATTGTTTTTTAA","1-ATTTGATTACC","1-ATTYTGTTTTGVKCT","1-BSMCGCGKSV","1-CAAAACAGAAATT","1-CAACTCCTC","1-CAATGCATCAGA","1-CACACGGCA","1-CAGCATCAAAA","1-CAGGAGAA","1-CATTAAGCTCTA","1-CATTCGCTTA","1-CCAAAAAATGACC","1-CCAATATTTCCA","1-CCACACGG","1-CCAGCAA","1-CCATGCCACCK","1-CCGCWCA","1-CCTGCAGG","1-CTGGAGTTCCTATT","1-GAAGAACCHAG","1-GAATTCTTTAA","1-GCACAATCAAAC","1-GGAAAACA","1-GGCAGATAC","1-GGGACCTTAA","1-GGGGCCTAK","1-GGTGGCA","1-GTATTGAAAGKAAMT","1-NWACGCGTWN","1-TAATTTAAAAA","1-TATTTTTTTAAAAAT","1-TCGATTCAA","1-TGTATAAAAAA","1-TTAAAAAAATAAA","1-TTAAAAAAATAAAA","1-TTAAAAAAATAAAAT","1-TTATTTTTTAAATA","1-TTGTTTTTTAAA","1-TTTAAAAAATAAATT","1-TTTAAAATAAATAAA","1-YAACGGCTASTTTT","10-AAAATAWTATTTT","10-CACACGGC","11-AAATATTTTTAAAA","11-AAATTAAAATA","12-TATTTTAAAATAA","12-TCAATAAAAAAAA","13-AAAAATTAAAAAAT","14-CACGTGG","15-ATTTTAAAAAAAAT","16-AGTAAAAAAAAAA","17-AATAAAAAAAATAAA","2-AAAAAAAAACTAA","2-AAAAAAAACTAAA","2-AAAAAATAAAATT","2-AAAAAATTTTAA","2-AAAAATAAATTT","2-AAAAATATTAA","2-AAAATAAATTTTA","2-AAAATTTTTAAT","2-AAACCCAAAAA","2-AAAGAAGCAGCAGA","2-AAAGTAAACGT","2-AAATATATAAAAATT","2-AAATCGGATTCTC","2-AAATTAATTCC","2-AACAAGARATTAAAA","2-AACAWAATCASCATC","2-AACCACCA","2-AACGCGGYTBSD","2-AACGCGKCSC","2-AACGGTCA","2-AAGTGCAAT","2-AATAATATTAAAATA","2-AATATTTTTAAAAWW","2-AATCATAACTCCTR","2-AATCGCTTC","2-AATGACCATYTV","2-AATGGCATATGC","2-ACAAGGTCTTTCAG","2-ACAATGAGAA","2-ACCAGGTACAYAG","2-ACGCGGTG","2-ACGCGTTT","2-ACGGCTA","2-ACTCATTAGT","2-AGATTATAAT","2-AGCCTCATCT","2-AGCTTAATGT","2-AGCTTTTCAYGA","2-AGCTTTTGGGATTTT","2-AGGTTCCAGCAGMT","2-ATAGCCATCCAAA","2-ATGAATTG","2-ATGCACGAGCACTT","2-ATGCATGA","2-ATTCCACTAAGAAAG","2-ATTTAAAAAAT","2-ATTTTATTTTTATAT","2-ATTTTATTTTTTTAA","2-ATTTTTTTAAAAHTM","2-AYGACCTGGATCATG","2-CAAACCCCCA","2-CAAGACAGCAAAMTM","2-CACGTGG","2-CAGAAAATGCWAGAA","2-CATACATTTATAGTT","2-CCAACGGCTABTTTT","2-CCCGCAG","2-CCYGCAGGTWCAA","2-CGGTAAG","2-CTAGACAGAGAAGG","2-CTATTTWTTA","2-CTCCAGG","2-CTGATGCAA","2-CTTCACAAGC","2-CTTTGTGCG","2-GAAGGAACAAAWTG","2-GAATTATGAAA","2-GATGTATCATATGAT","2-GCTTAAACAAA","2-GGAACACAA","2-GGTGGTGGAA","2-GTATGAC","2-GTTGTTTTTTAAAK","2-GWCATCCR","2-TAATTAAAA","2-TATAAAAAAAAA","2-TATTAAAATAATAW","2-TCAAAAGAAC","2-TTCCAACCAAA","2-TTTAAAAAATAAAAT","2-TTTAAATAAAA","2-VRMCGCGKYB","3-AAAAAAAACAAAACA","3-AAAAAATAACTGA","3-AAAAATAATTTTAA","3-AAAACAACGAA","3-AAAATAAGA","3-AAAATATAAA","3-AAAATATACT","3-AAAATTAAAAAATG","3-AAAGCTAAAATCAAG","3-AAAGTATAGTACGK","3-AAATATAAAATTA","3-AAATATTTTTAAAA","3-AAATTAATAT","3-AACGCGGYKBS","3-AAGAAAGTTCAG","3-AAGAAGCARCWGW","3-AAGCAAATAT","3-AAGCCAACTCA","3-AATATTAATGA","3-AATATTGGGCCAG","3-AATCCACTTG","3-AATCCACTTGCTRMK","3-AATGCAGAA","3-AATTTAAAATTGAA","3-AATTTGGTTTTCYY","3-AATTTTAAAAAAAT","3-ACAGTCAAAAT","3-ACCATGATA","3-ACCTGATCTTG","3-ACTCTGCA","3-ACTGTTTGGTT","3-ACTTGAAAA","3-AGATCATCTG","3-AGCCCATATGGGT","3-AGCCTTGGGVHRT","3-AGCTTTTGGGCTTWT","3-AGGGATGCTTTAGRT","3-AGGTTCCAA","3-AGTGCATY","3-AGTTCATTTG","3-AGWAGAGAAG","3-ATAACATTCAAAW","3-ATACAGGGA","3-ATATAAAAAAAT","3-ATCCAAGAGAAGAA","3-ATCCGATATGCTGA","3-ATCTGTTTTGDCMTA","3-ATGCAATACTTMWMG","3-ATGTTTACTGT","3-ATTAAAAAAATAAA","3-ATTAAAAAT","3-ATTCTATCATAAKAA","3-ATTTAAAAAAA","3-CAAAAGGAG","3-CAGCATCAAAATCT","3-CAGCGATTT","3-CAGTGAGC","3-CATCTTAGG","3-CCACCTTCAGG","3-CCATGCCACC","3-CCCAACCCGAHGA","3-CCCAATTCAT","3-CCTSSAGG","3-CCTTGTCATT","3-CGCCCACGCCA","3-CGCGTAAACCC","3-CTATATCATCAAW","3-CTGCAAAAC","3-CTTTATACTT","3-CTTTTATTTTTTAAR","3-GATGAAAAAAA","3-GATTAATCTG","3-GCACATCAAAM","3-GGATAAAATTAA","3-RTCACTTAACMCTTC","3-TAAAAATATATWA","3-TAAATAGAAA","3-TAAATTATAAGGT","3-TAAGGAGGA","3-TATTTTATATAAAA","3-TTAATTTAAAAATA","3-TTAGAAGAATT","3-TTGTTTTTTAAA","3-TTTAAATAAAAATT","3-TTTGTAAAAAA","3-TTTTAAAAATAATTT","3-WACAATATTTA","4-AAAAAAAKAAGAAAA","4-AAAAAAATTAAAAA","4-AAAAATAAAAATC","4-AAAAATATATATA","4-AAAAATATTAAAC","4-AAAGGAATCCG","4-AAAGTAATTAA","4-AAATAAAAAATTAAT","4-AACAGCCCCTMAC","4-AACGCGGTT","4-AAMCGCGKCGS","4-AATAGAAATG","4-AATCGAACACCG","4-AATTAATTAATA","4-AATTTACTGAAAT","4-AATTTTTCAAG","4-ACCTGCACTTCT","4-ACTTTTACCATAT","4-AGCGTGGTC","4-AGTTAAAAA","4-AGTTTATGGTA","4-ATAAATAAATAAA","4-ATAAGAAACAAAT","4-ATATAAAAAAAAAC","4-ATATAAAAAATAA","4-ATATATCAAAA","4-ATTTAAAATTTGG","4-CAACAACCC","4-CACTGAACTGGTT","4-CAGCACCCAWTA","4-CAGTCGCG","4-CCATTACAGC","4-CCCCCACTGC","4-CCWACCA","4-CGATTCAAAAAG","4-CGBSSVCG","4-CTATACAAAAC","4-CTTATTTTGGAAA","4-GCTGAAAACCCCMT","4-GGAAAACAAA","4-GGAAATCAAAG","4-GGAAGAACCAG","4-GGTGTTTTTAG","4-RAAACGCG","4-TAAGGAATA","4-TTAAAAAAAAAAAA","4-TTATTTAAAAA","5-AAAAAAAACTAAA","5-AAAAAAAATTAAATK","5-AAAAAAATTAAA","5-AAAAATATAAWAA","5-AAAACCAAATTTT","5-AATAATAATCTTAAG","5-AATATTGGGCMAGY","5-AATTAATTACC","5-AATTTAAAATTG","5-ACCAGCCAACA","5-ACGCGGYC","5-ATAACAACAAAAA","5-ATGTCCCGTT","5-ATTAAAGAAAAGAA","5-ATTAATTACTT","5-ATTWTTTTATTTTA","5-CATGCAWGSTMSAKC","5-CCACACGG","5-CCAGCAA","5-CTCGCKGA","5-CTTGGATCTATCT","5-TAAATTTTAAAAAT","5-TGACATGAACT","5-TTAAAAATATTTTTAA","5-TTTAAAAAACAAM","6-AAAAAAAAAAAMCAA","6-AAAATATAAAAAA","6-AAACGCGT","6-AACGCGTT","6-AAGCGCGTTCC","6-ACGCGCAYG","6-AGGTTCCAR","6-ATATAAAAAAAAT","6-ATATTATTTTAATAT","6-ATTAATATTTTA","6-CCAGACACCA","6-CTAGATCAACTT","6-GMCGCGKC","6-TAAGAAAAGAA","6-TATTTTTTTAAAAA","7-AAAATAAATAAATTC","7-AAGAAACTACTBT","7-AATATTTTAAAAT","7-AATTAATT","7-AATTTATAAT","7-AGGAGCCAAA","7-ATTTTGAAAAG","7-CAATGCAGGADG","7-TATTAAAATAATAT","7-TTATTTAAAAA","7-TTATTTTTTAAAAT","8-AAAAAAAATTAAATT","8-AATCCGATTCRC","8-AGAGAGAGAG","8-TAATTTTTAAAA","8-TTATTTAAAAAA","9-AAAAATATTTTTAAA","9-AAAATAGATTTA","9-ATATAAAAATA"],"feature_types":["float","int","float","float","float","float","float","float","float","float","float","float","float","float","float","float","float","float","float","float","float","float","float","float","float","float","float","float","float","float","float","float","float","float","float","float","float","float","float","float","float","float","float","float","float","float","float","float","float","float","float","float","float","float","float","float","float","float","float","float","float","float","float","float","float","float","float","float","float","float","float","float","float","float","float","float","float","float","float","float","float","float","float","float","float","float","float","float","float","float","float","float","float","float","float","float","float","float","float","float","float","float","float","float","float","float","float","float","float","float","float","float","float","float","float","float","float","float","float","float","float","float","float","float","float","float","float","float","float","float","float","float","float","float","float","float","float","float","float","float","float","float","float","float","float","float","float","float","float","float","float","float","float","float","float","float","float","float","float","float","float","float","float","float","float","float","float","float","float","float","float","float","float","float","float","float","float","float","float","float","float","float","float","float","float","float","float","float","float","float","float","float","float","float","float","float","float","float","float","float","float","float","float","float","float","float","float","float","float","float","float","float","float","float","float","float","float","float","float","float","float","float","float","float","float","float","float","float","float","float","float","float","float","float","float","float","float","float","float","float","float","float","float","float","float","float","float","float","float","float","float","float","float","float","float","float","float","float","float","float","float","float","float","float","float","float","float","float","float","float","float","float","float","float","float","float","float","float","float","float","float","float","float","float","float","float","float","float","float","float","float","float","float","float","float","float","float","float","float","float","float","float","float","float","float","float","float","float","float","float","float","float","float","float","float","float","float","float","float","float","float","float","float","float","float","float","float","float","float","float","float","float","float","float","float","float","float","float","float","float","float","float","float","float","float","float","float","float","float","float","float","float","float","float","float","float","float","float","float","float","float","float","float","float","float","float","float"],"gradient_booster":{"model":{"gbtree_model_param":{"num_parallel_tree":"1","num_trees":"50"},"iteration_indptr":[0,1,2,3,4,5,6,7,8,9,10,11,12,13,14,15,16,17,18,19,20,21,22,23,24,25,26,27,28,29,30,31,32,33,34,35,36,37,38,39,40,41,42,43,44,45,46,47,48,49,50],"tree_info":[0,0,0,0,0,0,0,0,0,0,0,0,0,0,0,0,0,0,0,0,0,0,0,0,0,0,0,0,0,0,0,0,0,0,0,0,0,0,0,0,0,0,0,0,0,0,0,0,0,0],"trees":[{"base_weights":[2.7906977E-2,-3.7288135E-1,1.7142857E0,-6.933333E-1,1.2258065E0,3.5789475E-1,1E-1,-8.251748E-1,2.5454545E-1,3.3333334E-1,-3.636364E-2,-9.489051E-1,2.4000001E-1,-1.0625E0,4.6153846E-1,-2.3471074E-1,1.0909092E-1,2.2222224E-1,-1E-1],"categories":[],"categories_nodes":[],"categories_segments":[],"categories_sizes":[],"default_left":[0,0,0,0,0,0,0,0,0,0,0,0,0,0,0,0,0,0,0],"id":0,"left_children":[1,3,5,7,9,-1,-1,11,-1,-1,-1,13,-1,15,17,-1,-1,-1,-1],"loss_changes":[3.6967827E1,2.3519285E1,6.390953E-2,1.0770536E1,5.1124163E0,0E0,0E0,1.0096758E1,0E0,0E0,0E0,5.97789E0,0E0,6.354336E0,2.5854702E0,0E0,0E0,0E0,0E0],"parents":[2147483647,0,0,1,1,2,2,3,3,4,4,7,7,11,11,13,13,14,14],"right_children":[2,4,6,8,10,-1,-1,12,-1,-1,-1,14,-1,16,18,-1,-1,-1,-1],"split_conditions":[9.811533E-1,9.682908E-1,5.611594E-1,2.9440638E-1,5.158099E-1,3.5789475E-1,1E-1,5.486821E-1,2.5454545E-1,3.3333334E-1,-3.636364E-2,4.7267264E-1,2.4000001E-1,4.0663227E-1,1.8067293E-1,-2.3471074E-1,1.0909092E-1,2.2222224E-1,-1E-1],"split_indices":[0,0,207,90,121,0,0,14,0,0,0,161,0,353,322,0,0,0,0],"split_type":[0,0,0,0,0,0,0,0,0,0,0,0,0,0,0,0,0,0,0],"sum_hessian":[5.275E1,4.325E1,9.5E0,3.65E1,6.75E0,8.5E0,1E0,3.475E1,1.75E0,5E0,1.75E0,3.325E1,1.5E0,3.1E1,2.25E0,2.925E1,1.75E0,1.25E0,1E0],"tree_param":{"num_deleted":"0","num_feature":"367","num_nodes":"19","size_leaf_vector":"1"}},{"base_weights":[-6.6514574E-2,-3.1665686E-1,2.7787942E-1,-5.863145E-1,9.888408E-1,-6.9468176E-1,2.246131E-1,2.8924236E-1,-6.183235E-2,-8.208333E-1,1.8088643E-1,-1.040434E0,-2.4442373E-2,-2.2898643E-1,1.3190155E-1,1.4766195E-1,-2.2315288E-1],"categories":[],"categories_nodes":[],"categories_segments":[],"categories_sizes":[],"default_left":[0,0,0,0,0,0,0,0,0,0,0,0,0,0,0,0,0],"id":1,"left_children":[1,3,-1,5,7,9,-1,-1,-1,11,-1,13,15,-1,-1,-1,-1],"loss_changes":[1.997792E1,1.6983616E1,0E0,8.050418E0,5.403859E0,8.3124485E0,0E0,0E0,0E0,6.1491566E0,0E0,5.6669846E0,8.028463E0,0E0,0E0,0E0,0E0],"parents":[2147483647,0,0,1,1,3,3,4,4,5,5,9,9,11,11,12,12],"right_children":[2,4,-1,6,8,10,-1,-1,-1,12,-1,14,16,-1,-1,-1,-1],"split_conditions":[9.811533E-1,9.682908E-1,2.7787942E-1,2.9440638E-1,5.158099E-1,4.411204E-1,2.246131E-1,2.8924236E-1,-6.183235E-2,2.4652313E-1,1.8088643E-1,5.158099E-1,1.6264835E-2,-2.2898643E-1,1.3190155E-1,1.4766195E-1,-2.2315288E-1],"split_indices":[0,0,0,90,121,292,0,0,0,300,0,121,361,0,0,0,0],"split_type":[0,0,0,0,0,0,0,0,0,0,0,0,0,0,0,0,0],"sum_hessian":[5.2648438E1,4.5596874E1,7.0515623E0,3.8247528E1,7.3493466E0,3.652557E1,1.7219563E0,5.3500075E0,1.999339E0,3.4305927E1,2.219645E0,2.6650696E1,7.6552296E0,2.541489E1,1.2358073E0,4.696324E0,2.9589055E0],"tree_param":{"num_deleted":"0","num_feature":"367","num_nodes":"17","size_leaf_vector":"1"}},{"base_weights":[-1.8474406E-2,-2.5462875E-1,2.4758486E-1,-4.6605548E-1,9.7267586E-1,-6.1233467E-1,9.5191395E-1,2.518923E-1,-3.3587452E-2,-7.0858705E-1,2.2742736E-1,3.6639776E-2,2.460662E-1,-8.0147403E-1,1.5810893E-1,-1.7973141E-1,1.2642154E-1],"categories":[],"categories_nodes":[],"categories_segments":[],"categories_sizes":[],"default_left":[0,0,0,0,0,0,0,0,0,0,0,0,0,0,0,0,0],"id":2,"left_children":[1,3,-1,5,7,9,11,-1,-1,13,-1,-1,-1,15,-1,-1,-1],"loss_changes":[1.5537101E1,1.1874655E1,0E0,8.511131E0,2.4333014E0,6.742779E0,6.233926E-1,0E0,0E0,5.372946E0,0E0,0E0,0E0,5.102297E0,0E0,0E0,0E0],"parents":[2147483647,0,0,1,1,3,3,4,4,5,5,6,6,9,9,13,13],"right_children":[2,4,-1,6,8,10,12,-1,-1,14,-1,-1,-1,16,-1,-1,-1],"split_conditions":[9.811533E-1,9.682908E-1,2.4758486E-1,4.0663227E-1,5.158099E-1,2.8449345E-1,9.3987685E-1,2.518923E-1,-3.3587452E-2,4.411204E-1,2.2742736E-1,3.6639776E-2,2.460662E-1,2.9440638E-1,1.5810893E-1,-1.7973141E-1,1.2642154E-1],"split_indices":[0,0,0,353,121,99,0,0,0,292,0,0,0,90,0,0,0],"split_type":[0,0,0,0,0,0,0,0,0,0,0,0,0,0,0,0,0],"sum_hessian":[5.0303284E1,4.301539E1,7.287894E0,3.7223236E1,5.792154E0,3.425737E1,2.9658647E0,4.545162E0,1.2469916E0,3.3034832E1,1.2225394E0,1.229418E0,1.7364466E0,3.1545624E1,1.489208E0,2.9892347E1,1.6532753E0],"tree_param":{"num_deleted":"0","num_feature":"367","num_nodes":"17","size_leaf_vector":"1"}},{"base_weights":[1.2108697E-1,-4.9651254E-2,1.1061511E0,-2.6867378E-1,7.263684E-1,2.4037199E-1,5.537792E-2,-3.9891762E-1,8.623731E-1,1.0969087E0,-1.4735226E-1,-5.7534796E-1,6.830759E-1,2.544479E-1,-1.621863E-2,1.2810947E0,-9.488933E-4,-7.932416E-1,1.449163E-1,2.6493654E-1,-8.0780685E-2,2.9530498E-1,1.8443039E-2,-1.8714435E-1,7.644471E-2,1.9453795E-1,-1.2485484E-1],"categories":[],"categories_nodes":[],"categories_segments":[],"categories_sizes":[],"default_left":[0,0,0,0,0,0,0,0,0,0,0,0,0,0,0,0,0,0,0,0,0,0,0,0,0,0,0],"id":3,"left_children":[1,3,5,7,9,-1,-1,11,13,15,-1,17,19,-1,-1,21,-1,23,25,-1,-1,-1,-1,-1,-1,-1,-1],"loss_changes":[8.539959E0,7.6658607E0,2.621193E-1,5.501292E0,6.1997905E0,0E0,0E0,6.5165496E0,1.6234281E0,1.697752E0,0E0,4.528657E0,3.9903715E0,0E0,0E0,1.5242977E0,0E0,3.9996786E0,5.3045106E0,0E0,0E0,0E0,0E0,0E0,0E0,0E0,0E0],"parents":[2147483647,0,0,1,1,2,2,3,3,4,4,7,7,8,8,9,9,11,11,12,12,15,15,17,17,18,18],"right_children":[2,4,6,8,10,-1,-1,12,14,16,-1,18,20,-1,-1,22,-1,24,26,-1,-1,-1,-1,-1,-1,-1,-1],"split_conditions":[9.811533E-1,1.3867538E-1,3.9129776E-1,2.3996712E-1,4.6472016E-1,2.4037199E-1,5.537792E-2,3.7091964E-1,3.94E1,3.576372E-1,-1.4735226E-1,1.671594E-1,2.0233838E-2,2.544479E-1,-1.621863E-2,3.3815762E-1,-9.488933E-4,3.0718458E-1,1.577543E-1,2.6493654E-1,-8.0780685E-2,2.9530498E-1,1.8443039E-2,-1.8714435E-1,7.644471E-2,1.9453795E-1,-1.2485484E-1],"split_indices":[0,11,38,107,204,0,0,196,2,250,0,100,331,0,0,321,0,251,357,0,0,0,0,0,0,0,0],"split_type":[0,0,0,0,0,0,0,0,0,0,0,0,0,0,0,0,0,0,0,0,0,0,0,0,0,0,0],"sum_hessian":[4.9449688E1,4.2954166E1,6.4955215E0,3.4009235E1,8.944932E0,5.420593E0,1.0749288E0,3.1077824E1,2.931413E0,7.337098E0,1.6078339E0,2.7123333E1,3.9544907E0,1.8006779E0,1.130735E0,6.1465664E0,1.1905317E0,2.0745964E1,6.377369E0,2.349172E0,1.6053184E0,5.0710335E0,1.0755328E0,1.868507E1,2.0608933E0,2.944282E0,3.4330869E0],"tree_param":{"num_deleted":"0","num_feature":"367","num_nodes":"27","size_leaf_vector":"1"}},{"base_weights":[-4.0052105E-2,-2.3786049E-1,1.0352591E0,-3.784153E-1,6.008754E-1,2.2650228E-1,4.077658E-2,-4.742063E-1,2.1708289E-1,2.1144037E-1,-7.460754E-2,-5.687484E-1,1.8301854E-1,-6.6008687E-1,1.2433886E-1,-1.5853411E-1,9.107246E-2],"categories":[],"categories_nodes":[],"categories_segments":[],"categories_sizes":[],"default_left":[0,0,0,0,0,0,0,0,0,0,0,0,0,0,0,0,0],"id":4,"left_children":[1,3,5,7,9,-1,-1,11,-1,-1,-1,13,-1,15,-1,-1,-1],"loss_changes":[1.0214396E1,4.9895315E0,3.7292576E-1,5.4520826E0,3.1427987E0,0E0,0E0,4.952702E0,0E0,0E0,0E0,3.912795E0,0E0,4.856945E0,0E0,0E0,0E0],"parents":[2147483647,0,0,1,1,2,2,3,3,4,4,7,7,11,11,13,13],"right_children":[2,4,6,8,10,-1,-1,12,-1,-1,-1,14,-1,16,-1,-1,-1],"split_conditions":[9.811533E-1,9.682908E-1,5.025847E-1,5.486821E-1,5.158099E-1,2.2650228E-1,4.077658E-2,2.9440638E-1,2.1708289E-1,2.1144037E-1,-7.460754E-2,4.777992E-1,1.8301854E-1,3.6001354E-1,1.2433886E-1,-1.5853411E-1,9.107246E-2],"split_indices":[0,0,248,14,121,0,0,90,0,0,0,117,0,131,0,0,0],"split_type":[0,0,0,0,0,0,0,0,0,0,0,0,0,0,0,0,0],"sum_hessian":[4.586361E1,3.9395435E1,6.468171E0,3.4211178E1,5.1842594E0,5.4665008E0,1.0016701E0,3.2744476E1,1.4667029E0,3.4719563E0,1.712303E0,3.1211168E1,1.5333056E0,2.9400856E1,1.810312E0,2.6536112E1,2.8647442E0],"tree_param":{"num_deleted":"0","num_feature":"367","num_nodes":"17","size_leaf_vector":"1"}},{"base_weights":[9.716594E-3,-1.5773503E-1,9.5826507E-1,-3.2297564E-1,6.83194E-1,2.1158433E-1,5.3549416E-2,-6.271856E-1,2.0871009E-1,2.2211841E-1,-6.145624E-2,-7.528799E-1,1.3856106E-1,9.1072655E-1,-3.7153316E-1,-9.26171E-1,8.557983E-2,2.8648293E-1,-5.8598608E-2,-6.9263947E-1,1.2824015E-1,-2.1020405E-1,4.1305363E-2,2.672499E-1,-1.8597372E-1,1.1583077E-1,-2.1229413E-1],"categories":[],"categories_nodes":[],"categories_segments":[],"categories_sizes":[],"default_left":[0,0,0,0,0,0,0,0,0,0,0,0,0,0,0,0,0,0,0,0,0,0,0,0,0,0,0],"id":5,"left_children":[1,3,5,7,9,-1,-1,11,13,-1,-1,15,-1,17,19,21,23,-1,-1,25,-1,-1,-1,-1,-1,-1,-1],"loss_changes":[7.3864474E0,5.719927E0,1.9681263E-1,5.590625E0,3.2285318E0,0E0,0E0,4.1253366E0,5.648042E0,0E0,0E0,3.0304165E0,0E0,4.305726E0,2.9958305E0,2.6093817E0,6.823214E0,0E0,0E0,3.6348674E0,0E0,0E0,0E0,0E0,0E0,0E0,0E0],"parents":[2147483647,0,0,1,1,2,2,3,3,4,4,7,7,8,8,11,11,13,13,14,14,15,15,16,16,19,19],"right_children":[2,4,6,8,10,-1,-1,12,14,-1,-1,16,-1,18,20,22,24,-1,-1,26,-1,-1,-1,-1,-1,-1,-1],"split_conditions":[9.811533E-1,9.682908E-1,1.9428313E-1,-1.4700995E-2,8.728131E-2,2.1158433E-1,5.3549416E-2,3.9678016E-1,3.0831898E-2,2.2211841E-1,-6.145624E-2,9.973961E-2,1.3856106E-1,5.2999355E-2,1.4969213E-1,4.1549003E-1,1.03127465E-1,2.8648293E-1,-5.8598608E-2,7.355908E-2,1.2824015E-1,-2.1020405E-1,4.1305363E-2,2.672499E-1,-1.8597372E-1,1.1583077E-1,-2.1229413E-1],"split_indices":[0,0,312,171,361,0,0,220,73,0,0,89,0,30,306,219,81,0,0,332,0,0,0,0,0,0,0],"split_type":[0,0,0,0,0,0,0,0,0,0,0,0,0,0,0,0,0,0,0,0,0,0,0,0,0,0,0],"sum_hessian":[4.455199E1,3.8575745E1,5.976245E0,3.275533E1,5.8204165E0,4.757558E0,1.2186873E0,2.0720337E1,1.203499E1,3.9812171E0,1.8391992E0,1.9311096E1,1.4092402E0,5.188293E0,6.846698E0,1.5916831E1,3.3942664E0,3.4870338E0,1.7012591E0,5.4384155E0,1.4082822E0,1.4401558E1,1.5152729E0,1.3794079E0,2.0148585E0,1.0944214E0,4.343994E0],"tree_param":{"num_deleted":"0","num_feature":"367","num_nodes":"27","size_leaf_vector":"1"}},{"base_weights":[8.8213906E-2,-5.371449E-2,9.003729E-1,1.0030287E-1,-8.583314E-1,1.9982207E-1,5.5984337E-2,-1.2093178E-1,9.564036E-1,-2.3071013E-1,-2.840927E-2,-4.6928746E-1,4.0880802E-1,1.4852225E0,-1.0039033E-1,-6.398682E-1,1.7096981E-1,9.1940325E-1,-4.2768928E-1,3.293952E-1,8.303297E-2,-1.6209479E-1,1.1034969E-1,2.89061E-1,-1.6375285E-1,-1.7321134E-1,5.229444E-2],"categories":[],"categories_nodes":[],"categories_segments":[],"categories_sizes":[],"default_left":[0,0,0,0,0,0,0,0,0,0,0,0,0,0,0,0,0,0,0,0,0,0,0,0,0,0,0],"id":6,"left_children":[1,3,5,7,9,-1,-1,11,13,-1,-1,15,17,19,-1,21,-1,23,25,-1,-1,-1,-1,-1,-1,-1,-1],"loss_changes":[5.0818214E0,4.809507E0,1.21724606E-1,6.344387E0,1.153192E0,0E0,0E0,5.178267E0,6.0403523E0,0E0,0E0,4.334174E0,5.2000103E0,2.3206425E-1,0E0,3.5831022E0,0E0,7.861767E0,1.7213418E0,0E0,0E0,0E0,0E0,0E0,0E0,0E0,0E0],"parents":[2147483647,0,0,1,1,2,2,3,3,4,4,7,7,8,8,11,11,12,12,13,13,15,15,17,17,18,18],"right_children":[2,4,6,8,10,-1,-1,12,14,-1,-1,16,18,20,-1,22,-1,24,26,-1,-1,-1,-1,-1,-1,-1,-1],"split_conditions":[9.811533E-1,3.7705985E-1,3.0742702E-1,1.6845363E-1,9.449918E-1,1.9982207E-1,5.5984337E-2,-1.4700995E-2,5.9363488E-2,-2.3071013E-1,-2.840927E-2,9.682908E-1,5.2999355E-2,-1.7883655E-2,-1.0039033E-1,3.5693806E-1,1.7096981E-1,2.4941579E-1,1.0946581E-1,3.293952E-1,8.303297E-2,-1.6209479E-1,1.1034969E-1,2.89061E-1,-1.6375285E-1,-1.7321134E-1,5.229444E-2],"split_indices":[0,155,142,228,0,0,0,171,185,0,0,0,30,359,0,60,0,243,226,0,0,0,0,0,0,0,0],"split_type":[0,0,0,0,0,0,0,0,0,0,0,0,0,0,0,0,0,0,0,0,0,0,0,0,0,0,0],"sum_hessian":[4.266728E1,3.7115112E1,5.5521684E0,3.188678E1,5.228331E0,4.2634025E0,1.2887661E0,2.6021112E1,5.865668E0,3.2700899E0,1.9582411E0,1.5766932E1,1.0254181E1,4.291199E0,1.5744685E0,1.4425363E1,1.3415691E0,6.3059425E0,3.948238E0,3.2593565E0,1.0318427E0,1.2898514E1,1.5268484E0,4.97054E0,1.3354025E0,2.256331E0,1.691907E0],"tree_param":{"num_deleted":"0","num_feature":"367","num_nodes":"27","size_leaf_vector":"1"}},{"base_weights":[7.833577E-2,-1.7982727E-1,7.844127E-1,-3.3869395E-1,5.9764117E-1,9.7380006E-1,-6.264344E-2,-4.4855732E-1,2.045629E-1,2.0833938E-1,-7.934508E-2,2.1917789E-1,-1.7448362E-3,-5.484913E-1,1.2230277E-1,-6.9176227E-1,2.4240747E-1,-1.7197314E-1,5.0595593E-2,-9.715067E-2,2.1628009E-1],"categories":[],"categories_nodes":[],"categories_segments":[],"categories_sizes":[],"default_left":[0,0,0,0,0,0,0,0,0,0,0,0,0,0,0,0,0,0,0,0,0],"id":7,"left_children":[1,3,5,7,9,11,-1,13,-1,-1,-1,-1,-1,15,-1,17,19,-1,-1,-1,-1],"loss_changes":[7.2004914E0,3.8056228E0,2.4992375E0,4.177514E0,2.7585282E0,1.1186132E0,0E0,2.8461146E0,0E0,0E0,0E0,0E0,0E0,2.6815739E0,0E0,3.2417183E0,3.0563526E0,0E0,0E0,0E0,0E0],"parents":[2147483647,0,0,1,1,2,2,3,3,4,4,5,5,7,7,13,13,15,15,16,16],"right_children":[2,4,6,8,10,12,-1,14,-1,-1,-1,-1,-1,16,-1,18,20,-1,-1,-1,-1],"split_conditions":[9.682908E-1,3.801928E-1,3.9549905E-1,4.7267264E-1,2.7149668E-1,2.2438636E-1,-6.264344E-2,4.0663227E-1,2.045629E-1,2.0833938E-1,-7.934508E-2,2.1917789E-1,-1.7448362E-3,3.7648982E-1,1.2230277E-1,4.620329E-1,-1.6382113E-2,-1.7197314E-1,5.0595593E-2,-9.715067E-2,2.1628009E-1],"split_indices":[0,349,330,161,301,319,0,353,0,0,0,0,0,232,0,246,310,0,0,0,0],"split_type":[0,0,0,0,0,0,0,0,0,0,0,0,0,0,0,0,0,0,0,0,0],"sum_hessian":[3.772788E1,2.8172485E1,9.555396E0,2.3861107E1,4.3113775E0,8.245513E0,1.3098824E0,2.2699938E1,1.1611688E0,2.947507E0,1.3638707E0,7.2315345E0,1.013979E0,2.1185362E1,1.5145757E0,1.8042347E1,3.1430159E0,1.5393183E1,2.649164E0,1.9080502E0,1.2349658E0],"tree_param":{"num_deleted":"0","num_feature":"367","num_nodes":"21","size_leaf_vector":"1"}},{"base_weights":[2.3107026E-2,2.1867013E-1,-7.055491E-1,-7.002439E-3,9.316274E-1,-9.9287343E-1,1.0985748E-1,-1.7831957E-1,1.0300974E0,1.127468E0,-1.9851672E-2,-3.0181456E-2,-2.2736242E-1,7.9148784E-2,-4.6241164E-2,-3.899284E-1,5.562646E-1,2.3970897E-1,6.692245E-2,2.5526828E-1,5.337915E-2,-5.677378E-1,1.6369209E-1,2.3186894E-1,-9.918473E-2,-1.435787E-1,8.285816E-2],"categories":[],"categories_nodes":[],"categories_segments":[],"categories_sizes":[],"default_left":[0,0,0,0,0,0,0,0,0,0,0,0,0,0,0,0,0,0,0,0,0,0,0,0,0,0,0],"id":8,"left_children":[1,3,5,7,9,11,13,15,17,19,-1,-1,-1,-1,-1,21,23,-1,-1,-1,-1,25,-1,-1,-1,-1,-1],"loss_changes":[5.546052E0,4.9290237E0,2.0402794E0,4.4889307E0,1.5984664E0,5.792041E-1,3.8870743E-1,3.5820358E0,1.8690586E-2,4.6246433E-1,0E0,0E0,0E0,0E0,0E0,4.202176E0,3.9086466E0,0E0,0E0,0E0,0E0,2.6204596E0,0E0,0E0,0E0,0E0,0E0],"parents":[2147483647,0,0,1,1,2,2,3,3,4,4,5,5,6,6,7,7,8,8,9,9,15,15,16,16,21,21],"right_children":[2,4,6,8,10,12,14,16,18,20,-1,-1,-1,-1,-1,22,24,-1,-1,-1,-1,26,-1,-1,-1,-1,-1],"split_conditions":[9.2937425E-2,1.3867538E-1,1.5468478E-1,3.3602956E-1,3.37968E-1,-1.5523428E-2,3.291724E-2,-2.5881963E-2,-5.028886E-2,2.0703014E-3,-1.9851672E-2,-3.0181456E-2,-2.2736242E-1,7.9148784E-2,-4.6241164E-2,9.753188E-1,3.732689E-2,2.3970897E-1,6.692245E-2,2.5526828E-1,5.337915E-2,3.5693806E-1,1.6369209E-1,2.3186894E-1,-9.918473E-2,-1.435787E-1,8.285816E-2],"split_indices":[70,11,114,205,198,91,3,199,74,308,0,0,0,0,0,0,174,0,0,0,0,60,0,0,0,0,0],"split_type":[0,0,0,0,0,0,0,0,0,0,0,0,0,0,0,0,0,0,0,0,0,0,0,0,0,0,0],"sum_hessian":[3.683744E1,2.959451E1,7.2429333E0,2.3231283E1,6.3632264E0,5.194802E0,2.048131E0,2.064845E1,2.582831E0,5.268638E0,1.0945883E0,1.0574844E0,4.1373177E0,1.026975E0,1.021156E0,1.6394838E1,4.253613E0,1.4969463E0,1.0858847E0,4.079739E0,1.1888987E0,1.4754016E1,1.6408226E0,2.639116E0,1.614497E0,1.3030564E1,1.7234514E0],"tree_param":{"num_deleted":"0","num_feature":"367","num_nodes":"27","size_leaf_vector":"1"}},{"base_weights":[8.9754485E-2,2.2927985E-1,-5.244096E-1,3.770087E-1,-5.6964236E-1,-6.8516916E-1,2.302139E-2,1.0944132E-1,1.0021194E0,2.2205189E-2,-1.8581054E-1,-1.6736045E-1,6.8159374E-5,-1.19094335E-1,7.242565E-1,1.2173418E0,-2.7707918E-2,-3.7589896E-1,6.176384E-1,1.9833258E-1,1.2465463E-2,2.7771747E-1,3.4648564E-2,-1.2259232E-1,1.1676671E-1,1.9527362E-1,-2.3787392E-2],"categories":[],"categories_nodes":[],"categories_segments":[],"categories_sizes":[],"default_left":[0,0,0,0,0,0,0,0,0,0,0,0,0,0,0,0,0,0,0,0,0,0,0,0,0,0,0],"id":9,"left_children":[1,3,5,7,9,11,-1,13,15,-1,-1,-1,-1,17,19,21,-1,23,25,-1,-1,-1,-1,-1,-1,-1,-1],"loss_changes":[3.1655462E0,3.7147512E0,7.865113E-1,4.176999E0,1.3327136E0,5.869856E-1,0E0,2.7656727E0,2.0244222E0,0E0,0E0,0E0,0E0,3.0248618E0,8.778713E-1,9.1474724E-1,0E0,2.989592E0,1.2242191E0,0E0,0E0,0E0,0E0,0E0,0E0,0E0,0E0],"parents":[2147483647,0,0,1,1,2,2,3,3,4,4,5,5,7,7,8,8,13,13,14,14,15,15,17,17,18,18],"right_children":[2,4,6,8,10,12,-1,14,16,-1,-1,-1,-1,18,20,22,-1,24,26,-1,-1,-1,-1,-1,-1,-1,-1],"split_conditions":[8.728131E-2,2.9409096E-1,1.671594E-1,4.7221478E-2,7.586343E-2,2.7640745E-1,2.302139E-2,3.2887807E-1,1.792306E-1,2.2205189E-2,-1.8581054E-1,-1.6736045E-1,6.8159374E-5,-3.3073265E-2,3.4383768E-1,4.2811084E-1,-2.7707918E-2,3.6001354E-1,2.9642993E-1,1.9833258E-1,1.2465463E-2,2.7771747E-1,3.4648564E-2,-1.2259232E-1,1.1676671E-1,1.9527362E-1,-2.3787392E-2],"split_indices":[361,217,100,83,256,151,0,157,346,0,0,0,0,261,255,227,0,131,244,0,0,0,0,0,0,0,0],"split_type":[0,0,0,0,0,0,0,0,0,0,0,0,0,0,0,0,0,0,0,0,0,0,0,0,0,0,0],"sum_hessian":[3.453807E1,2.8654942E1,5.88313E0,2.4628908E1,4.026033E0,4.64428E0,1.2388504E0,1.806961E1,6.5592966E0,1.6300517E0,2.395981E0,3.6223292E0,1.0219505E0,1.3760812E1,4.3087993E0,5.461568E0,1.0977285E0,1.0567166E1,3.1936457E0,2.7141829E0,1.5946165E0,4.4085684E0,1.0529996E0,8.763759E0,1.8034075E0,1.9287485E0,1.2648971E0],"tree_param":{"num_deleted":"0","num_feature":"367","num_nodes":"27","size_leaf_vector":"1"}},{"base_weights":[1.6229065E-1,3.7512168E-1,-3.653286E-1,1.9949839E-1,1.0932758E0,-7.0692414E-1,1.651451E-1,1.6378151E-2,7.865209E-1,2.760565E-1,5.3875204E-2,-9.0696627E-1,1.1297172E-2,-2.4688949E-1,7.045572E-1,2.1995036E-1,-9.667061E-3,-2.10901E-1,-3.3773836E-2,-4.7728214E-1,5.8224183E-1,1.7245476E-1,1.3767028E-2,-1.3201821E-1,8.343445E-2,1.3164659E-2,1.6471456E-1],"categories":[],"categories_nodes":[],"categories_segments":[],"categories_sizes":[],"default_left":[0,0,0,0,0,0,0,0,0,0,0,0,0,0,0,0,0,0,0,0,0,0,0,0,0,0,0],"id":10,"left_children":[1,3,5,7,9,11,-1,13,15,-1,-1,17,-1,19,21,-1,-1,-1,-1,23,25,-1,-1,-1,-1,-1,-1],"loss_changes":[3.7342203E0,2.7230496E0,4.536029E0,2.1327853E0,6.5892553E-1,1.2863612E0,0E0,3.1154487E0,1.2887123E0,0E0,0E0,5.2619076E-1,0E0,2.662607E0,4.1709304E-1,0E0,0E0,0E0,0E0,1.9626234E0,3.4024203E-1,0E0,0E0,0E0,0E0,0E0,0E0],"parents":[2147483647,0,0,1,1,2,2,3,3,4,4,5,5,7,7,8,8,11,11,13,13,14,14,19,19,20,20],"right_children":[2,4,6,8,10,12,-1,14,16,-1,-1,18,-1,20,22,-1,-1,-1,-1,24,26,-1,-1,-1,-1,-1,-1],"split_conditions":[5.9861937E-3,9.725216E-2,2.6191652E-1,5.7526503E-2,-5.0957114E-2,9.62326E-2,1.651451E-1,9.682392E-1,1.1476414E-1,2.760565E-1,5.3875204E-2,3.2887807E-1,1.1297172E-2,3.2887807E-1,8.7243244E-2,2.1995036E-1,-9.667061E-3,-2.10901E-1,-3.3773836E-2,-3.5544068E-2,6.2620096E-2,1.7245476E-1,1.3767028E-2,-1.3201821E-1,8.343445E-2,1.3164659E-2,1.6471456E-1],"split_indices":[34,284,181,358,138,114,0,0,77,0,0,157,0,157,319,0,0,0,0,78,19,0,0,0,0,0,0],"split_type":[0,0,0,0,0,0,0,0,0,0,0,0,0,0,0,0,0,0,0,0,0,0,0,0,0,0,0],"sum_hessian":[3.1033642E1,2.2319452E1,8.71419E0,1.8960491E1,3.3589606E0,7.087857E0,1.626333E0,1.5235663E1,3.7248278E0,1.9903246E0,1.368636E0,5.467199E0,1.6206578E0,1.1483727E1,3.7519367E0,2.4778607E0,1.2469671E0,4.1991487E0,1.2680506E0,9.318682E0,2.165045E0,2.72061E0,1.0313268E0,7.954879E0,1.3638031E0,1.0948822E0,1.0701627E0],"tree_param":{"num_deleted":"0","num_feature":"367","num_nodes":"27","size_leaf_vector":"1"}},{"base_weights":[1.0338612E-1,-1.8923664E-2,1.7795394E-1,1.2515152E-1,-6.383928E-1,2.6833674E-1,-6.8371284E-1,-1.783868E-1,6.081642E-2,4.244963E-1,-6.5461725E-1,-1.7021338E-2,-1.7207946E-1,5.587957E-1,-1.3923661E-1,-1.5130799E-1,-3.8695488E-2,1.3285701E-1,-1.2374947E-1],"categories":[],"categories_nodes":[],"categories_segments":[],"categories_sizes":[],"default_left":[0,0,0,0,0,0,0,0,0,0,0,0,0,0,0,0,0,0,0],"id":11,"left_children":[1,3,-1,5,7,9,11,-1,-1,13,15,-1,-1,17,-1,-1,-1,-1,-1],"loss_changes":[3.3387928E0,2.8349078E0,0E0,3.1808066E0,1.7022243E0,3.5504227E0,3.6824596E-1,0E0,0E0,3.4031632E0,2.6548982E-2,0E0,0E0,2.7013912E0,0E0,0E0,0E0,0E0,0E0],"parents":[2147483647,0,0,1,1,3,3,4,4,5,5,6,6,9,9,10,10,13,13],"right_children":[2,4,-1,6,8,10,12,-1,-1,14,16,-1,-1,18,-1,-1,-1,-1,-1],"split_conditions":[9.811533E-1,3.7705985E-1,1.7795394E-1,3.8131264E-1,3.5063922E-1,1.287747E-1,3.82E1,-1.783868E-1,6.081642E-2,4.033895E-1,1.6781344E-1,-1.7021338E-2,-1.7207946E-1,4.050203E-1,-1.3923661E-1,-1.5130799E-1,-3.8695488E-2,1.3285701E-1,-1.2374947E-1],"split_indices":[0,155,0,23,218,30,2,0,0,213,29,0,0,177,0,0,0,0,0],"split_type":[0,0,0,0,0,0,0,0,0,0,0,0,0,0,0,0,0,0,0],"sum_hessian":[3.353807E1,2.9868435E1,3.6696362E0,2.487988E1,4.988555E0,2.1705778E1,3.1741033E0,3.9732978E0,1.015257E0,1.9026628E1,2.6791496E0,1.061029E0,2.1130743E0,1.743825E1,1.5883787E0,1.6695524E0,1.0095972E0,1.6404533E1,1.0337164E0],"tree_param":{"num_deleted":"0","num_feature":"367","num_nodes":"19","size_leaf_vector":"1"}},{"base_weights":[7.2078936E-2,2.178045E-1,-5.170608E-1,3.319459E-1,-5.167098E-1,-8.819922E-1,1.36983E-1,4.489691E-1,-2.2823885E-1,-3.2334134E-2,-1.2950909E-1,-2.0356897E-1,-4.6109594E-2,5.708702E-1,-2.934443E-1,-1.1842618E-1,8.760559E-2,6.789948E-1,-8.7643564E-2,-1.308768E-1,3.1150518E-2,1.5065636E-1,-4.412452E-2],"categories":[],"categories_nodes":[],"categories_segments":[],"categories_sizes":[],"default_left":[0,0,0,0,0,0,0,0,0,0,0,0,0,0,0,0,0,0,0,0,0,0,0],"id":12,"left_children":[1,3,5,7,9,11,-1,13,15,-1,-1,-1,-1,17,19,-1,-1,21,-1,-1,-1,-1,-1],"loss_changes":[2.9396176E0,2.4437346E0,3.5983186E0,1.6801078E0,8.280468E-2,2.6744318E-1,0E0,1.9996533E0,1.4283705E0,0E0,0E0,0E0,0E0,2.2318707E0,6.7193437E-1,0E0,0E0,1.2625418E0,0E0,0E0,0E0,0E0,0E0],"parents":[2147483647,0,0,1,1,2,2,3,3,4,4,5,5,7,7,8,8,13,13,14,14,17,17],"right_children":[2,4,6,8,10,12,-1,14,16,-1,-1,-1,-1,18,20,-1,-1,22,-1,-1,-1,-1,-1],"split_conditions":[9.2937425E-2,7.601708E-1,1.4969213E-1,3.7705985E-1,-1.6382113E-2,1.8772155E-1,1.36983E-1,5.391035E-1,-4.053438E-2,-3.2334134E-2,-1.2950909E-1,-2.0356897E-1,-4.6109594E-2,5.7580024E-1,3.78E1,-1.1842618E-1,8.760559E-2,4.050203E-1,-8.7643564E-2,-1.308768E-1,3.1150518E-2,1.5065636E-1,-4.412452E-2],"split_indices":[70,153,306,155,310,192,0,151,348,0,0,0,0,80,2,0,0,177,0,0,0,0,0],"split_type":[0,0,0,0,0,0,0,0,0,0,0,0,0,0,0,0,0,0,0,0,0,0,0],"sum_hessian":[3.1928478E1,2.6102293E1,5.826184E0,2.306598E1,3.036312E0,4.673484E0,1.1527001E0,1.924435E1,3.8216317E0,1.4196335E0,1.6166785E0,3.4016569E0,1.271827E0,1.672864E1,2.5157096E0,2.5436487E0,1.2779831E0,1.5405093E1,1.3235474E0,1.1416124E0,1.3740972E0,1.4380287E1,1.0248054E0],"tree_param":{"num_deleted":"0","num_feature":"367","num_nodes":"23","size_leaf_vector":"1"}},{"base_weights":[1.3092321E-1,2.2631605E-1,-4.4540465E-1,5.921341E-2,6.085459E-1,-1.4210248E-1,2.5153581E-2,-4.3263E-2,1.8965603E-1,8.4221363E-1,-7.997907E-2,1.7516781E-1,-5.530279E-1,2.2126058E-1,4.042107E-3,3.8804898E-1,-1.2885764E-1,-7.0208424E-1,7.6491046E-3,1.073432E-1,-1.2408755E-1,-1.7192173E-1,-1.4797221E-2],"categories":[],"categories_nodes":[],"categories_segments":[],"categories_sizes":[],"default_left":[0,0,0,0,0,0,0,0,0,0,0,0,0,0,0,0,0,0,0,0,0,0,0],"id":13,"left_children":[1,3,5,7,9,-1,-1,11,-1,13,-1,15,17,-1,-1,19,-1,21,-1,-1,-1,-1,-1],"loss_changes":[1.9111676E0,1.8108706E0,8.484819E-1,1.9750463E0,2.3840852E0,0E0,0E0,2.322746E0,0E0,1.5787754E0,0E0,2.8236873E0,5.765227E-1,0E0,0E0,2.1823864E0,0E0,4.3434858E-1,0E0,0E0,0E0,0E0,0E0],"parents":[2147483647,0,0,1,1,2,2,3,3,4,4,7,7,9,9,11,11,12,12,15,15,17,17],"right_children":[2,4,6,8,10,-1,-1,12,-1,14,-1,16,18,-1,-1,20,-1,22,-1,-1,-1,-1,-1],"split_conditions":[9.535528E-2,-3.3073265E-2,2.6580438E-1,5.819567E-1,4.050203E-1,-1.4210248E-1,2.5153581E-2,-1.2523832E-2,1.8965603E-1,8.728131E-2,-7.997907E-2,3.8363314E-1,3.3602956E-1,2.2126058E-1,4.042107E-3,3.4293675E-1,-1.2885764E-1,4.6215844E-1,7.6491046E-3,1.073432E-1,-1.2408755E-1,-1.7192173E-1,-1.4797221E-2],"split_indices":[167,261,352,57,177,0,0,86,0,361,0,129,205,0,0,26,0,221,0,0,0,0,0],"split_type":[0,0,0,0,0,0,0,0,0,0,0,0,0,0,0,0,0,0,0,0,0,0,0],"sum_hessian":[3.1929174E1,2.7915895E1,4.0132794E0,2.02277E1,7.6881967E0,2.5744183E0,1.4388613E0,1.8990175E1,1.2375238E0,6.3757067E0,1.31249E0,1.3753338E1,5.2368364E0,4.563655E0,1.8120518E0,1.1335117E1,2.4182212E0,4.0327864E0,1.2040502E0,1.0286521E1,1.0485961E0,2.929492E0,1.1032943E0],"tree_param":{"num_deleted":"0","num_feature":"367","num_nodes":"23","size_leaf_vector":"1"}},{"base_weights":[1.44661935E-2,-1.3966657E-1,5.351036E-1,-2.2065283E-1,1.5424043E-1,-1.8745553E-1,1.7871818E-1,-2.9702404E-1,1.2217456E-1,5.0486583E-2,-1.0401302E-1,-4.1057244E-1,3.5755628E-1,-5.4089E-1,2.697066E-1,1.4956129E-1,-4.657853E-2,-1.3697362E-1,1.8580666E-2,1.229226E-1,-6.417371E-2],"categories":[],"categories_nodes":[],"categories_segments":[],"categories_sizes":[],"default_left":[0,0,0,0,0,0,0,0,0,0,0,0,0,0,0,0,0,0,0,0,0],"id":14,"left_children":[1,3,5,7,-1,9,-1,11,-1,-1,-1,13,15,17,19,-1,-1,-1,-1,-1,-1],"loss_changes":[2.5082653E0,1.954715E0,2.0154128E0,1.641648E0,0E0,5.9835166E-1,0E0,1.7620904E0,0E0,0E0,0E0,1.8289657E0,1.0375719E0,1.5479145E0,9.548427E-1,0E0,0E0,0E0,0E0,0E0,0E0],"parents":[2147483647,0,0,1,1,2,2,3,3,5,5,7,7,11,11,12,12,13,13,14,14],"right_children":[2,4,6,8,-1,10,-1,12,-1,-1,-1,14,16,18,20,-1,-1,-1,-1,-1,-1],"split_conditions":[1.3867538E-1,5.486821E-1,9.338568E-1,9.892263E-1,1.5424043E-1,3.291724E-2,1.7871818E-1,1.5966518E-1,1.2217456E-1,5.0486583E-2,-1.0401302E-1,9.682908E-1,1.3222314E-1,2.3640952E-1,2.0678367E-2,1.4956129E-1,-4.657853E-2,-1.3697362E-1,1.8580666E-2,1.229226E-1,-6.417371E-2],"split_indices":[11,14,0,0,0,3,0,263,0,0,0,0,34,275,340,0,0,0,0,0,0],"split_type":[0,0,0,0,0,0,0,0,0,0,0,0,0,0,0,0,0,0,0,0,0],"sum_hessian":[2.9325377E1,2.3191391E1,6.133986E0,2.1993668E1,1.1977236E0,2.1923087E0,3.9416773E0,2.0732311E1,1.2613562E0,1.0477171E0,1.1445915E0,1.798523E1,2.7470822E0,1.5265749E1,2.7194805E0,1.4934798E0,1.2536025E0,1.2374143E1,2.8916066E0,1.6911288E0,1.0283515E0],"tree_param":{"num_deleted":"0","num_feature":"367","num_nodes":"21","size_leaf_vector":"1"}},{"base_weights":[1.10785306E-1,4.0906742E-1,-2.637464E-1,5.2591294E-1,-1.1521255E-1,-4.4755295E-1,1.0518944E-1,-1.8583828E-1,8.545651E-1,-6.1848783E-1,8.669381E-2,-5.27275E-1,7.786235E-2,1.0118421E0,6.396988E-3,-7.5331366E-1,2.9145539E-2,-1.5407139E-1,-7.426064E-3,1.166029E0,1.4805975E-2,-8.807326E-1,-1.5693389E-2,2.563958E-1,4.4717744E-2,-1.9342639E-1,-4.933101E-2],"categories":[],"categories_nodes":[],"categories_segments":[],"categories_sizes":[],"default_left":[0,0,0,0,0,0,0,0,0,0,0,0,0,0,0,0,0,0,0,0,0,0,0,0,0,0,0],"id":15,"left_children":[1,3,5,7,-1,9,-1,11,13,15,-1,17,-1,19,-1,21,-1,-1,-1,23,-1,25,-1,-1,-1,-1,-1],"loss_changes":[3.2310345E0,2.139412E0,2.122628E0,3.6173573E0,0E0,1.9378126E0,0E0,1.2837555E0,1.2993217E0,1.1089957E0,0E0,4.3258965E-1,0E0,1.1584597E0,0E0,6.5366554E-1,0E0,0E0,0E0,5.138378E-1,0E0,1.4344358E-1,0E0,0E0,0E0,0E0,0E0],"parents":[2147483647,0,0,1,1,2,2,3,3,5,5,7,7,8,8,9,9,11,11,13,13,15,15,19,19,21,21],"right_children":[2,4,6,8,-1,10,-1,12,14,16,-1,18,-1,20,-1,22,-1,-1,-1,24,-1,26,-1,-1,-1,-1,-1],"split_conditions":[-1.6382113E-2,4.62E1,9.682908E-1,3.9E1,-1.1521255E-1,4.620329E-1,1.0518944E-1,9.53671E-1,3.3889303E-1,3.7648982E-1,8.669381E-2,1.13397434E-1,7.786235E-2,2.3896523E-1,6.396988E-3,3.3602956E-1,2.9145539E-2,-1.5407139E-1,-7.426064E-3,2.2477219E-1,1.4805975E-2,2.4631712E-1,-1.5693389E-2,2.563958E-1,4.4717744E-2,-1.9342639E-1,-4.933101E-2],"split_indices":[310,2,0,2,0,246,0,0,235,232,0,179,0,130,0,205,0,0,0,67,0,41,0,0,0,0,0],"split_type":[0,0,0,0,0,0,0,0,0,0,0,0,0,0,0,0,0,0,0,0,0,0,0,0,0,0,0],"sum_hessian":[2.6956081E1,1.4954169E1,1.2001913E1,1.3785259E1,1.1689101E0,1.0087286E1,1.9146267E0,4.4918814E0,9.293378E0,8.697746E0,1.3895392E0,2.8708475E0,1.6210341E0,7.608543E0,1.6848347E0,7.405505E0,1.2922417E0,1.5369307E0,1.3339168E0,6.3252506E0,1.2832924E0,5.9727035E0,1.4328016E0,5.311493E0,1.0137576E0,4.79419E0,1.1785135E0],"tree_param":{"num_deleted":"0","num_feature":"367","num_nodes":"27","size_leaf_vector":"1"}},{"base_weights":[3.3435535E-2,1.8416564E-1,-4.2173788E-1,7.867606E-3,8.478676E-1,-5.7704353E-1,4.2894404E-2,-1.6904879E-1,1.6066843E-1,2.0434725E-1,2.5793096E-2,-1.4963299E-1,7.9900315E-3,-3.3885753E-1,4.0079954E-1,-5.653626E-1,3.8722417E-1,1.5461574E-1,-4.2736556E-2,-1.452312E-1,7.173479E-2,1.368486E-1,-2.4099426E-2],"categories":[],"categories_nodes":[],"categories_segments":[],"categories_sizes":[],"default_left":[0,0,0,0,0,0,0,0,0,0,0,0,0,0,0,0,0,0,0,0,0,0,0],"id":16,"left_children":[1,3,5,7,9,11,-1,13,-1,-1,-1,-1,-1,15,17,19,21,-1,-1,-1,-1,-1,-1],"loss_changes":[1.9999957E0,2.5376585E0,8.42499E-1,2.6957688E0,4.3750334E-1,6.758168E-1,0E0,1.6556966E0,0E0,0E0,0E0,0E0,0E0,2.298175E0,1.0948889E0,1.7526507E0,6.2529397E-1,0E0,0E0,0E0,0E0,0E0,0E0],"parents":[2147483647,0,0,1,1,2,2,3,3,4,4,5,5,7,7,13,13,14,14,15,15,16,16],"right_children":[2,4,6,8,10,12,-1,14,-1,-1,-1,-1,-1,16,18,20,22,-1,-1,-1,-1,-1,-1],"split_conditions":[5.9861937E-3,3.8573332E-2,2.0521493E-1,9.682392E-1,9.672082E-1,1.3867538E-1,4.2894404E-2,-7.713456E-2,1.6066843E-1,2.0434725E-1,2.5793096E-2,-1.4963299E-1,7.9900315E-3,2.2520395E-1,-1.6426278E-2,3.213043E-1,1.3849129E-1,1.5461574E-1,-4.2736556E-2,-1.452312E-1,7.173479E-2,1.368486E-1,-2.4099426E-2],"split_indices":[34,10,78,0,0,11,0,75,0,0,0,0,0,106,311,136,189,0,0,0,0,0,0],"split_type":[0,0,0,0,0,0,0,0,0,0,0,0,0,0,0,0,0,0,0,0,0,0,0],"sum_hessian":[2.7018837E1,2.0744663E1,6.2741747E0,1.719029E1,3.5543735E0,5.117851E0,1.1563237E0,1.4706907E1,2.483382E0,2.5229461E0,1.0314273E0,3.8401883E0,1.2776626E0,1.1642824E1,3.0640833E0,9.043125E0,2.5996993E0,1.7473613E0,1.316722E0,7.885161E0,1.1579645E0,1.4208326E0,1.1788666E0],"tree_param":{"num_deleted":"0","num_feature":"367","num_nodes":"23","size_leaf_vector":"1"}},{"base_weights":[9.356517E-2,2.3172034E-1,-2.3181571E-1,-4.775499E-2,7.354893E-1,3.2101023E-1,-5.256476E-1,-2.7111965E-1,1.3152306E-1,9.088007E-1,-2.97904E-2,-5.0834175E-2,1.5296356E-1,-6.896311E-1,2.836887E-2,-4.4485E-1,1.08736716E-1,2.2463E-1,2.3049276E-2,-1.627384E-1,-3.162798E-2,-6.291474E-1,5.6123275E-2,-1.6058317E-1,3.4819074E-2],"categories":[],"categories_nodes":[],"categories_segments":[],"categories_sizes":[],"default_left":[0,0,0,0,0,0,0,0,0,0,0,0,0,0,0,0,0,0,0,0,0,0,0,0,0],"id":17,"left_children":[1,3,5,7,9,11,13,15,-1,17,-1,-1,-1,19,-1,21,-1,-1,-1,-1,-1,23,-1,-1,-1],"loss_changes":[1.2885708E0,2.8203464E0,1.5798666E0,2.3309486E0,1.2267141E0,1.1224866E0,7.6019883E-1,1.8110052E0,0E0,9.0714216E-1,0E0,0E0,0E0,2.0289397E-1,0E0,1.4716953E0,0E0,0E0,0E0,0E0,0E0,1.2610106E0,0E0,0E0,0E0],"parents":[2147483647,0,0,1,1,2,2,3,3,4,4,5,5,6,6,7,7,9,9,13,13,15,15,21,21],"right_children":[2,4,6,8,10,12,14,16,-1,18,-1,-1,-1,20,-1,22,-1,-1,-1,-1,-1,24,-1,-1,-1],"split_conditions":[1.2665097E-1,-3.9401483E-2,6.1866753E-2,1.6845363E-1,1.3780198E-1,9.39193E-1,2.0521493E-1,9.725216E-2,1.3152306E-1,1.3434206E-1,-2.97904E-2,-5.0834175E-2,1.5296356E-1,9.6665907E-1,2.836887E-2,1.3434206E-1,1.08736716E-1,2.2463E-1,2.3049276E-2,-1.627384E-1,-3.162798E-2,1.1065804E-1,5.6123275E-2,-1.6058317E-1,3.4819074E-2],"split_indices":[217,76,98,228,257,0,78,284,0,198,0,0,0,0,0,198,0,0,0,0,0,90,0,0,0],"split_type":[0,0,0,0,0,0,0,0,0,0,0,0,0,0,0,0,0,0,0,0,0,0,0,0,0],"sum_hessian":[2.646987E1,1.8782682E1,7.687188E0,1.2662903E1,6.1197796E0,2.6357312E0,5.051457E0,1.0084993E1,2.577909E0,5.0940323E0,1.0257474E0,1.3340622E0,1.301669E0,4.0285826E0,1.0228744E0,8.686846E0,1.3981478E0,3.683681E0,1.410351E0,2.8357098E0,1.1928728E0,7.0329614E0,1.6538843E0,5.782433E0,1.250528E0],"tree_param":{"num_deleted":"0","num_feature":"367","num_nodes":"25","size_leaf_vector":"1"}},{"base_weights":[8.190784E-2,-9.503924E-3,1.5107892E-1,-8.911369E-2,1.3194649E-1,1.811427E-2,-6.263329E-1,-1.2559372E-1,5.4640615E-1,-1.550849E-1,-2.7941704E-2,-2.599361E-1,3.3892256E-1,1.5509786E-1,-4.3598153E-3,-1.0423553E-1,1.2962602E-1,1.2194567E-1,-4.3333363E-2],"categories":[],"categories_nodes":[],"categories_segments":[],"categories_sizes":[],"default_left":[0,0,0,0,0,0,0,0,0,0,0,0,0,0,0,0,0,0,0],"id":18,"left_children":[1,3,-1,5,-1,7,9,11,13,-1,-1,15,17,-1,-1,-1,-1,-1,-1],"loss_changes":[1.5528113E0,1.2891377E0,0E0,1.2509483E0,0E0,1.5043011E0,1.5347683E-1,1.0665662E0,5.676272E-1,0E0,0E0,3.3572037E0,7.2663045E-1,0E0,0E0,0E0,0E0,0E0,0E0],"parents":[2147483647,0,0,1,1,3,3,5,5,6,6,7,7,8,8,11,11,12,12],"right_children":[2,4,-1,6,-1,8,10,12,14,-1,-1,16,18,-1,-1,-1,-1,-1,-1],"split_conditions":[4.7267264E-1,9.892263E-1,1.5107892E-1,9.535528E-2,1.3194649E-1,3.8573332E-2,1.6380906E-1,1.1065804E-1,9.2937425E-2,-1.550849E-1,-2.7941704E-2,1.6845363E-1,3.334234E-1,1.5509786E-1,-4.3598153E-3,-1.0423553E-1,1.2962602E-1,1.2194567E-1,-4.3333363E-2],"split_indices":[161,0,0,167,0,10,316,90,70,0,0,228,115,0,0,0,0,0,0],"split_type":[0,0,0,0,0,0,0,0,0,0,0,0,0,0,0,0,0,0,0],"sum_hessian":[2.4105852E1,2.209307E1,2.0127842E0,2.0519045E1,1.5740235E0,1.7910437E1,2.6086087E0,1.4679522E1,3.2309153E0,1.5425326E0,1.066076E0,1.1728071E1,2.9514499E0,2.0425973E0,1.188318E0,9.438707E0,2.289364E0,1.9187615E0,1.0326884E0],"tree_param":{"num_deleted":"0","num_feature":"367","num_nodes":"19","size_leaf_vector":"1"}},{"base_weights":[1.14072084E-1,-5.5049684E-2,3.865554E-1,-1.613018E-1,1.00355126E-1,6.1141324E-1,-1.03686936E-1,9.297057E-3,-1.3827541E-1,7.610318E-1,-2.533178E-2,-9.838741E-2,9.221696E-2,-1.8484804E-1,4.768334E-1,1.7087612E-1,3.8275417E-2,-3.4882802E-1,1.15486145E-1,1.5694223E-1,-7.643672E-3,-1.09244816E-1,6.799202E-2],"categories":[],"categories_nodes":[],"categories_segments":[],"categories_sizes":[],"default_left":[0,0,0,0,0,0,0,0,0,0,0,0,0,0,0,0,0,0,0,0,0,0,0],"id":19,"left_children":[1,3,5,7,-1,9,11,13,-1,15,-1,-1,-1,17,19,-1,-1,21,-1,-1,-1,-1,-1],"loss_changes":[1.1991255E0,1.0657898E0,1.156167E0,1.3389643E0,0E0,8.6288214E-1,1.0977997E0,1.1895866E0,0E0,1.5096664E-1,0E0,0E0,0E0,1.3632491E0,6.3887227E-1,0E0,0E0,1.310474E0,0E0,0E0,0E0,0E0,0E0],"parents":[2147483647,0,0,1,1,2,2,3,3,5,5,6,6,7,7,9,9,13,13,14,14,17,17],"right_children":[2,4,6,8,-1,10,12,14,-1,16,-1,-1,-1,18,20,-1,-1,22,-1,-1,-1,-1,-1],"split_conditions":[-1.4700995E-2,9.753188E-1,6.911855E-2,3.8363314E-1,1.00355126E-1,3.2851818E-1,2.49639E-1,1.6845363E-1,-1.3827541E-1,3.648461E-1,-2.533178E-2,-9.838741E-2,9.221696E-2,2.3996712E-1,9.3663096E-1,1.7087612E-1,3.8275417E-2,3.8454637E-1,1.15486145E-1,1.5694223E-1,-7.643672E-3,-1.09244816E-1,6.799202E-2],"split_indices":[171,0,364,129,0,206,263,228,0,210,0,0,0,107,0,0,0,195,0,0,0,0,0],"split_type":[0,0,0,0,0,0,0,0,0,0,0,0,0,0,0,0,0,0,0,0,0,0,0],"sum_hessian":[2.4559303E1,1.5646182E1,8.91312E0,1.373552E1,1.9106615E0,5.941011E0,2.9721093E0,1.1134474E1,2.6010466E0,4.9138007E0,1.0272105E0,1.8377312E0,1.1343781E0,8.294716E0,2.8397582E0,3.7925048E0,1.1212958E0,7.2726293E0,1.0220865E0,1.449654E0,1.3901043E0,5.8135376E0,1.459092E0],"tree_param":{"num_deleted":"0","num_feature":"367","num_nodes":"23","size_leaf_vector":"1"}},{"base_weights":[1.1347831E-1,2.7027246E-1,-2.4425346E-1,4.332105E-1,-1.4086972E-1,-5.6578875E-1,3.9808452E-1,5.4884464E-1,-5.767606E-2,-4.02586E-1,9.422907E-2,-1.3703723E-1,-2.8544737E-2,1.1085763E-1,1.0498366E-2,6.859639E-1,-3.0409236E-2,-1.368514E-2,-1.0764066E-1,7.7987856E-1,-3.4504858E-4,1.6825886E-1,4.534712E-2],"categories":[],"categories_nodes":[],"categories_segments":[],"categories_sizes":[],"default_left":[0,0,0,0,0,0,0,0,0,0,0,0,0,0,0,0,0,0,0,0,0,0,0],"id":20,"left_children":[1,3,5,7,9,11,13,15,-1,17,-1,-1,-1,-1,-1,19,-1,-1,-1,21,-1,-1,-1],"loss_changes":[1.3545713E0,1.1628207E0,1.7795964E0,1.1615901E0,1.058249E0,1.7641115E-1,1.3811871E-1,1.133398E0,0E0,1.5974438E-1,0E0,0E0,0E0,0E0,0E0,5.9147215E-1,0E0,0E0,0E0,8.243656E-2,0E0,0E0,0E0],"parents":[2147483647,0,0,1,1,2,2,3,3,4,4,5,5,6,6,7,7,9,9,15,15,19,19],"right_children":[2,4,6,8,10,12,14,16,-1,18,-1,-1,-1,-1,-1,20,-1,-1,-1,22,-1,-1,-1],"split_conditions":[8.7243244E-2,-1.6426278E-2,1.5966518E-1,3.1000495E-1,3.9323933E-2,1.22671574E-1,2.7960765E-1,1.672911E-1,-5.767606E-2,-1.6382113E-2,9.422907E-2,-1.3703723E-1,-2.8544737E-2,1.1085763E-1,1.0498366E-2,3.9549905E-1,-3.0409236E-2,-1.368514E-2,-1.0764066E-1,1.3594216E-3,-3.4504858E-4,1.6825886E-1,4.534712E-2],"split_indices":[319,311,263,242,309,362,225,286,0,310,0,0,0,0,0,330,0,0,0,176,0,0,0],"split_type":[0,0,0,0,0,0,0,0,0,0,0,0,0,0,0,0,0,0,0,0,0,0,0],"sum_hessian":[2.1972914E1,1.5446974E1,6.5259395E0,1.10243025E1,4.422671E0,4.4283915E0,2.097548E0,9.708003E0,1.3163002E0,3.3376052E0,1.0850657E0,2.970485E0,1.4579064E0,1.0287079E0,1.06884E0,8.137344E0,1.5706586E0,1.3978529E0,1.9397525E0,7.041642E0,1.0957022E0,5.8690624E0,1.1725795E0],"tree_param":{"num_deleted":"0","num_feature":"367","num_nodes":"23","size_leaf_vector":"1"}},{"base_weights":[2.6360927E-2,1.4593881E-1,-4.7738484E-1,2.3521568E-1,-8.228841E-2,-1.5228698E-1,2.542477E-2,6.6244274E-2,6.724896E-1,-1.1625192E-1,5.476967E-1,1.6685241E-1,2.1133488E-2,-2.8489795E-1,7.885208E-2,1.7774744E-2,1.7283112E-1,-8.5093E-2,5.0951906E-2],"categories":[],"categories_nodes":[],"categories_segments":[],"categories_sizes":[],"default_left":[0,0,0,0,0,0,0,0,0,0,0,0,0,0,0,0,0,0,0],"id":21,"left_children":[1,3,5,7,-1,-1,-1,9,11,13,15,-1,-1,17,-1,-1,-1,-1,-1],"loss_changes":[1.3937149E0,1.0188422E0,8.610605E-1,1.1825514E0,0E0,0E0,0E0,1.213643E0,3.2627892E-1,1.0004569E0,4.7097278E-1,0E0,0E0,7.4063784E-1,0E0,0E0,0E0,0E0,0E0],"parents":[2147483647,0,0,1,1,2,2,3,3,7,7,8,8,9,9,10,10,13,13],"right_children":[2,4,6,8,-1,-1,-1,10,12,14,16,-1,-1,18,-1,-1,-1,-1,-1],"split_conditions":[2.1559803E-1,2.9409096E-1,9.53671E-1,3.8573332E-2,-8.228841E-2,-1.5228698E-1,2.542477E-2,1.6845363E-1,8.7243244E-2,1.792306E-1,3.91277E-1,1.6685241E-1,2.1133488E-2,4.034073E-1,7.885208E-2,1.7774744E-2,1.7283112E-1,-8.5093E-2,5.0951906E-2],"split_indices":[20,217,0,10,0,0,0,228,319,346,24,0,0,149,0,0,0,0,0],"split_type":[0,0,0,0,0,0,0,0,0,0,0,0,0,0,0,0,0,0,0],"sum_hessian":[2.0980661E1,1.752978E1,3.450882E0,1.5607839E1,1.9219421E0,2.1711135E0,1.2797683E0,1.2088207E1,3.5196314E0,9.315626E0,2.772581E0,2.3710923E0,1.1485391E0,7.334602E0,1.9810239E0,1.6545473E0,1.1180336E0,5.986796E0,1.3478059E0],"tree_param":{"num_deleted":"0","num_feature":"367","num_nodes":"19","size_leaf_vector":"1"}},{"base_weights":[1.4527164E-1,2.4621156E-1,-2.843752E-1,4.9043724E-1,-3.3127148E-2,-1.06215894E-1,2.1650458E-2,6.252247E-1,-6.371573E-2,3.2027984E-1,-2.8285566E-1,7.219684E-1,-1.3411494E-2,1.2223762E-1,-5.5730224E-2,-4.772327E-1,5.507992E-2,8.4519076E-1,-7.3541673E-3,-1.4060585E-1,4.925395E-3,1.9266407E-1,3.406599E-2],"categories":[],"categories_nodes":[],"categories_segments":[],"categories_sizes":[],"default_left":[0,0,0,0,0,0,0,0,0,0,0,0,0,0,0,0,0,0,0,0,0,0,0],"id":22,"left_children":[1,3,5,7,9,-1,-1,11,-1,13,15,17,-1,-1,-1,19,-1,21,-1,-1,-1,-1,-1],"loss_changes":[1.0547675E0,1.3071923E0,5.208618E-1,1.3069961E0,9.522872E-1,0E0,0E0,6.5425205E-1,0E0,9.5638186E-1,8.098469E-1,7.810612E-1,0E0,0E0,0E0,5.8427334E-1,0E0,3.8939524E-1,0E0,0E0,0E0,0E0,0E0],"parents":[2147483647,0,0,1,1,2,2,3,3,4,4,7,7,9,9,10,10,11,11,15,15,17,17],"right_children":[2,4,6,8,10,-1,-1,12,-1,14,16,18,-1,-1,-1,20,-1,22,-1,-1,-1,-1,-1],"split_conditions":[3.7705985E-1,-1.6382113E-2,-4.053438E-2,3.848517E-1,3.7E1,-1.06215894E-1,2.1650458E-2,2.6860306E-1,-6.371573E-2,2.359757E-1,3.3602956E-1,3.3156937E-1,-1.3411494E-2,1.2223762E-1,-5.5730224E-2,3.732689E-2,5.507992E-2,9.397907E-2,-7.3541673E-3,-1.4060585E-1,4.925395E-3,1.9266407E-1,3.406599E-2],"split_indices":[155,310,348,170,2,0,0,135,0,185,205,145,0,0,0,174,0,164,0,0,0,0,0],"split_type":[0,0,0,0,0,0,0,0,0,0,0,0,0,0,0,0,0,0,0,0,0,0,0],"sum_hessian":[2.1706589E1,1.7922804E1,3.7837844E0,9.159206E0,8.7635975E0,2.1071465E0,1.676638E0,8.045886E0,1.11332E0,3.5115972E0,5.2520003E0,7.021744E0,1.0241424E0,2.3498032E0,1.161794E0,4.0032554E0,1.2487448E0,5.942686E0,1.0790577E0,2.4845564E0,1.5186992E0,4.6936593E0,1.2490269E0],"tree_param":{"num_deleted":"0","num_feature":"367","num_nodes":"23","size_leaf_vector":"1"}},{"base_weights":[1.00368366E-1,1.9426484E-1,-2.9798457E-1,2.9338497E-1,-8.231858E-2,-1.3351801E-1,4.1026317E-2,1.3590148E-1,1.5454139E-1,-3.6983956E-2,6.205661E-1,2.9152563E-1,-4.277211E-1,1.4663568E-1,3.698187E-2,1.0181128E-1,-3.9578162E-2,-1.1891561E-1,2.2569591E-2],"categories":[],"categories_nodes":[],"categories_segments":[],"categories_sizes":[],"default_left":[0,0,0,0,0,0,0,0,0,0,0,0,0,0,0,0,0,0,0],"id":23,"left_children":[1,3,5,7,-1,-1,-1,9,-1,11,13,15,17,-1,-1,-1,-1,-1,-1],"loss_changes":[8.696647E-1,1.2118222E0,9.801518E-1,1.1176863E0,0E0,0E0,0E0,1.1462159E0,0E0,1.5141498E0,4.0106654E-2,7.9011285E-1,5.495976E-1,0E0,0E0,0E0,0E0,0E0,0E0],"parents":[2147483647,0,0,1,1,2,2,3,3,7,7,9,9,10,10,11,11,12,12],"right_children":[2,4,6,8,-1,-1,-1,10,-1,12,14,16,18,-1,-1,-1,-1,-1,-1],"split_conditions":[3.7705985E-1,4.7429475E-1,9.53671E-1,1.6845363E-1,-8.231858E-2,-1.3351801E-1,4.1026317E-2,1.1065804E-1,1.5454139E-1,-8.980539E-2,8.436389E-2,5.266283E-1,2.9963142E-1,1.4663568E-1,3.698187E-2,1.0181128E-1,-3.9578162E-2,-1.1891561E-1,2.2569591E-2],"split_indices":[155,102,0,228,0,0,0,90,0,261,310,211,188,0,0,0,0,0,0],"split_type":[0,0,0,0,0,0,0,0,0,0,0,0,0,0,0,0,0,0,0],"sum_hessian":[2.0702978E1,1.7168493E1,3.5344858E0,1.5197834E1,1.9706582E0,1.8491385E0,1.6853474E0,1.2405483E1,2.7923512E0,9.82462E0,2.580863E0,5.47525E0,4.3493705E0,1.5081079E0,1.0727551E0,3.7627103E0,1.7125396E0,3.2471611E0,1.1022091E0],"tree_param":{"num_deleted":"0","num_feature":"367","num_nodes":"19","size_leaf_vector":"1"}},{"base_weights":[6.566761E-2,-2.0864388E-2,1.2359454E-1,-1.3050683E-1,4.45058E-1,-3.9731753E-1,1.8121101E-1,1.5125975E-1,-1.0379715E-2,-6.346519E-1,7.84524E-2,5.161293E-1,-2.1977155E-1,-7.3334E-1,-1.869878E-2,1.3900743E-1,-1.3470235E-3,-5.287448E-1,8.185839E-2,-1.74669E-1,-2.5231276E-2,-1.8850144E-2,-1.3585429E-1],"categories":[],"categories_nodes":[],"categories_segments":[],"categories_sizes":[],"default_left":[0,0,0,0,0,0,0,0,0,0,0,0,0,0,0,0,0,0,0,0,0,0,0],"id":24,"left_children":[1,3,-1,5,7,9,11,-1,-1,13,-1,15,17,19,-1,-1,-1,21,-1,-1,-1,-1,-1],"loss_changes":[1.0006075E0,1.0202595E0,0E0,1.4043895E0,6.292823E-1,1.925207E0,1.1978855E0,0E0,0E0,3.1914854E-1,0E0,4.4421434E-1,1.0670319E0,3.9935398E-1,0E0,0E0,0E0,1.564672E-1,0E0,0E0,0E0,0E0,0E0],"parents":[2147483647,0,0,1,1,3,3,4,4,5,5,6,6,9,9,11,11,12,12,13,13,17,17],"right_children":[2,4,-1,6,8,10,12,-1,-1,14,-1,16,18,20,-1,-1,-1,22,-1,-1,-1,-1,-1],"split_conditions":[5.6349385E-1,2.6854858E-1,1.2359454E-1,-5.028886E-2,-1.6382113E-2,1.6781344E-1,1.2665097E-1,1.5125975E-1,-1.0379715E-2,9.6589714E-1,7.84524E-2,5.2283272E-2,2.6191652E-1,3.2887807E-1,-1.869878E-2,1.3900743E-1,-1.3470235E-3,1.03127465E-1,8.185839E-2,-1.74669E-1,-2.5231276E-2,-1.8850144E-2,-1.3585429E-1],"split_indices":[64,169,0,74,310,29,217,0,0,0,0,12,181,157,0,0,0,81,0,0,0,0,0],"split_type":[0,0,0,0,0,0,0,0,0,0,0,0,0,0,0,0,0,0,0,0,0,0,0],"sum_hessian":[1.9666903E1,1.7834862E1,1.8320408E0,1.5020162E1,2.8147E0,7.945075E0,7.0750866E0,1.4098555E0,1.4048443E0,6.259722E0,1.6853527E0,3.6986496E0,3.376437E0,4.9938836E0,1.2658389E0,2.5103865E0,1.1882632E0,2.3712418E0,1.0051951E0,3.7019343E0,1.2919492E0,1.0285318E0,1.34271E0],"tree_param":{"num_deleted":"0","num_feature":"367","num_nodes":"23","size_leaf_vector":"1"}},{"base_weights":[8.115821E-3,1.1785848E-1,-4.0452754E-1,2.2487871E-1,-9.563801E-2,-1.3700484E-1,4.4837013E-2,3.5117477E-1,-2.5292382E-1,4.5671752E-1,-6.3126326E-2,-9.333472E-2,2.9886425E-2,5.909585E-1,-3.0551836E-2,1.6669835E-1,-1.2880285E-2],"categories":[],"categories_nodes":[],"categories_segments":[],"categories_sizes":[],"default_left":[0,0,0,0,0,0,0,0,0,0,0,0,0,0,0,0,0],"id":25,"left_children":[1,3,5,7,-1,-1,-1,9,11,13,-1,-1,-1,15,-1,-1,-1],"loss_changes":[9.7454524E-1,1.1882643E0,9.5164317E-1,9.966088E-1,0E0,0E0,0E0,1.0109855E0,3.9021742E-1,9.9374056E-1,0E0,0E0,0E0,1.5246937E0,0E0,0E0,0E0],"parents":[2147483647,0,0,1,1,2,2,3,3,7,7,8,8,9,9,13,13],"right_children":[2,4,6,8,-1,-1,-1,10,12,14,-1,-1,-1,16,-1,-1,-1],"split_conditions":[9.2937425E-2,4.6059433E-1,7.19548E-2,3.1172156E-1,-9.563801E-2,-1.3700484E-1,4.4837013E-2,5.391035E-1,5.4670397E-2,2.1559803E-1,-6.3126326E-2,-9.333472E-2,2.9886425E-2,2.2814533E-1,-3.0551836E-2,1.6669835E-1,-1.2880285E-2],"split_indices":[70,237,268,302,0,0,0,151,92,20,0,0,0,283,0,0,0],"split_type":[0,0,0,0,0,0,0,0,0,0,0,0,0,0,0,0,0],"sum_hessian":[1.9467636E1,1.5942187E1,3.5254488E0,1.4043416E1,1.8987715E0,2.3758914E0,1.1495571E0,1.13170395E1,2.7263763E0,1.0042561E1,1.2744788E0,1.676102E0,1.0502743E0,8.254779E0,1.7877815E0,5.826661E0,2.428118E0],"tree_param":{"num_deleted":"0","num_feature":"367","num_nodes":"17","size_leaf_vector":"1"}},{"base_weights":[7.85241E-2,2.0206323E-1,-4.618949E-1,7.292144E-2,5.2196914E-1,-1.3746586E-1,-2.3158154E-2,-4.4401187E-2,1.3563816E-1,1.5558128E-1,-1.649277E-2,-1.6825557E-1,1.1578734E-1,-2.8309363E-1,6.491526E-2,-8.697628E-2,4.337023E-2],"categories":[],"categories_nodes":[],"categories_segments":[],"categories_sizes":[],"default_left":[0,0,0,0,0,0,0,0,0,0,0,0,0,0,0,0,0],"id":26,"left_children":[1,3,5,7,9,-1,-1,11,-1,-1,-1,13,-1,15,-1,-1,-1],"loss_changes":[1.3922336E0,6.448921E-1,2.2660261E-1,9.4895774E-1,7.744875E-1,0E0,0E0,1.0066316E0,0E0,0E0,0E0,6.9178313E-1,0E0,7.8719014E-1,0E0,0E0,0E0],"parents":[2147483647,0,0,1,1,2,2,3,3,4,4,7,7,11,11,13,13],"right_children":[2,4,6,8,10,-1,-1,12,-1,-1,-1,14,-1,16,-1,-1,-1],"split_conditions":[9.2937425E-2,-4.661934E-2,9.725216E-2,3.6261597E-1,3.0831898E-2,-1.3746586E-1,-2.3158154E-2,2.545731E-2,1.3563816E-1,1.5558128E-1,-1.649277E-2,3.213043E-1,1.1578734E-1,3.3156288E-1,6.491526E-2,-8.697628E-2,4.337023E-2],"split_indices":[70,70,284,118,73,0,0,5,0,0,0,136,0,267,0,0,0],"split_type":[0,0,0,0,0,0,0,0,0,0,0,0,0,0,0,0,0],"sum_hessian":[1.8455442E1,1.553114E1,2.9243016E0,1.1939335E1,3.5918055E0,1.1738274E0,1.7504741E0,1.0777011E1,1.1623241E0,2.3217125E0,1.2700928E0,9.599673E0,1.1773378E0,8.13067E0,1.469004E0,6.3368773E0,1.7937921E0],"tree_param":{"num_deleted":"0","num_feature":"367","num_nodes":"17","size_leaf_vector":"1"}},{"base_weights":[4.420804E-4,-1.1903499E-1,4.509787E-1,9.7844504E-2,-4.2637658E-1,1.1533777E-1,8.540658E-3,-1.2830827E-1,1.4195643E-1,-5.7112825E-1,1.1666838E-2,-2.883207E-1,6.1096486E-2,-2.3551403E-2,-1.5089725E-1,-4.726557E-1,5.7849467E-2,-1.2801297E-1,2.3214405E-2],"categories":[],"categories_nodes":[],"categories_segments":[],"categories_sizes":[],"default_left":[0,0,0,0,0,0,0,0,0,0,0,0,0,0,0,0,0,0,0],"id":27,"left_children":[1,3,5,7,9,-1,-1,11,-1,13,-1,15,-1,-1,-1,17,-1,-1,-1],"loss_changes":[1.0552622E0,1.0747474E0,1.8625915E-1,1.4610754E0,4.962778E-1,0E0,0E0,6.4858425E-1,0E0,3.4123933E-1,0E0,8.1953853E-1,0E0,0E0,0E0,5.908861E-1,0E0,0E0,0E0],"parents":[2147483647,0,0,1,1,2,2,3,3,4,4,7,7,9,9,11,11,15,15],"right_children":[2,4,6,8,10,-1,-1,12,-1,14,-1,16,-1,-1,-1,18,-1,-1,-1],"split_conditions":[9.682908E-1,-1.6382113E-2,5.9861937E-3,9.973961E-2,1.5966518E-1,1.1533777E-1,8.540658E-3,2.2520395E-1,1.4195643E-1,-1.6426278E-2,1.1666838E-2,3.213043E-1,6.1096486E-2,-2.3551403E-2,-1.5089725E-1,-1.4613887E-2,5.7849467E-2,-1.2801297E-1,2.3214405E-2],"split_indices":[0,310,34,89,263,0,0,106,0,311,0,136,0,0,0,103,0,0,0],"split_type":[0,0,0,0,0,0,0,0,0,0,0,0,0,0,0,0,0,0,0],"sum_hessian":[1.7606771E1,1.4497891E1,3.1088793E0,8.899494E0,5.598398E0,2.0616019E0,1.0472775E0,7.0750895E0,1.8244044E0,4.173698E0,1.4246999E0,5.4135413E0,1.6615478E0,1.6748029E0,2.4988954E0,4.2414856E0,1.172056E0,3.2345243E0,1.0069613E0],"tree_param":{"num_deleted":"0","num_feature":"367","num_nodes":"19","size_leaf_vector":"1"}},{"base_weights":[8.2164526E-2,-1.0258296E-2,4.965999E-1,-1.3851798E-1,4.5874193E-1,1.4246632E-1,1.0331276E-2,2.5157157E-2,-1.08298615E-1,1.1748091E-1,1.2179094E-2,2.4759859E-1,-4.1187245E-1,3.931587E-1,-4.6725582E-2,-2.650458E-2,-1.14685096E-1,1.0838006E-1,-3.213157E-2],"categories":[],"categories_nodes":[],"categories_segments":[],"categories_sizes":[],"default_left":[0,0,0,0,0,0,0,0,0,0,0,0,0,0,0,0,0,0,0],"id":28,"left_children":[1,3,5,7,9,-1,-1,11,-1,-1,-1,13,15,17,-1,-1,-1,-1,-1],"loss_changes":[7.0949537E-1,1.0269989E0,2.8702742E-1,8.9382523E-1,1.5216213E-1,0E0,0E0,1.1174726E0,0E0,0E0,0E0,6.20507E-1,9.9965334E-2,5.950832E-1,0E0,0E0,0E0,0E0,0E0],"parents":[2147483647,0,0,1,1,2,2,3,3,4,4,7,7,11,11,12,12,13,13],"right_children":[2,4,6,8,10,-1,-1,12,-1,-1,-1,14,16,18,-1,-1,-1,-1,-1],"split_conditions":[4.034073E-1,1.5966518E-1,-3.3912517E-2,3.074341E-1,1.9530468E-1,1.4246632E-1,1.0331276E-2,-1.2523832E-2,-1.08298615E-1,1.1748091E-1,1.2179094E-2,8.7243244E-2,1.672911E-1,6.9430986E-5,-4.6725582E-2,-2.650458E-2,-1.14685096E-1,1.0838006E-1,-3.213157E-2],"split_indices":[149,263,5,182,10,0,0,86,0,0,0,319,286,254,0,0,0,0,0],"split_type":[0,0,0,0,0,0,0,0,0,0,0,0,0,0,0,0,0,0,0],"sum_hessian":[1.7390093E1,1.5016521E1,2.3735719E0,1.2345101E1,2.6714199E0,1.1938051E0,1.1797669E0,9.446014E0,2.899087E0,1.658579E0,1.012841E0,6.547094E0,2.8989203E0,5.167154E0,1.3799402E0,1.729192E0,1.1697282E0,4.090155E0,1.0769987E0],"tree_param":{"num_deleted":"0","num_feature":"367","num_nodes":"19","size_leaf_vector":"1"}},{"base_weights":[-2.048613E-2,7.653521E-2,-9.7999156E-2,-6.0903925E-2,1.2423531E-1,1.3446496E-1,-3.2870087E-1,-3.5469246E-1,4.1403708E-1,-5.015879E-1,4.344322E-2,-4.3220706E-3,-1.1742343E-1,1.1225515E-1,-1.3188191E-2,-1.8623464E-2,-1.528805E-1],"categories":[],"categories_nodes":[],"categories_segments":[],"categories_sizes":[],"default_left":[0,0,0,0,0,0,0,0,0,0,0,0,0,0,0,0,0],"id":29,"left_children":[1,3,-1,5,-1,7,9,11,13,15,-1,-1,-1,-1,-1,-1,-1],"loss_changes":[8.3278215E-1,1.185629E0,0E0,7.3243606E-1,0E0,1.2840414E0,6.600568E-1,2.6313087E-1,4.4356328E-1,4.3733168E-1,0E0,0E0,0E0,0E0,0E0,0E0,0E0],"parents":[2147483647,0,0,1,1,3,3,5,5,6,6,7,7,8,8,9,9],"right_children":[2,4,-1,6,-1,8,10,12,14,16,-1,-1,-1,-1,-1,-1,-1],"split_conditions":[2.8690103E-1,9.682908E-1,-9.7999156E-2,-1.5523428E-2,1.2423531E-1,9.2320687E-1,2.9963142E-1,9.1002584E-1,2.9602483E-1,2.9642993E-1,4.344322E-2,-4.3220706E-3,-1.1742343E-1,1.1225515E-1,-1.3188191E-2,-1.8623464E-2,-1.528805E-1],"split_indices":[55,0,0,91,0,0,188,0,288,244,0,0,0,0,0,0,0],"split_type":[0,0,0,0,0,0,0,0,0,0,0,0,0,0,0,0,0],"sum_hessian":[1.6458559E1,1.4333597E1,2.1249623E0,1.2154588E1,2.1790092E0,7.315508E0,4.83908E0,2.5627892E0,4.7527184E0,3.7368526E0,1.102227E0,1.5025293E0,1.0602598E0,3.507405E0,1.2453136E0,1.9932382E0,1.7436144E0],"tree_param":{"num_deleted":"0","num_feature":"367","num_nodes":"17","size_leaf_vector":"1"}},{"base_weights":[-4.8496503E-2,-1.3035294E-1,1.0735263E-1,-2.2951254E-1,9.02529E-2,-6.430986E-2,-6.224493E-1,-2.2963326E-1,1.1675304E-1,-1.4251554E-1,-3.7547585E-2,-3.7467742E-1,5.4610282E-2,-1.0716244E-1,1.2679182E-2],"categories":[],"categories_nodes":[],"categories_segments":[],"categories_sizes":[],"default_left":[0,0,0,0,0,0,0,0,0,0,0,0,0,0,0],"id":30,"left_children":[1,3,-1,5,-1,7,9,11,-1,-1,-1,13,-1,-1,-1],"loss_changes":[8.8978976E-1,1.0158132E0,0E0,8.802236E-1,0E0,1.3228577E0,2.610898E-2,7.9920226E-1,0E0,0E0,0E0,5.8733845E-1,0E0,0E0,0E0],"parents":[2147483647,0,0,1,1,3,3,5,5,6,6,7,7,11,11],"right_children":[2,4,-1,6,-1,8,10,12,-1,-1,-1,14,-1,-1,-1],"split_conditions":[2.6191652E-1,3.9678016E-1,1.0735263E-1,-1.7422486E-2,9.02529E-2,9.973961E-2,9.251271E-2,9.725216E-2,1.1675304E-1,-1.4251554E-1,-3.7547585E-2,3.6001354E-1,5.4610282E-2,-1.0716244E-1,1.2679182E-2],"split_indices":[181,220,0,282,0,89,274,284,0,0,0,131,0,0,0],"split_type":[0,0,0,0,0,0,0,0,0,0,0,0,0,0,0],"sum_hessian":[1.6112663E1,1.4817509E1,1.2951549E0,1.3176453E1,1.6410558E0,1.0095612E1,3.080841E0,8.558113E0,1.5374988E0,2.0223505E0,1.0584904E0,6.8393426E0,1.7187703E0,4.8370423E0,2.0023005E0],"tree_param":{"num_deleted":"0","num_feature":"367","num_nodes":"15","size_leaf_vector":"1"}},{"base_weights":[7.324647E-2,-4.2911055E-3,1.06520735E-1,7.3603496E-2,-1.0319988E-1,-7.6323025E-2,3.3444238E-1,-2.0332706E-1,8.7069616E-2,5.890914E-1,-4.3819364E-2,-3.4471393E-1,3.4905322E-2,1.4013866E-1,3.6388215E-2,-1.0152035E-1,2.3770165E-2],"categories":[],"categories_nodes":[],"categories_segments":[],"categories_sizes":[],"default_left":[0,0,0,0,0,0,0,0,0,0,0,0,0,0,0,0,0],"id":31,"left_children":[1,3,-1,5,-1,7,9,11,-1,13,-1,15,-1,-1,-1,-1,-1],"loss_changes":[6.161907E-1,6.6532034E-1,0E0,5.939303E-1,0E0,7.412101E-1,9.030525E-1,5.2645385E-1,0E0,5.571854E-2,0E0,5.6530917E-1,0E0,0E0,0E0,0E0,0E0],"parents":[2147483647,0,0,1,1,3,3,5,5,6,6,7,7,9,9,11,11],"right_children":[2,4,-1,6,-1,8,10,12,-1,14,-1,16,-1,-1,-1,-1,-1],"split_conditions":[4.6472016E-1,4.050203E-1,1.06520735E-1,-3.3073265E-2,-1.0319988E-1,3.5693806E-1,1.3211542E-1,-1.4700995E-2,8.7069616E-2,1.325335E-1,-4.3819364E-2,2.9642993E-1,3.4905322E-2,1.4013866E-1,3.6388215E-2,-1.0152035E-1,2.3770165E-2],"split_indices":[204,177,0,261,0,60,171,171,0,178,0,244,0,0,0,0,0],"split_type":[0,0,0,0,0,0,0,0,0,0,0,0,0,0,0,0,0],"sum_hessian":[1.6236082E1,1.473888E1,1.4972026E0,1.3534723E1,1.204157E0,9.043843E0,4.4908795E0,7.7282124E0,1.3156307E0,3.0318751E0,1.4590045E0,5.6876783E0,2.0405343E0,1.8137486E0,1.2181265E0,4.138494E0,1.5491841E0],"tree_param":{"num_deleted":"0","num_feature":"367","num_nodes":"17","size_leaf_vector":"1"}},{"base_weights":[4.828007E-2,-6.0112286E-2,4.7079384E-1,7.8729086E-2,-4.4084847E-1,1.1417245E-1,3.0236373E-2,-8.8429086E-2,1.0318084E-1,-1.3306888E-2,-1.23540476E-1,-2.4936381E-1,9.728443E-2,-4.7173533E-1,4.9966782E-2,-1.2321021E-1,9.472375E-3],"categories":[],"categories_nodes":[],"categories_segments":[],"categories_sizes":[],"default_left":[0,0,0,0,0,0,0,0,0,0,0,0,0,0,0,0,0],"id":32,"left_children":[1,3,5,7,9,-1,-1,11,-1,-1,-1,13,-1,15,-1,-1,-1],"loss_changes":[7.59061E-1,7.528611E-1,2.1509767E-2,8.3512205E-1,2.0925432E-1,0E0,0E0,9.232985E-1,0E0,0E0,0E0,9.430827E-1,0E0,4.4039738E-1,0E0,0E0,0E0],"parents":[2147483647,0,0,1,1,2,2,3,3,4,4,7,7,11,11,13,13],"right_children":[2,4,6,8,10,-1,-1,12,-1,-1,-1,14,-1,16,-1,-1,-1],"split_conditions":[9.682908E-1,1.2518978E-1,2.0678367E-2,1.3594216E-3,7.355908E-2,1.1417245E-1,3.0236373E-2,3.213043E-1,1.0318084E-1,-1.3306888E-2,-1.23540476E-1,2.2520395E-1,9.728443E-2,4.9974117E-1,4.9966782E-2,-1.2321021E-1,9.472375E-3],"split_indices":[0,285,340,176,332,0,0,136,0,0,0,106,0,48,0,0,0],"split_type":[0,0,0,0,0,0,0,0,0,0,0,0,0,0,0,0,0],"sum_hessian":[1.4956424E1,1.2585457E1,2.3709662E0,9.80363E0,2.7818274E0,1.2069637E0,1.1640025E0,7.6690283E0,2.1346016E0,1.3341948E0,1.4476326E0,6.4339876E0,1.2350408E0,4.489236E0,1.9447519E0,3.3665247E0,1.122711E0],"tree_param":{"num_deleted":"0","num_feature":"367","num_nodes":"17","size_leaf_vector":"1"}},{"base_weights":[5.8709037E-2,-3.0388426E-2,9.59105E-2,-1.1274689E-1,7.658644E-2,1.5621577E-2,-4.2855233E-1,1.5000784E-1,-9.8712586E-2,-1.03675805E-1,-2.6905501E-2,-4.1299623E-2,1.382662E-1,-3.8895424E-2,8.2051076E-2],"categories":[],"categories_nodes":[],"categories_segments":[],"categories_sizes":[],"default_left":[0,0,0,0,0,0,0,0,0,0,0,0,0,0,0],"id":33,"left_children":[1,3,-1,5,-1,7,9,11,-1,-1,-1,13,-1,-1,-1],"loss_changes":[6.255822E-1,5.329676E-1,0E0,5.244E-1,0E0,7.613591E-1,2.8669E-2,9.309668E-1,0E0,0E0,0E0,5.9039766E-1,0E0,0E0,0E0],"parents":[2147483647,0,0,1,1,3,3,5,5,6,6,7,7,11,11],"right_children":[2,4,-1,6,-1,8,10,12,-1,-1,-1,14,-1,-1,-1],"split_conditions":[1.8490781E-1,3.9678016E-1,9.59105E-2,3.074341E-1,7.658644E-2,3.1172156E-1,5.5619612E-2,3.5677403E-1,-9.8712586E-2,-1.03675805E-1,-2.6905501E-2,1.6845363E-1,1.382662E-1,-3.8895424E-2,8.2051076E-2],"split_indices":[92,220,0,182,0,302,184,269,0,0,0,228,0,0,0],"split_type":[0,0,0,0,0,0,0,0,0,0,0,0,0,0,0],"sum_hessian":[1.5295288E1,1.3388564E1,1.9067235E0,1.1770405E1,1.6181595E0,9.044525E0,2.7258804E0,7.7140055E0,1.3305192E0,1.5035039E0,1.2223763E0,6.3821974E0,1.331808E0,5.19071E0,1.1914876E0],"tree_param":{"num_deleted":"0","num_feature":"367","num_nodes":"15","size_leaf_vector":"1"}},{"base_weights":[1.0818112E-1,-1.5340785E-2,4.5848086E-1,-1.263028E-1,8.197857E-2,1.1413061E-1,1.5439843E-2,-2.9377794E-1,2.8223506E-1,-4.5179078E-1,6.449836E-2,-1.3407645E-2,1.10250965E-1,-5.655414E-1,1.9610878E-2,-1.3448507E-1,-8.218234E-3],"categories":[],"categories_nodes":[],"categories_segments":[],"categories_sizes":[],"default_left":[0,0,0,0,0,0,0,0,0,0,0,0,0,0,0,0,0],"id":34,"left_children":[1,3,5,7,-1,-1,-1,9,11,13,-1,-1,-1,15,-1,-1,-1],"loss_changes":[6.870069E-1,6.4562255E-1,1.3254446E-1,8.181275E-1,0E0,0E0,0E0,9.355658E-1,3.7843817E-1,4.8529494E-1,0E0,0E0,0E0,2.9985535E-1,0E0,0E0,0E0],"parents":[2147483647,0,0,1,1,2,2,3,3,7,7,8,8,9,9,13,13],"right_children":[2,4,6,8,-1,-1,-1,10,12,14,-1,-1,-1,16,-1,-1,-1],"split_conditions":[1.3867538E-1,4.620329E-1,1.0946581E-1,2.9963142E-1,8.197857E-2,1.1413061E-1,1.5439843E-2,3.648461E-1,9.3829736E-2,2.186335E-1,6.449836E-2,-1.3407645E-2,1.10250965E-1,3.3156288E-1,1.9610878E-2,-1.3448507E-1,-8.218234E-3],"split_indices":[11,246,226,188,0,0,0,210,243,214,0,0,0,267,0,0,0],"split_type":[0,0,0,0,0,0,0,0,0,0,0,0,0,0,0,0,0],"sum_hessian":[1.4714773E1,1.1585668E1,3.129105E0,9.745597E0,1.8400713E0,2.0340285E0,1.0950768E0,7.111306E0,2.6342902E0,5.8724837E0,1.2388225E0,1.4728577E0,1.1614325E0,4.842196E0,1.0302881E0,3.7880342E0,1.0541614E0],"tree_param":{"num_deleted":"0","num_feature":"367","num_nodes":"17","size_leaf_vector":"1"}},{"base_weights":[2.3825454E-2,1.0306563E-1,-9.9088535E-2,-8.653276E-2,3.4519583E-1,5.664997E-2,-9.885219E-2,1.244113E-2,1.1945839E-1,-9.618699E-2,1.00188255E-1,7.175866E-2,-7.959799E-2,-2.4798377E-1,5.9380174E-2,6.875613E-3,-9.79325E-2],"categories":[],"categories_nodes":[],"categories_segments":[],"categories_sizes":[],"default_left":[0,0,0,0,0,0,0,0,0,0,0,0,0,0,0,0,0],"id":35,"left_children":[1,3,-1,5,7,9,-1,11,-1,13,-1,-1,-1,15,-1,-1,-1],"loss_changes":[6.73505E-1,6.703863E-1,0E0,5.3149873E-1,5.233792E-1,5.4253936E-1,0E0,6.757026E-1,0E0,4.4690228E-1,0E0,0E0,0E0,3.6198625E-1,0E0,0E0,0E0],"parents":[2147483647,0,0,1,1,3,3,4,4,5,5,7,7,9,9,13,13],"right_children":[2,4,-1,6,8,10,-1,12,-1,14,-1,-1,-1,16,-1,-1,-1],"split_conditions":[4.050203E-1,-6.422683E-2,-9.9088535E-2,2.8690103E-1,6.6781975E-2,9.6589714E-1,-9.885219E-2,3.0831898E-2,1.1945839E-1,1.792306E-1,1.00188255E-1,7.175866E-2,-7.959799E-2,9.358111E-1,5.9380174E-2,6.875613E-3,-9.79325E-2],"split_indices":[177,262,0,55,95,0,0,73,0,346,0,0,0,0,0,0,0],"split_type":[0,0,0,0,0,0,0,0,0,0,0,0,0,0,0,0,0],"sum_hessian":[1.412731E1,1.2952308E1,1.1750015E0,7.624564E0,5.3277435E0,6.2801948E0,1.3443693E0,2.7488048E0,2.578939E0,5.255722E0,1.0244728E0,1.5590101E0,1.1897948E0,4.0578585E0,1.1978638E0,2.2669976E0,1.7908607E0],"tree_param":{"num_deleted":"0","num_feature":"367","num_nodes":"17","size_leaf_vector":"1"}},{"base_weights":[1.5372069E-1,3.1166878E-1,-1.2969571E-1,3.903205E-1,-1.6541146E-2,-3.1813443E-1,6.4596616E-2,2.6346946E-2,5.0590104E-1,-5.2524525E-1,3.666663E-2,-5.866618E-2,6.671444E-2,1.2127458E-1,2.0415472E-2,-1.250357E-1,-3.7718486E-2],"categories":[],"categories_nodes":[],"categories_segments":[],"categories_sizes":[],"default_left":[0,0,0,0,0,0,0,0,0,0,0,0,0,0,0,0,0],"id":36,"left_children":[1,3,5,7,-1,9,-1,11,13,15,-1,-1,-1,-1,-1,-1,-1],"loss_changes":[6.8598473E-1,3.286358E-1,6.0321456E-1,3.2912457E-1,0E0,5.788561E-1,0E0,3.9414793E-1,1.8655133E-1,1.4258623E-3,0E0,0E0,0E0,0E0,0E0,0E0,0E0],"parents":[2147483647,0,0,1,1,2,2,3,3,5,5,7,7,8,8,9,9],"right_children":[2,4,6,8,-1,10,-1,12,14,16,-1,-1,-1,-1,-1,-1,-1],"split_conditions":[7.355908E-2,3.8363314E-1,1.671594E-1,3.78E1,-1.6541146E-2,9.480271E-1,6.4596616E-2,-5.545392E-2,3.4676477E-1,1.949107E-1,3.666663E-2,-5.866618E-2,6.671444E-2,1.2127458E-1,2.0415472E-2,-1.250357E-1,-3.7718486E-2],"split_indices":[332,129,100,2,0,0,0,306,40,256,0,0,0,0,0,0,0],"split_type":[0,0,0,0,0,0,0,0,0,0,0,0,0,0,0,0,0],"sum_hessian":[1.342112E1,8.554184E0,4.8669357E0,7.1404204E0,1.4137639E0,3.646294E0,1.2206416E0,2.0169177E0,5.1235027E0,2.5469596E0,1.0993345E0,1.0105906E0,1.006327E0,3.701089E0,1.4224136E0,1.3031003E0,1.2438592E0],"tree_param":{"num_deleted":"0","num_feature":"367","num_nodes":"17","size_leaf_vector":"1"}},{"base_weights":[-4.1087102E-2,-1.752961E-1,8.464111E-2,-3.2939082E-1,1.11480765E-1,-4.2686352E-1,2.8776316E-2,2.875666E-1,-4.7674328E-2,-5.61694E-1,1.7207671E-2,9.2758924E-2,-7.5998283E-3,-1.3606304E-1,-5.649643E-3],"categories":[],"categories_nodes":[],"categories_segments":[],"categories_sizes":[],"default_left":[0,0,0,0,0,0,0,0,0,0,0,0,0,0,0],"id":37,"left_children":[1,3,-1,5,7,9,-1,11,-1,13,-1,-1,-1,-1,-1],"loss_changes":[9.5502967E-1,5.525687E-1,0E0,4.2336333E-1,3.659219E-1,5.1568604E-1,0E0,2.2785628E-1,0E0,3.278128E-1,0E0,0E0,0E0,0E0,0E0],"parents":[2147483647,0,0,1,1,3,3,4,4,5,5,7,7,9,9],"right_children":[2,4,-1,6,8,10,-1,12,-1,14,-1,-1,-1,-1,-1],"split_conditions":[3.2887807E-1,1.0946581E-1,8.464111E-2,5.181704E-1,3.074341E-1,7.916964E-2,2.8776316E-2,9.725216E-2,-4.7674328E-2,2.6611948E-1,1.7207671E-2,9.2758924E-2,-7.5998283E-3,-1.3606304E-1,-5.649643E-3],"split_indices":[157,226,0,203,182,253,0,284,0,152,0,0,0,0,0],"split_type":[0,0,0,0,0,0,0,0,0,0,0,0,0,0,0],"sum_hessian":[1.313596E1,1.0673197E1,2.4627628E0,6.8460116E0,3.8271852E0,5.7581525E0,1.0878595E0,2.6642592E0,1.1629261E0,4.484221E0,1.2739316E0,1.4531122E0,1.211147E0,3.4432342E0,1.0409865E0],"tree_param":{"num_deleted":"0","num_feature":"367","num_nodes":"15","size_leaf_vector":"1"}},{"base_weights":[1.9288811E-1,3.1930697E-1,-1.2786448E-1,4.1614622E-1,-4.3839604E-2,-8.768378E-2,4.767263E-2,5.3284544E-1,-4.138794E-2,7.0617297E-3,6.2757444E-1,7.212875E-1,2.7135137E-2,1.637637E-1,4.815457E-2],"categories":[],"categories_nodes":[],"categories_segments":[],"categories_sizes":[],"default_left":[0,0,0,0,0,0,0,0,0,0,0,0,0,0,0],"id":38,"left_children":[1,3,5,7,-1,-1,-1,9,-1,-1,11,13,-1,-1,-1],"loss_changes":[6.165088E-1,6.3718176E-1,6.4220023E-1,7.805897E-1,0E0,0E0,0E0,3.569727E-1,0E0,0E0,2.1089625E-1,5.5660725E-2,0E0,0E0,0E0],"parents":[2147483647,0,0,1,1,2,2,3,3,7,7,10,10,11,11],"right_children":[2,4,6,8,-1,-1,-1,10,-1,-1,12,14,-1,-1,-1],"split_conditions":[3.0831898E-2,2.6860306E-1,6.6781975E-2,3.7705985E-1,-4.3839604E-2,-8.768378E-2,4.767263E-2,3.78E1,-4.138794E-2,7.0617297E-3,-4.053438E-2,1.671594E-1,2.7135137E-2,1.637637E-1,4.815457E-2],"split_indices":[73,135,95,155,0,0,0,2,0,0,348,100,0,0,0],"split_type":[0,0,0,0,0,0,0,0,0,0,0,0,0,0,0],"sum_hessian":[1.3197102E1,9.469411E0,3.7276905E0,8.218669E0,1.2507423E0,1.9104997E0,1.8171908E0,7.0441766E0,1.174492E0,1.346229E0,5.6979475E0,4.3944206E0,1.3035269E0,3.067715E0,1.3267057E0],"tree_param":{"num_deleted":"0","num_feature":"367","num_nodes":"15","size_leaf_vector":"1"}},{"base_weights":[6.505646E-2,-6.375583E-2,3.631185E-1,-1.5637867E-1,7.177403E-2,1.3592033E-1,-1.6546411E-2,-3.2112676E-1,2.6042697E-1,-4.2828205E-1,1.2589361E-2,7.099134E-3,7.1738005E-2,-5.816055E-1,1.8062592E-2,-1.3827401E-1,-2.9979533E-2],"categories":[],"categories_nodes":[],"categories_segments":[],"categories_sizes":[],"default_left":[0,0,0,0,0,0,0,0,0,0,0,0,0,0,0,0,0],"id":39,"left_children":[1,3,5,7,-1,-1,-1,9,11,13,-1,-1,-1,15,-1,-1,-1],"loss_changes":[5.4180825E-1,4.586484E-1,6.524927E-1,7.106402E-1,0E0,0E0,0E0,3.1472373E-1,5.6645796E-2,4.974028E-1,0E0,0E0,0E0,1.07362986E-1,0E0,0E0,0E0],"parents":[2147483647,0,0,1,1,2,2,3,3,7,7,8,8,9,9,13,13],"right_children":[2,4,6,8,-1,-1,-1,10,12,14,-1,-1,-1,16,-1,-1,-1],"split_conditions":[9.725216E-2,4.923895E-1,2.0233838E-2,9.397907E-2,7.177403E-2,1.3592033E-1,-1.6546411E-2,9.6589714E-1,9.18806E-2,2.62038E-1,1.2589361E-2,7.099134E-3,7.1738005E-2,3.2887807E-1,1.8062592E-2,-1.3827401E-1,-2.9979533E-2],"split_indices":[284,158,331,164,0,0,0,0,7,209,0,0,0,157,0,0,0],"split_type":[0,0,0,0,0,0,0,0,0,0,0,0,0,0,0,0,0],"sum_hessian":[1.2508795E1,9.283067E0,3.2257276E0,8.131047E0,1.1520196E0,1.5799396E0,1.645788E0,5.9921293E0,2.138918E0,4.5950274E0,1.397102E0,1.0641751E0,1.0747429E0,3.4527223E0,1.1423053E0,2.2732553E0,1.179467E0],"tree_param":{"num_deleted":"0","num_feature":"367","num_nodes":"17","size_leaf_vector":"1"}},{"base_weights":[1.2740734E-2,-9.09999E-2,3.0250663E-1,-1.8404098E-1,5.7164878E-2,1.0459806E-1,-3.5641436E-2,2.817235E-2,-4.653542E-1,-1.5956299E-1,8.798619E-2,-1.3067533E-1,-4.079377E-3,-5.4783422E-2,8.04135E-3],"categories":[],"categories_nodes":[],"categories_segments":[],"categories_sizes":[],"default_left":[0,0,0,0,0,0,0,0,0,0,0,0,0,0,0],"id":40,"left_children":[1,3,5,7,-1,-1,-1,9,11,13,-1,-1,-1,-1,-1],"loss_changes":[4.7235748E-1,4.6159348E-1,5.3119373E-1,6.079308E-1,0E0,0E0,0E0,5.82113E-1,3.4988624E-1,1.3168561E-1,0E0,0E0,0E0,0E0,0E0],"parents":[2147483647,0,0,1,1,2,2,3,3,7,7,8,8,9,9],"right_children":[2,4,6,8,-1,-1,-1,10,12,14,-1,-1,-1,-1,-1],"split_conditions":[2.4652313E-1,3.5677403E-1,4.06E1,2.0703014E-3,5.7164878E-2,1.0459806E-1,-3.5641436E-2,1.1420392E-1,4.621221E-2,-8.980539E-2,8.798619E-2,-1.3067533E-1,-4.079377E-3,-5.4783422E-2,8.04135E-3],"split_indices":[300,269,2,308,0,0,0,313,341,261,0,0,0,0,0],"split_type":[0,0,0,0,0,0,0,0,0,0,0,0,0,0,0],"sum_hessian":[1.3797806E1,1.0665387E1,3.1324186E0,8.963759E0,1.7016274E0,2.087173E0,1.0452456E0,5.6223216E0,3.341438E0,4.2823367E0,1.3399848E0,2.0196192E0,1.3218188E0,2.4873435E0,1.7949934E0],"tree_param":{"num_deleted":"0","num_feature":"367","num_nodes":"15","size_leaf_vector":"1"}},{"base_weights":[4.893374E-2,1.3322434E-1,-6.4988375E-2,2.3817492E-1,-5.9626322E-2,3.3749232E-1,-2.388955E-2,-1.5574137E-2,4.524716E-1,1.083704E-1,1.5729219E-2],"categories":[],"categories_nodes":[],"categories_segments":[],"categories_sizes":[],"default_left":[0,0,0,0,0,0,0,0,0,0,0],"id":41,"left_children":[1,3,-1,5,-1,7,-1,-1,9,-1,-1],"loss_changes":[4.7419655E-1,6.0824275E-1,0E0,3.9907062E-1,0E0,4.252597E-1,0E0,0E0,1.7600322E-1,0E0,0E0],"parents":[2147483647,0,0,1,1,3,3,5,5,8,8],"right_children":[2,4,-1,6,-1,8,-1,-1,10,-1,-1],"split_conditions":[3.1000495E-1,2.8690103E-1,-6.4988375E-2,7.6556176E-2,-5.9626322E-2,3.78E1,-2.388955E-2,-1.5574137E-2,2.2814533E-1,1.083704E-1,1.5729219E-2],"split_indices":[242,55,0,257,0,2,0,0,283,0,0],"split_type":[0,0,0,0,0,0,0,0,0,0,0],"sum_hessian":[1.2673406E1,1.086708E1,1.8063262E0,9.100692E0,1.7663876E0,7.1666813E0,1.9340105E0,1.623722E0,5.542959E0,4.110641E0,1.4323183E0],"tree_param":{"num_deleted":"0","num_feature":"367","num_nodes":"11","size_leaf_vector":"1"}},{"base_weights":[1.010382E-2,-1.6263165E-1,2.0391382E-1,-1.3279334E-2,-1.0647943E-1,3.7546697E-1,-3.0444354E-2,-2.0254156E-1,8.8122524E-2,7.563877E-2,1.201927E-1,3.6018133E-2,-9.271174E-2,-5.744524E-2,7.552945E-2,4.710048E-2,-4.5232937E-2],"categories":[],"categories_nodes":[],"categories_segments":[],"categories_sizes":[],"default_left":[0,0,0,0,0,0,0,0,0,0,0,0,0,0,0,0,0],"id":42,"left_children":[1,3,5,7,-1,9,-1,11,-1,13,-1,15,-1,-1,-1,-1,-1],"loss_changes":[4.8232144E-1,4.154204E-1,4.7054857E-1,6.454624E-1,0E0,2.8279263E-1,0E0,3.4388894E-1,0E0,4.6222213E-1,0E0,2.4538042E-1,0E0,0E0,0E0,0E0,0E0],"parents":[2147483647,0,0,1,1,2,2,3,3,5,5,7,7,9,9,11,11],"right_children":[2,4,6,8,-1,10,-1,12,-1,14,-1,16,-1,-1,-1,-1,-1],"split_conditions":[-6.422683E-2,8.7243244E-2,1.9428313E-1,4.28E1,-1.0647943E-1,6.6781975E-2,-3.0444354E-2,4.04E1,8.8122524E-2,9.3987685E-1,1.201927E-1,2.1559803E-1,-9.271174E-2,-5.744524E-2,7.552945E-2,4.710048E-2,-4.5232937E-2],"split_indices":[262,319,312,2,0,95,0,2,0,0,0,20,0,0,0,0,0],"split_type":[0,0,0,0,0,0,0,0,0,0,0,0,0,0,0,0,0],"sum_hessian":[1.2416586E1,6.6502986E0,5.7662873E0,5.474857E0,1.1754415E0,3.8550165E0,1.911271E0,4.254569E0,1.220288E0,2.2280085E0,1.6270078E0,2.6732914E0,1.5812777E0,1.0342715E0,1.193737E0,1.5759658E0,1.0973256E0],"tree_param":{"num_deleted":"0","num_feature":"367","num_nodes":"17","size_leaf_vector":"1"}},{"base_weights":[1.1899682E-2,1.243574E-1,-2.6540023E-1,1.6375693E-3,1.0299032E-1,-8.130568E-2,-1.2607252E-3,-1.5518637E-1,6.5427445E-2,-3.1336993E-1,5.56582E-2,-8.187945E-2,-7.0096995E-3],"categories":[],"categories_nodes":[],"categories_segments":[],"categories_sizes":[],"default_left":[0,0,0,0,0,0,0,0,0,0,0,0,0],"id":43,"left_children":[1,3,5,7,-1,-1,-1,9,-1,11,-1,-1,-1],"loss_changes":[4.208501E-1,4.559426E-1,1.403212E-1,4.7212613E-1,0E0,0E0,0E0,5.156849E-1,0E0,1.2058079E-1,0E0,0E0,0E0],"parents":[2147483647,0,0,1,1,2,2,3,3,7,7,9,9],"right_children":[2,4,6,8,-1,-1,-1,10,-1,12,-1,-1,-1],"split_conditions":[2.5875783E-1,4.034073E-1,5.4670397E-2,4.392176E-2,1.0299032E-1,-8.130568E-2,-1.2607252E-3,3.6001354E-1,6.5427445E-2,-6.422683E-2,5.56582E-2,-8.187945E-2,-7.0096995E-3],"split_indices":[127,149,92,87,0,0,0,131,0,262,0,0,0],"split_type":[0,0,0,0,0,0,0,0,0,0,0,0,0],"sum_hessian":[1.143712E1,8.529544E0,2.907576E0,7.254472E0,1.2750725E0,1.5139275E0,1.3936486E0,5.248844E0,2.0056276E0,4.0485396E0,1.2003046E0,2.6598713E0,1.3886682E0],"tree_param":{"num_deleted":"0","num_feature":"367","num_nodes":"13","size_leaf_vector":"1"}},{"base_weights":[1.1174077E-2,-1.0713445E-1,3.2743907E-1,-2.5516623E-1,2.6940286E-1,1.9827645E-2,8.747756E-2,-3.6012626E-1,2.3791868E-2,-5.1004007E-3,8.264625E-2,-4.961716E-1,2.7265793E-2,-1.11343145E-1,-2.8913334E-2],"categories":[],"categories_nodes":[],"categories_segments":[],"categories_sizes":[],"default_left":[0,0,0,0,0,0,0,0,0,0,0,0,0,0,0],"id":44,"left_children":[1,3,5,7,9,-1,-1,11,-1,-1,-1,13,-1,-1,-1],"loss_changes":[5.2815795E-1,6.4530414E-1,5.2879423E-2,3.5456836E-1,1.5498215E-1,0E0,0E0,5.031126E-1,0E0,0E0,0E0,3.1836987E-2,0E0,0E0,0E0],"parents":[2147483647,0,0,1,1,2,2,3,3,4,4,7,7,11,11],"right_children":[2,4,6,8,10,-1,-1,12,-1,-1,-1,14,-1,-1,-1],"split_conditions":[2.4652313E-1,1.6845363E-1,6.2737134E-3,1.3867538E-1,3.9E1,1.9827645E-2,8.747756E-2,2.803835E-1,2.3791868E-2,-5.1004007E-3,8.264625E-2,1.0946581E-1,2.7265793E-2,-1.11343145E-1,-2.8913334E-2],"split_indices":[300,228,323,11,2,0,0,143,0,0,0,226,0,0,0],"split_type":[0,0,0,0,0,0,0,0,0,0,0,0,0,0,0],"sum_hessian":[1.2177965E1,9.343862E0,2.8341038E0,6.938425E0,2.4054358E0,1.5393751E0,1.2947289E0,5.4475474E0,1.4908776E0,1.0582657E0,1.3471702E0,4.276276E0,1.1712714E0,3.1504352E0,1.1258411E0],"tree_param":{"num_deleted":"0","num_feature":"367","num_nodes":"15","size_leaf_vector":"1"}},{"base_weights":[5.1831532E-2,-7.32428E-2,9.465505E-2,9.06646E-2,-3.3275568E-1,-6.264658E-2,7.10481E-2,1.0103143E-2,-9.625248E-2,-2.385227E-1,5.5252444E-2,-1.1149927E-2,-7.647995E-2],"categories":[],"categories_nodes":[],"categories_segments":[],"categories_sizes":[],"default_left":[0,0,0,0,0,0,0,0,0,0,0,0,0],"id":45,"left_children":[1,3,-1,5,7,9,-1,-1,-1,11,-1,-1,-1],"loss_changes":[6.703165E-1,4.6255758E-1,0E0,3.0684492E-1,2.6047203E-1,3.813401E-1,0E0,0E0,0E0,8.4414735E-2,0E0,0E0,0E0],"parents":[2147483647,0,0,1,1,3,3,4,4,5,5,9,9],"right_children":[2,4,-1,6,8,10,-1,-1,-1,12,-1,-1,-1],"split_conditions":[9.682908E-1,3.291724E-2,9.465505E-2,1.6845363E-1,-1.2523832E-2,-4.053438E-2,7.10481E-2,1.0103143E-2,-9.625248E-2,-8.980539E-2,5.5252444E-2,-1.1149927E-2,-7.647995E-2],"split_indices":[0,3,0,228,86,348,0,0,0,261,0,0,0],"split_type":[0,0,0,0,0,0,0,0,0,0,0,0,0],"sum_hessian":[1.105902E1,9.1652155E0,1.893805E0,6.0161023E0,3.149113E0,4.2921762E0,1.723926E0,1.0637056E0,2.0854073E0,3.0207615E0,1.2714148E0,1.9416645E0,1.079097E0],"tree_param":{"num_deleted":"0","num_feature":"367","num_nodes":"13","size_leaf_vector":"1"}},{"base_weights":[5.344093E-2,1.6317411E-1,-2.1619195E-1,8.566465E-3,1.07247785E-1,-9.118848E-2,1.8682407E-2,1.22889936E-1,-7.383894E-2,-5.0450163E-3,7.659834E-2,-1.6310717E-1,6.920114E-2,-4.9395863E-2,1.2288175E-2],"categories":[],"categories_nodes":[],"categories_segments":[],"categories_sizes":[],"default_left":[0,0,0,0,0,0,0,0,0,0,0,0,0,0,0],"id":46,"left_children":[1,3,5,7,-1,-1,-1,9,-1,11,-1,13,-1,-1,-1],"loss_changes":[4.1918853E-1,5.602006E-1,3.5310775E-1,3.8824213E-1,0E0,0E0,0E0,2.2970796E-1,0E0,3.6579362E-1,0E0,1.0037543E-1,0E0,0E0,0E0],"parents":[2147483647,0,0,1,1,2,2,3,3,7,7,9,9,11,11],"right_children":[2,4,6,8,-1,-1,-1,10,-1,12,-1,14,-1,-1,-1],"split_conditions":[5.9861937E-3,4.7221478E-2,5.8244072E-2,4.9974117E-1,1.07247785E-1,-9.118848E-2,1.8682407E-2,-3.3912517E-2,-7.383894E-2,2.9963142E-1,7.659834E-2,2.2520395E-1,6.920114E-2,-4.9395863E-2,1.2288175E-2],"split_indices":[34,83,348,48,0,0,0,5,0,188,0,106,0,0,0],"split_type":[0,0,0,0,0,0,0,0,0,0,0,0,0,0,0],"sum_hessian":[1.1975389E1,8.792081E0,3.1833072E0,6.939243E0,1.8528384E0,1.5276589E0,1.6556482E0,5.8450265E0,1.0942165E0,4.575233E0,1.2697935E0,3.5239382E0,1.0512946E0,2.4929047E0,1.0310334E0],"tree_param":{"num_deleted":"0","num_feature":"367","num_nodes":"15","size_leaf_vector":"1"}},{"base_weights":[1.2532202E-2,8.585115E-2,-7.863047E-2,-6.683387E-2,3.355278E-1,8.502744E-2,-9.0088315E-2,1.17826544E-1,-3.5468727E-2,2.3735128E-1,-6.0166802E-2,-4.8742812E-2,8.448132E-2],"categories":[],"categories_nodes":[],"categories_segments":[],"categories_sizes":[],"default_left":[0,0,0,0,0,0,0,0,0,0,0,0,0],"id":47,"left_children":[1,3,-1,5,7,9,-1,-1,-1,11,-1,-1,-1],"loss_changes":[3.9063537E-1,4.4110093E-1,0E0,4.838872E-1,6.6814697E-1,4.429164E-1,0E0,0E0,0E0,5.561497E-1,0E0,0E0,0E0],"parents":[2147483647,0,0,1,1,3,3,4,4,5,5,9,9],"right_children":[2,4,-1,6,8,10,-1,-1,-1,12,-1,-1,-1],"split_conditions":[4.050203E-1,-3.3073265E-2,-7.863047E-2,3.5063922E-1,2.2570287E-1,3.7705985E-1,-9.0088315E-2,1.17826544E-1,-3.5468727E-2,3.8E1,-6.0166802E-2,-4.8742812E-2,8.448132E-2],"split_indices":[177,261,0,218,76,155,0,0,0,2,0,0,0],"split_type":[0,0,0,0,0,0,0,0,0,0,0,0,0],"sum_hessian":[1.0998332E1,9.982572E0,1.0157605E0,6.6488886E0,3.3336833E0,5.3208404E0,1.3280482E0,2.1311677E0,1.2025157E0,4.0908165E0,1.2300237E0,1.0484116E0,3.042405E0],"tree_param":{"num_deleted":"0","num_feature":"367","num_nodes":"13","size_leaf_vector":"1"}},{"base_weights":[4.7845777E-2,2.2067669E-1,-1.7055508E-1,3.41782E-1,-4.4347268E-2,-3.3531615E-1,2.6144473E-2,4.1556266E-1,9.96648E-3,-1.1336676E-1,1.3252764E-2,3.3765104E-2,1.0979388E-1],"categories":[],"categories_nodes":[],"categories_segments":[],"categories_sizes":[],"default_left":[0,0,0,0,0,0,0,0,0,0,0,0,0],"id":48,"left_children":[1,3,5,7,-1,9,-1,11,-1,-1,-1,-1,-1],"loss_changes":[4.8941538E-1,4.5712414E-1,3.342892E-1,1.0812938E-1,0E0,4.1532907E-1,0E0,5.999881E-2,0E0,0E0,0E0,0E0,0E0],"parents":[2147483647,0,0,1,1,2,2,3,3,5,5,7,7],"right_children":[2,4,6,8,-1,10,-1,12,-1,-1,-1,-1,-1],"split_conditions":[-1.2523832E-2,3.9549905E-1,5.8244072E-2,1.3849129E-1,-4.4347268E-2,9.409732E-1,2.6144473E-2,4.12E1,9.96648E-3,-1.1336676E-1,1.3252764E-2,3.3765104E-2,1.0979388E-1],"split_indices":[86,330,348,189,0,0,0,2,0,0,0,0,0],"split_type":[0,0,0,0,0,0,0,0,0,0,0,0,0],"sum_hessian":[1.09687605E1,6.117374E0,4.851387E0,4.98127E0,1.1361041E0,3.063212E0,1.7881752E0,3.6383827E0,1.3428869E0,1.6820009E0,1.381211E0,2.0718918E0,1.5664909E0],"tree_param":{"num_deleted":"0","num_feature":"367","num_nodes":"13","size_leaf_vector":"1"}},{"base_weights":[6.2323425E-2,-5.508636E-2,9.025527E-2,1.4667785E-1,-2.2784166E-1,-4.1259006E-2,7.909059E-2,-3.9530927E-1,1.6759938E-2,3.318208E-2,-4.415647E-2,-1.0225616E-1,-1.008614E-2],"categories":[],"categories_nodes":[],"categories_segments":[],"categories_sizes":[],"default_left":[0,0,0,0,0,0,0,0,0,0,0,0,0],"id":49,"left_children":[1,3,-1,5,7,9,-1,11,-1,-1,-1,-1,-1],"loss_changes":[5.281421E-1,3.59551E-1,0E0,2.4654613E-1,3.1663755E-1,1.7463627E-1,0E0,1.22537374E-1,0E0,0E0,0E0,0E0,0E0],"parents":[2147483647,0,0,1,1,3,3,4,4,5,5,7,7],"right_children":[2,4,-1,6,8,10,-1,12,-1,-1,-1,-1,-1],"split_conditions":[9.682908E-1,-8.980539E-2,9.025527E-2,9.973961E-2,1.3867538E-1,4.04E1,7.909059E-2,9.480271E-1,1.6759938E-2,3.318208E-2,-4.415647E-2,-1.0225616E-1,-1.008614E-2],"split_indices":[0,261,0,89,11,2,0,0,0,0,0,0,0],"split_type":[0,0,0,0,0,0,0,0,0,0,0,0,0],"sum_hessian":[1.0020742E1,8.356586E0,1.6641563E0,3.924287E0,4.432299E0,2.7106676E0,1.2136194E0,2.7084024E0,1.7238969E0,1.2936397E0,1.4170281E0,1.6657646E0,1.0426377E0],"tree_param":{"num_deleted":"0","num_feature":"367","num_nodes":"13","size_leaf_vector":"1"}}]},"name":"gbtree"},"learner_model_param":{"base_score":"5E-1","boost_from_average":"1","num_class":"0","num_feature":"367","num_target":"1"},"objective":{"name":"binary:logistic","reg_loss_param":{"scale_pos_weight":"1"}}},"version":[3,0,3]}