{"learner":{"attributes":{"scikit_learn":"{\"_estimator_type\": \"classifier\"}"},"feature_names":["Tau","length","GC","1-AAAAAAAAGAAG","1-AAAAAAAATTAATTT","1-AAAAAAATAAAATTG","1-AAAAACCACT","1-AAAACAAATAAAA","1-AAAACTCTTTT","1-AAAAGTGAA","1-AAAATATTTTAAAA","1-AAAGAGAACAAG","1-AAATATTTTTAAAA","1-AAATGAGACA","1-AACAGGACG","1-AACCGTCTC","1-AACGCGCTT","1-AAGACCAACT","1-AAGCATCCWGAA","1-AAGCTAGACAGAGWG","1-AAGTCKTTCTTGYTK","1-AATAAAAATGT","1-AATACTTCAACA","1-AATCCACTTGMTGAT","1-ACAAAGGTGAT","1-ACAACACAATG","1-ACAGACA","1-ACCAAAAGAA","1-ACCAGGTACA","1-AGAAAACAAAA","1-AGAGAGAGAGG","1-AGTATAGTACG","1-AMCGCGKT","1-ATAAAGCAA","1-ATATAAAAAAATTAA","1-ATATATATTTTTTA","1-ATATTTTAGAM","1-ATCCTGAAAATG","1-ATTGATCATAY","1-ATTGTTTTTTAA","1-ATTTGATTACC","1-ATTYTGTTTTGVKCT","1-BSMCGCGKSV","1-CAAAACAGAAATT","1-CAACTCCTC","1-CAATGCATCAGA","1-CACACGGCA","1-CAGCATCAAAA","1-CAGGAGAA","1-CATTAAGCTCTA","1-CATTCGCTTA","1-CCAAAAAATGACC","1-CCAATATTTCCA","1-CCACACGG","1-CCAGCAA","1-CCATGCCACCK","1-CCGCWCA","1-CCTGCAGG","1-CTGGAGTTCCTATT","1-GAAGAACCHAG","1-GAATTCTTTAA","1-GCACAATCAAAC","1-GGAAAACA","1-GGCAGATAC","1-GGGACCTTAA","1-GGGGCCTAK","1-GGTGGCA","1-GTATTGAAAGKAAMT","1-NWACGCGTWN","1-TAATTTAAAAA","1-TATTTTTTTAAAAAT","1-TCGATTCAA","1-TGTATAAAAAA","1-TTAAAAAAATAAA","1-TTAAAAAAATAAAA","1-TTAAAAAAATAAAAT","1-TTATTTTTTAAATA","1-TTGTTTTTTAAA","1-TTTAAAAAATAAATT","1-TTTAAAATAAATAAA","1-YAACGGCTASTTTT","10-AAAATAWTATTTT","10-CACACGGC","11-AAATATTTTTAAAA","11-AAATTAAAATA","12-TATTTTAAAATAA","12-TCAATAAAAAAAA","13-AAAAATTAAAAAAT","14-CACGTGG","15-ATTTTAAAAAAAAT","16-AGTAAAAAAAAAA","17-AATAAAAAAAATAAA","2-AAAAAAAAACTAA","2-AAAAAAAACTAAA","2-AAAAAATAAAATT","2-AAAAAATTTTAA","2-AAAAATAAATTT","2-AAAAATATTAA","2-AAAATAAATTTTA","2-AAAATTTTTAAT","2-AAACCCAAAAA","2-AAAGAAGCAGCAGA","2-AAAGTAAACGT","2-AAATATATAAAAATT","2-AAATCGGATTCTC","2-AAATTAATTCC","2-AACAAGARATTAAAA","2-AACAWAATCASCATC","2-AACCACCA","2-AACGCGGYTBSD","2-AACGCGKCSC","2-AACGGTCA","2-AAGTGCAAT","2-AATAATATTAAAATA","2-AATATTTTTAAAAWW","2-AATCATAACTCCTR","2-AATCGCTTC","2-AATGACCATYTV","2-AATGGCATATGC","2-ACAAGGTCTTTCAG","2-ACAATGAGAA","2-ACCAGGTACAYAG","2-ACGCGGTG","2-ACGCGTTT","2-ACGGCTA","2-ACTCATTAGT","2-AGATTATAAT","2-AGCCTCATCT","2-AGCTTAATGT","2-AGCTTTTCAYGA","2-AGCTTTTGGGATTTT","2-AGGTTCCAGCAGMT","2-ATAGCCATCCAAA","2-ATGAATTG","2-ATGCACGAGCACTT","2-ATGCATGA","2-ATTCCACTAAGAAAG","2-ATTTAAAAAAT","2-ATTTTATTTTTATAT","2-ATTTTATTTTTTTAA","2-ATTTTTTTAAAAHTM","2-AYGACCTGGATCATG","2-CAAACCCCCA","2-CAAGACAGCAAAMTM","2-CACGTGG","2-CAGAAAATGCWAGAA","2-CATACATTTATAGTT","2-CCAACGGCTABTTTT","2-CCCGCAG","2-CCYGCAGGTWCAA","2-CGGTAAG","2-CTAGACAGAGAAGG","2-CTATTTWTTA","2-CTCCAGG","2-CTGATGCAA","2-CTTCACAAGC","2-CTTTGTGCG","2-GAAGGAACAAAWTG","2-GAATTATGAAA","2-GATGTATCATATGAT","2-GCTTAAACAAA","2-GGAACACAA","2-GGTGGTGGAA","2-GTATGAC","2-GTTGTTTTTTAAAK","2-GWCATCCR","2-TAATTAAAA","2-TATAAAAAAAAA","2-TATTAAAATAATAW","2-TCAAAAGAAC","2-TTCCAACCAAA","2-TTTAAAAAATAAAAT","2-TTTAAATAAAA","2-VRMCGCGKYB","3-AAAAAAAACAAAACA","3-AAAAAATAACTGA","3-AAAAATAATTTTAA","3-AAAACAACGAA","3-AAAATAAGA","3-AAAATATAAA","3-AAAATATACT","3-AAAATTAAAAAATG","3-AAAGCTAAAATCAAG","3-AAAGTATAGTACGK","3-AAATATAAAATTA","3-AAATATTTTTAAAA","3-AAATTAATAT","3-AACGCGGYKBS","3-AAGAAAGTTCAG","3-AAGAAGCARCWGW","3-AAGCAAATAT","3-AAGCCAACTCA","3-AATATTAATGA","3-AATATTGGGCCAG","3-AATCCACTTG","3-AATCCACTTGCTRMK","3-AATGCAGAA","3-AATTTAAAATTGAA","3-AATTTGGTTTTCYY","3-AATTTTAAAAAAAT","3-ACAGTCAAAAT","3-ACCATGATA","3-ACCTGATCTTG","3-ACTCTGCA","3-ACTGTTTGGTT","3-ACTTGAAAA","3-AGATCATCTG","3-AGCCCATATGGGT","3-AGCCTTGGGVHRT","3-AGCTTTTGGGCTTWT","3-AGGGATGCTTTAGRT","3-AGGTTCCAA","3-AGTGCATY","3-AGTTCATTTG","3-AGWAGAGAAG","3-ATAACATTCAAAW","3-ATACAGGGA","3-ATATAAAAAAAT","3-ATCCAAGAGAAGAA","3-ATCCGATATGCTGA","3-ATCTGTTTTGDCMTA","3-ATGCAATACTTMWMG","3-ATGTTTACTGT","3-ATTAAAAAAATAAA","3-ATTAAAAAT","3-ATTCTATCATAAKAA","3-ATTTAAAAAAA","3-CAAAAGGAG","3-CAGCATCAAAATCT","3-CAGCGATTT","3-CAGTGAGC","3-CATCTTAGG","3-CCACCTTCAGG","3-CCATGCCACC","3-CCCAACCCGAHGA","3-CCCAATTCAT","3-CCTSSAGG","3-CCTTGTCATT","3-CGCCCACGCCA","3-CGCGTAAACCC","3-CTATATCATCAAW","3-CTGCAAAAC","3-CTTTATACTT","3-CTTTTATTTTTTAAR","3-GATGAAAAAAA","3-GATTAATCTG","3-GCACATCAAAM","3-GGATAAAATTAA","3-RTCACTTAACMCTTC","3-TAAAAATATATWA","3-TAAATAGAAA","3-TAAATTATAAGGT","3-TAAGGAGGA","3-TATTTTATATAAAA","3-TTAATTTAAAAATA","3-TTAGAAGAATT","3-TTGTTTTTTAAA","3-TTTAAATAAAAATT","3-TTTGTAAAAAA","3-TTTTAAAAATAATTT","3-WACAATATTTA","4-AAAAAAAKAAGAAAA","4-AAAAAAATTAAAAA","4-AAAAATAAAAATC","4-AAAAATATATATA","4-AAAAATATTAAAC","4-AAAGGAATCCG","4-AAAGTAATTAA","4-AAATAAAAAATTAAT","4-AACAGCCCCTMAC","4-AACGCGGTT","4-AAMCGCGKCGS","4-AATAGAAATG","4-AATCGAACACCG","4-AATTAATTAATA","4-AATTTACTGAAAT","4-AATTTTTCAAG","4-ACCTGCACTTCT","4-ACTTTTACCATAT","4-AGCGTGGTC","4-AGTTAAAAA","4-AGTTTATGGTA","4-ATAAATAAATAAA","4-ATAAGAAACAAAT","4-ATATAAAAAAAAAC","4-ATATAAAAAATAA","4-ATATATCAAAA","4-ATTTAAAATTTGG","4-CAACAACCC","4-CACTGAACTGGTT","4-CAGCACCCAWTA","4-CAGTCGCG","4-CCATTACAGC","4-CCCCCACTGC","4-CCWACCA","4-CGATTCAAAAAG","4-CGBSSVCG","4-CTATACAAAAC","4-CTTATTTTGGAAA","4-GCTGAAAACCCCMT","4-GGAAAACAAA","4-GGAAATCAAAG","4-GGAAGAACCAG","4-GGTGTTTTTAG","4-RAAACGCG","4-TAAGGAATA","4-TTAAAAAAAAAAAA","4-TTATTTAAAAA","5-AAAAAAAACTAAA","5-AAAAAAAATTAAATK","5-AAAAAAATTAAA","5-AAAAATATAAWAA","5-AAAACCAAATTTT","5-AATAATAATCTTAAG","5-AATATTGGGCMAGY","5-AATTAATTACC","5-AATTTAAAATTG","5-ACCAGCCAACA","5-ACGCGGYC","5-ATAACAACAAAAA","5-ATGTCCCGTT","5-ATTAAAGAAAAGAA","5-ATTAATTACTT","5-ATTWTTTTATTTTA","5-CATGCAWGSTMSAKC","5-CCACACGG","5-CCAGCAA","5-CTCGCKGA","5-CTTGGATCTATCT","5-TAAATTTTAAAAAT","5-TGACATGAACT","5-TTAAAAATATTTTTAA","5-TTTAAAAAACAAM","6-AAAAAAAAAAAMCAA","6-AAAATATAAAAAA","6-AAACGCGT","6-AACGCGTT","6-AAGCGCGTTCC","6-ACGCGCAYG","6-AGGTTCCAR","6-ATATAAAAAAAAT","6-ATATTATTTTAATAT","6-ATTAATATTTTA","6-CCAGACACCA","6-CTAGATCAACTT","6-GMCGCGKC","6-TAAGAAAAGAA","6-TATTTTTTTAAAAA","7-AAAATAAATAAATTC","7-AAGAAACTACTBT","7-AATATTTTAAAAT","7-AATTAATT","7-AATTTATAAT","7-AGGAGCCAAA","7-ATTTTGAAAAG","7-CAATGCAGGADG","7-TATTAAAATAATAT","7-TTATTTAAAAA","7-TTATTTTTTAAAAT","8-AAAAAAAATTAAATT","8-AATCCGATTCRC","8-AGAGAGAGAG","8-TAATTTTTAAAA","8-TTATTTAAAAAA","9-AAAAATATTTTTAAA","9-AAAATAGATTTA","9-ATATAAAAATA"],"feature_types":["float","int","float","float","float","float","float","float","float","float","float","float","float","float","float","float","float","float","float","float","float","float","float","float","float","float","float","float","float","float","float","float","float","float","float","float","float","float","float","float","float","float","float","float","float","float","float","float","float","float","float","float","float","float","float","float","float","float","float","float","float","float","float","float","float","float","float","float","float","float","float","float","float","float","float","float","float","float","float","float","float","float","float","float","float","float","float","float","float","float","float","float","float","float","float","float","float","float","float","float","float","float","float","float","float","float","float","float","float","float","float","float","float","float","float","float","float","float","float","float","float","float","float","float","float","float","float","float","float","float","float","float","float","float","float","float","float","float","float","float","float","float","float","float","float","float","float","float","float","float","float","float","float","float","float","float","float","float","float","float","float","float","float","float","float","float","float","float","float","float","float","float","float","float","float","float","float","float","float","float","float","float","float","float","float","float","float","float","float","float","float","float","float","float","float","float","float","float","float","float","float","float","float","float","float","float","float","float","float","float","float","float","float","float","float","float","float","float","float","float","float","float","float","float","float","float","float","float","float","float","float","float","float","float","float","float","float","float","float","float","float","float","float","float","float","float","float","float","float","float","float","float","float","float","float","float","float","float","float","float","float","float","float","float","float","float","float","float","float","float","float","float","float","float","float","float","float","float","float","float","float","float","float","float","float","float","float","float","float","float","float","float","float","float","float","float","float","float","float","float","float","float","float","float","float","float","float","float","float","float","float","float","float","float","float","float","float","float","float","float","float","float","float","float","float","float","float","float","float","float","float","float","float","float","float","float","float","float","float","float","float","float","float","float","float","float","float","float","float","float","float","float","float","float","float","float","float","float","float","float","float","float","float","float","float","float","float"],"gradient_booster":{"model":{"gbtree_model_param":{"num_parallel_tree":"1","num_trees":"50"},"iteration_indptr":[0,1,2,3,4,5,6,7,8,9,10,11,12,13,14,15,16,17,18,19,20,21,22,23,24,25,26,27,28,29,30,31,32,33,34,35,36,37,38,39,40,41,42,43,44,45,46,47,48,49,50],"tree_info":[0,0,0,0,0,0,0,0,0,0,0,0,0,0,0,0,0,0,0,0,0,0,0,0,0,0,0,0,0,0,0,0,0,0,0,0,0,0,0,0,0,0,0,0,0,0,0,0,0,0],"trees":[{"base_weights":[3.773585E-2,2.4719101E-1,-9.4736844E-1,4.2038217E-1,-8.8E-1,-1.1764706E0,1E-1,7.747748E-1,-4E-1,-1.2380953E0,1E-1,-3.0769232E-1,-0E0,2.6086956E-1,1.4782609E0,-7.2727275E-1,2.4000001E-1,-0E0,-3.0588236E-1,1E-1,-1E-1,-1.0526316E-1,3E-1,1.6190476E0,-0E0,-1.0526316E0,1.6000001E-1,-8.979592E-2,2.6666668E-1,3.5675678E-1,4.4444446E-2,-2.5882354E-1,1E-1],"categories":[],"categories_nodes":[],"categories_segments":[],"categories_sizes":[],"default_left":[0,0,0,0,0,0,0,0,0,0,0,0,0,0,0,0,0,0,0,0,0,0,0,0,0,0,0,0,0,0,0,0,0],"id":0,"left_children":[1,3,5,7,9,11,-1,13,15,17,-1,-1,19,21,23,25,-1,-1,-1,-1,-1,27,-1,29,-1,31,-1,-1,-1,-1,-1,-1,-1],"loss_changes":[1.1169945E1,9.057205E0,3.73839E0,1.1721352E1,3.7076187E0,3.6199102E0,0E0,9.646692E0,7.4181824E0,1.8935575E0,0E0,0E0,1E0,7.983982E0,2.3933754E0,6.308134E0,0E0,0E0,0E0,0E0,0E0,7.6448264E0,0E0,2.0197315E0,0E0,4.2089787E0,0E0,0E0,0E0,0E0,0E0,0E0,0E0],"parents":[2147483647,0,0,1,1,2,2,3,3,4,4,5,5,7,7,8,8,9,9,12,12,13,13,14,14,15,15,21,21,23,23,25,25],"right_children":[2,4,6,8,10,12,-1,14,16,18,-1,-1,20,22,24,26,-1,-1,-1,-1,-1,28,-1,30,-1,32,-1,-1,-1,-1,-1,-1,-1],"split_conditions":[3.445715E-1,3.5525352E-1,5.611594E-1,1.2665097E-1,2.4652313E-1,4.4405915E-2,1E-1,-2.2124846E-2,9.987532E-1,8.386855E-2,1E-1,-3.0769232E-1,3.831213E-1,4.3039542E-1,3.5693806E-1,4.6059433E-1,2.4000001E-1,-0E0,-3.0588236E-1,1E-1,-1E-1,1.9428313E-1,3E-1,4.122481E-1,-0E0,2.0066252E-1,1.6000001E-1,-8.979592E-2,2.6666668E-1,3.5675678E-1,4.4444446E-2,-2.5882354E-1,1E-1],"split_indices":[6,62,207,217,300,181,0,174,0,93,0,0,256,120,60,237,0,0,0,0,0,312,0,344,0,347,0,0,0,0,0,0,0],"split_type":[0,0,0,0,0,0,0,0,0,0,0,0,0,0,0,0,0,0,0,0,0,0,0,0,0,0,0,0,0,0,0,0,0],"sum_hessian":[5.2E1,4.35E1,8.5E0,3.825E1,5.25E0,7.5E0,1E0,2.675E1,1.15E1,4.25E0,1E0,5.5E0,2E0,1.625E1,1.05E1,1E1,1.5E0,1E0,3.25E0,1E0,1E0,1.325E1,3E0,9.5E0,1E0,8.5E0,1.5E0,1.125E1,2E0,8.25E0,1.25E0,7.5E0,1E0],"tree_param":{"num_deleted":"0","num_feature":"367","num_nodes":"33","size_leaf_vector":"1"}},{"base_weights":[-4.3121073E-2,1.8379381E-1,-6.974837E-1,4.1598886E-1,-8.08309E-1,-9.891333E-1,1.7001985E-1,6.5408087E-1,-8.5163176E-1,6.162026E-2,-1.2317898E0,-1.2447348E0,2.102263E-2,8.4843165E-1,-5.0278175E-1,6.720307E-2,-2.6986453E-1,-2.9245457E-1,-3.8010478E-2,-3.0108795E-1,6.3253336E-2,1.0678778E0,-4.7220576E-1,5.6099694E-2,-2.3450997E-1,2.5732377E-1,-2.698028E-2,8.212629E-2,-2.21921E-1],"categories":[],"categories_nodes":[],"categories_segments":[],"categories_sizes":[],"default_left":[0,0,0,0,0,0,0,0,0,0,0,0,0,0,0,0,0,0,0,0,0,0,0,0,0,0,0,0,0],"id":1,"left_children":[1,3,5,7,9,11,-1,13,15,-1,17,19,-1,21,23,-1,-1,-1,-1,-1,-1,25,27,-1,-1,-1,-1,-1,-1],"loss_changes":[7.967678E0,9.549267E0,7.070801E0,1.0537584E1,4.126202E0,3.5084724E0,0E0,6.8131886E0,3.800953E0,0E0,1.1496267E0,4.491787E0,0E0,7.660187E0,2.8017225E0,0E0,0E0,0E0,0E0,0E0,0E0,5.8249435E0,2.8256638E0,0E0,0E0,0E0,0E0,0E0,0E0],"parents":[2147483647,0,0,1,1,2,2,3,3,4,4,5,5,7,7,8,8,10,10,11,11,13,13,14,14,21,21,22,22],"right_children":[2,4,6,8,10,12,-1,14,16,-1,18,20,-1,22,24,-1,-1,-1,-1,-1,-1,26,28,-1,-1,-1,-1,-1,-1],"split_conditions":[3.3855125E-1,3.648461E-1,3.2851818E-1,3.9129776E-1,-8.980539E-2,3.3961967E-1,1.7001985E-1,5.297445E-1,3.84E1,6.162026E-2,1.7788173E-1,2.1349844E-1,2.102263E-2,5.025847E-1,-1.4613887E-2,6.720307E-2,-2.6986453E-1,-2.9245457E-1,-3.8010478E-2,-3.0108795E-1,6.3253336E-2,3.7765718E-1,2.5719994E-1,5.6099694E-2,-2.3450997E-1,2.5732377E-1,-2.698028E-2,8.212629E-2,-2.21921E-1],"split_indices":[303,210,206,38,261,365,0,216,2,0,96,293,0,248,103,0,0,0,0,0,0,44,276,0,0,0,0,0,0],"split_type":[0,0,0,0,0,0,0,0,0,0,0,0,0,0,0,0,0,0,0,0,0,0,0,0,0,0,0,0,0],"sum_hessian":[5.1796608E1,3.899377E1,1.2802836E1,3.2068947E1,6.9248238E0,1.1076305E1,1.7265313E0,2.7405495E1,4.6634526E0,1.9793023E0,4.9455214E0,8.867458E0,2.2088475E0,2.3691906E1,3.7135878E0,1.4730775E0,3.190375E0,3.7190099E0,1.2265117E0,7.6289334E0,1.2385246E0,2.0480175E1,3.2117324E0,1.9796399E0,1.733948E0,1.7269741E1,3.2104332E0,1.4957696E0,1.7159628E0],"tree_param":{"num_deleted":"0","num_feature":"367","num_nodes":"29","size_leaf_vector":"1"}},{"base_weights":[-2.7651554E-2,1.397745E-1,-8.970154E-1,3.5992497E-1,-6.0446477E-1,-2.7375895E-1,-1.407865E-1,1.4926174E-1,1.2251718E0,-1.0756823E0,1.516491E-1,2.0665221E-1,-2.1761492E-1,-3.4290757E-2,2.655098E-1,2.9182848E-1,6.846854E-2,3.51744E-2,-2.7707207E-1,1.9187193E-1,-2.0724611E-1,2.2675313E-1,-1.0235909E0,1.01021826E-1,-2.2820845E-1,-2.0817064E-2,-2.778134E-1],"categories":[],"categories_nodes":[],"categories_segments":[],"categories_sizes":[],"default_left":[0,0,0,0,0,0,0,0,0,0,0,0,0,0,0,0,0,0,0,0,0,0,0,0,0,0,0],"id":2,"left_children":[1,3,5,7,9,-1,11,13,15,17,19,-1,-1,21,-1,-1,-1,-1,-1,-1,-1,23,25,-1,-1,-1,-1],"loss_changes":[7.5574646E0,7.3743396E0,2.797172E0,6.0757003E0,3.8488212E0,0E0,5.944624E0,6.263835E0,8.6048126E-1,2.7615309E0,5.645674E0,0E0,0E0,6.9081793E0,0E0,0E0,0E0,0E0,0E0,0E0,0E0,8.675574E0,1.7301126E0,0E0,0E0,0E0,0E0],"parents":[2147483647,0,0,1,1,2,2,3,3,4,4,6,6,7,7,8,8,9,9,10,10,13,13,21,21,22,22],"right_children":[2,4,6,8,10,-1,12,14,16,18,20,-1,-1,22,-1,-1,-1,-1,-1,-1,-1,24,26,-1,-1,-1,-1],"split_conditions":[3.8131264E-1,9.2937425E-2,3.2297887E-2,9.397907E-2,2.5304917E-1,-2.7375895E-1,3.0528374E-3,4.3039542E-1,3.7091964E-1,2.0233838E-2,5.015911E-1,2.0665221E-1,-2.1761492E-1,4.6297777E-1,2.655098E-1,2.9182848E-1,6.846854E-2,3.51744E-2,-2.7707207E-1,1.9187193E-1,-2.0724611E-1,3.7381098E-1,3.413965E-1,1.01021826E-1,-2.2820845E-1,-2.0817064E-2,-2.778134E-1],"split_indices":[23,70,334,164,79,0,306,120,196,331,93,0,0,200,0,0,0,0,0,0,0,202,241,0,0,0,0],"split_type":[0,0,0,0,0,0,0,0,0,0,0,0,0,0,0,0,0,0,0,0,0,0,0,0,0,0,0],"sum_hessian":[5.0060616E1,4.2680275E1,7.38034E0,3.3335747E1,9.344528E0,4.0461135E0,3.3342266E0,2.7751535E1,5.584209E0,5.4964447E0,3.8480835E0,1.44838E0,1.8858466E0,2.4851145E1,2.9003909E0,3.8982716E0,1.6859378E0,1.1759521E0,4.3204927E0,2.405093E0,1.4429905E0,2.0272652E1,4.578494E0,1.736871E1,2.903942E0,1.6676438E0,2.91085E0],"tree_param":{"num_deleted":"0","num_feature":"367","num_nodes":"27","size_leaf_vector":"1"}},{"base_weights":[3.4731206E-2,3.0331352E-1,-5.1732504E-1,5.219675E-1,-4.9832064E-1,-7.061836E-1,1.8896501E-1,7.027661E-1,-6.1138064E-1,-7.510097E-1,1.0733672E-1,-8.989673E-1,1.2010074E-1,8.905838E-1,-6.4487034E-1,1.2515564E-2,-2.023822E-1,-1.0864193E0,4.562659E-2,-1.11344E0,7.026414E-2,1.2170949E0,-3.0080923E-1,-3.1211084E-2,-1.7866182E-1,-2.484788E-1,-7.058673E-2,-1.3565102E0,1.1374514E-2,2.77307E-1,1.7408742E-2,6.9209225E-2,-1.9892605E-1,-2.9462492E-1,-4.587518E-2],"categories":[],"categories_nodes":[],"categories_segments":[],"categories_sizes":[],"default_left":[0,0,0,0,0,0,0,0,0,0,0,0,0,0,0,0,0,0,0,0,0,0,0,0,0,0,0,0,0,0,0,0,0,0,0],"id":3,"left_children":[1,3,5,7,9,11,-1,13,15,17,-1,19,-1,21,23,-1,-1,25,-1,27,-1,29,31,-1,-1,-1,-1,33,-1,-1,-1,-1,-1,-1,-1],"loss_changes":[7.82193E0,6.466215E0,5.4413223E0,6.230038E0,2.5213425E0,4.540977E0,0E0,6.871187E0,1.2589581E0,2.5227232E0,0E0,4.2101364E0,0E0,9.023344E0,3.0058682E-1,0E0,0E0,1.7164087E-1,0E0,3.6034956E0,0E0,3.2619076E0,2.8525426E0,0E0,0E0,0E0,0E0,1.0165482E0,0E0,0E0,0E0,0E0,0E0,0E0,0E0],"parents":[2147483647,0,0,1,1,2,2,3,3,4,4,5,5,7,7,8,8,9,9,11,11,13,13,14,14,17,17,19,19,21,21,22,22,27,27],"right_children":[2,4,6,8,10,12,-1,14,16,18,-1,20,-1,22,24,-1,-1,26,-1,28,-1,30,32,-1,-1,-1,-1,34,-1,-1,-1,-1,-1,-1,-1],"split_conditions":[7.70184E-2,9.9380493E-1,3.6261597E-1,3.945534E-1,3.3889303E-1,3.4356582E-1,1.8896501E-1,4.300853E-1,6.2620096E-2,2.2520395E-1,1.0733672E-1,3.697311E-1,1.2010074E-1,3.1172156E-1,3.9384416E-1,1.2515564E-2,-2.023822E-1,-4.4588274E-3,4.562659E-2,2.4652313E-1,7.026414E-2,3.9712712E-1,3.8131264E-1,-3.1211084E-2,-1.7866182E-1,-2.484788E-1,-7.058673E-2,4.9252963E-1,1.1374514E-2,2.77307E-1,1.7408742E-2,6.9209225E-2,-1.9892605E-1,-2.9462492E-1,-4.587518E-2],"split_indices":[197,0,118,234,235,8,0,33,19,106,0,39,0,302,156,0,0,257,0,300,0,297,23,0,0,0,0,54,0,0,0,0,0,0,0],"split_type":[0,0,0,0,0,0,0,0,0,0,0,0,0,0,0,0,0,0,0,0,0,0,0,0,0,0,0,0,0,0,0,0,0,0,0],"sum_hessian":[5.0695465E1,3.440673E1,1.6288734E1,2.7307266E1,7.099466E0,1.488335E1,1.4053836E0,2.3878017E1,3.4292479E0,5.9268556E0,1.1726105E0,1.3241739E1,1.6416107E0,2.125491E1,2.6231084E0,1.5928229E0,1.8364248E0,4.333004E0,1.5938513E0,1.1396288E1,1.845451E0,1.6665907E1,4.5890026E0,1.4325818E0,1.1905266E0,3.0010195E0,1.3319846E0,9.304644E0,2.0916448E0,1.4295474E1,2.3704329E0,2.634283E0,1.9547193E0,8.154052E0,1.1505913E0],"tree_param":{"num_deleted":"0","num_feature":"367","num_nodes":"35","size_leaf_vector":"1"}},{"base_weights":[-8.5849606E-2,-2.0889693E-1,8.407654E-1,-3.4963617E-1,4.156071E-1,2.483778E-1,-4.6968297E-3,-1.6746956E-1,-9.254297E-1,9.530485E-1,-3.2655826E-1,-3.159282E-1,2.1395627E-1,-2.4348857E-1,-2.660286E-1,2.3564827E-1,2.2099312E-2,4.3434065E-2,-1.6466169E-1,-4.585894E-1,1.729742E-1,1.7580585E-1,-2.0837794E-1,-1.12873666E-1,1.7252369E-1],"categories":[],"categories_nodes":[],"categories_segments":[],"categories_sizes":[],"default_left":[0,0,0,0,0,0,0,0,0,0,0,0,0,0,0,0,0,0,0,0,0,0,0,0,0],"id":4,"left_children":[1,3,5,7,9,-1,-1,11,13,15,17,19,-1,21,-1,-1,-1,-1,-1,23,-1,-1,-1,-1,-1],"loss_changes":[5.6055007E0,3.9107413E0,2.0334988E0,3.5691915E0,3.6362314E0,0E0,0E0,5.516489E0,1.9702549E0,8.355818E-1,1.3256269E0,4.7670956E0,0E0,4.7874484E0,0E0,0E0,0E0,0E0,0E0,3.8132205E0,0E0,0E0,0E0,0E0,0E0],"parents":[2147483647,0,0,1,1,2,2,3,3,4,4,7,7,8,8,9,9,10,10,11,11,13,13,19,19],"right_children":[2,4,6,8,10,-1,-1,12,14,16,18,20,-1,22,-1,-1,-1,-1,-1,24,-1,-1,-1,-1,-1],"split_conditions":[4.2519727E-1,2.803835E-1,1.3594216E-3,2.3996712E-1,3.86E1,2.483778E-1,-4.6968297E-3,3.555874E-1,1.671594E-1,3.4383768E-1,6.2620096E-2,4.7344235E-1,2.1395627E-1,3.2297887E-2,-2.660286E-1,2.3564827E-1,2.2099312E-2,4.3434065E-2,-1.6466169E-1,3.3889303E-1,1.729742E-1,1.7580585E-1,-2.0837794E-1,-1.12873666E-1,1.7252369E-1],"split_indices":[183,143,176,107,2,0,0,58,100,255,19,52,0,334,0,0,0,0,0,235,0,0,0,0,0],"split_type":[0,0,0,0,0,0,0,0,0,0,0,0,0,0,0,0,0,0,0,0,0,0,0,0,0],"sum_hessian":[4.662311E1,4.184145E1,4.781662E0,3.4505394E1,7.336054E0,2.9674327E0,1.8142294E0,2.7193047E1,7.312347E0,4.0900702E0,3.2459836E0,2.4944582E1,2.248465E0,3.3199203E0,3.9924269E0,2.9130626E0,1.1770079E0,1.8184156E0,1.4275678E0,2.2801401E1,2.1431808E0,1.3379014E0,1.982019E0,2.1641567E1,1.1598337E0],"tree_param":{"num_deleted":"0","num_feature":"367","num_nodes":"25","size_leaf_vector":"1"}},{"base_weights":[-6.0191248E-2,6.344179E-2,-7.662194E-1,2.3639376E-1,-7.041878E-1,-1.9231342E-1,1.6798062E-2,2.3640892E-2,1.0739425E0,-9.7121245E-1,9.450569E-2,1.5637277E-1,-2.3777364E-1,2.4457708E-1,7.34635E-2,-2.2332254E-1,-2.8162716E-2,-1.0614183E-1,1.0110916E0,4.2950135E-2,-1.7422429E-1,2.5235945E-1,7.2422707E-3],"categories":[],"categories_nodes":[],"categories_segments":[],"categories_sizes":[],"default_left":[0,0,0,0,0,0,0,0,0,0,0,0,0,0,0,0,0,0,0,0,0,0,0],"id":5,"left_children":[1,3,5,7,9,-1,-1,11,13,15,-1,17,-1,-1,-1,-1,-1,19,21,-1,-1,-1,-1],"loss_changes":[4.1922083E0,5.6522207E0,1.2683301E0,6.116987E0,2.9252193E0,0E0,0E0,4.7743864E0,2.8333092E-1,6.547079E-1,0E0,6.071555E0,0E0,0E0,0E0,0E0,0E0,5.40114E0,1.5040493E0,0E0,0E0,0E0,0E0],"parents":[2147483647,0,0,1,1,2,2,3,3,4,4,7,7,8,8,9,9,11,11,17,17,18,18],"right_children":[2,4,6,8,10,-1,-1,12,14,16,-1,18,-1,-1,-1,-1,-1,20,22,-1,-1,-1,-1],"split_conditions":[3.8131264E-1,1.7384188E-1,4.22E1,3.732689E-2,4.0562606E-1,-1.9231342E-1,1.6798062E-2,3.9712712E-1,1.6169507E-3,2.9880247E-1,9.450569E-2,7.916964E-2,-2.3777364E-1,2.4457708E-1,7.34635E-2,-2.2332254E-1,-2.8162716E-2,2.7640745E-1,1.7263573E-1,4.2950135E-2,-1.7422429E-1,2.5235945E-1,7.2422707E-3],"split_indices":[23,340,2,174,81,0,0,297,347,105,0,253,0,0,0,0,0,151,35,0,0,0,0],"split_type":[0,0,0,0,0,0,0,0,0,0,0,0,0,0,0,0,0,0,0,0,0,0,0],"sum_hessian":[4.6470192E1,4.0319893E1,6.1502995E0,3.347076E1,6.8491344E0,4.8946977E0,1.2556019E0,2.7510748E1,5.960012E0,5.7247057E0,1.1244289E0,2.5581415E1,1.9293323E0,4.319042E0,1.6409695E0,4.578376E0,1.1463298E0,2.0240618E1,5.340798E0,1.4765908E1,5.4747086E0,4.0141797E0,1.3266184E0],"tree_param":{"num_deleted":"0","num_feature":"367","num_nodes":"23","size_leaf_vector":"1"}},{"base_weights":[6.522554E-3,2.024843E-1,-6.4391166E-1,-5.7978645E-2,6.503897E-1,-2.7531877E-1,-2.1670602E-1,-2.649894E-1,8.050975E-1,9.128208E-1,-3.6791068E-1,-6.7049974E-1,1.4739276E-1,1.0957564E-1,-7.9331666E-1,2.0237659E-1,1.0772583E-2,1.1651316E0,-8.192692E-2,8.6478665E-2,-1.8771784E-1,-2.1221998E-1,-4.743594E-2,4.098223E-1,-1.8674262E-1,-1.0200135E0,1.603785E-2,2.582744E-1,5.3514052E-2,8.43096E-2,-9.493336E-2,1.5794894E-1,-1.1306999E-1,-2.2694066E-1,-4.377737E-2],"categories":[],"categories_nodes":[],"categories_segments":[],"categories_sizes":[],"default_left":[0,0,0,0,0,0,0,0,0,0,0,0,0,0,0,0,0,0,0,0,0,0,0,0,0,0,0,0,0,0,0,0,0,0,0],"id":6,"left_children":[1,3,5,7,9,11,-1,13,15,17,19,21,-1,23,25,-1,-1,27,-1,-1,-1,-1,29,31,-1,33,-1,-1,-1,-1,-1,-1,-1,-1,-1],"loss_changes":[6.0880237E0,4.316922E0,1.4940071E0,4.5212054E0,3.9619164E0,3.4372544E0,0E0,4.084216E0,7.0854974E-1,4.1729507E0,2.0011997E0,1.3648705E0,0E0,4.360298E0,1.7651758E0,0E0,0E0,7.3785305E-1,0E0,0E0,0E0,0E0,8.588016E-1,4.35717E0,0E0,3.7846565E-1,0E0,0E0,0E0,0E0,0E0,0E0,0E0,0E0,0E0],"parents":[2147483647,0,0,1,1,2,2,3,3,4,4,5,5,7,7,8,8,9,9,10,10,11,11,13,13,14,14,17,17,22,22,23,23,25,25],"right_children":[2,4,6,8,10,12,-1,14,16,18,20,22,-1,24,26,-1,-1,28,-1,-1,-1,-1,30,32,-1,34,-1,-1,-1,-1,-1,-1,-1,-1,-1],"split_conditions":[3.3855125E-1,-2.2124846E-2,1.1915521E-1,2.914491E-1,4.921598E-1,1.22671574E-1,-2.1670602E-1,3.291724E-2,-1.1979019E-2,9.972465E-1,4.92913E-2,-9.184102E-2,1.4739276E-1,4.0663227E-1,9.804313E-1,2.0237659E-1,1.0772583E-2,3.7648982E-1,-8.192692E-2,8.6478665E-2,-1.8771784E-1,-2.1221998E-1,2.3896523E-1,3.2851818E-1,-1.8674262E-1,2.1349844E-1,1.603785E-2,2.582744E-1,5.3514052E-2,8.43096E-2,-9.493336E-2,1.5794894E-1,-1.1306999E-1,-2.2694066E-1,-4.377737E-2],"split_indices":[303,174,162,324,141,362,0,3,167,0,263,333,0,353,0,0,0,232,0,0,0,0,130,206,0,293,0,0,0,0,0,0,0,0,0],"split_type":[0,0,0,0,0,0,0,0,0,0,0,0,0,0,0,0,0,0,0,0,0,0,0,0,0,0,0,0,0,0,0,0,0,0,0],"sum_hessian":[4.5741188E1,3.5680206E1,1.006098E1,2.3111258E1,1.2568949E1,6.3571606E0,3.7038193E0,1.9199247E1,3.9120111E0,1.0075839E1,2.4931102E0,4.815063E0,1.5420977E0,1.1698225E1,7.501022E0,2.7955472E0,1.1164639E0,8.561379E0,1.5144591E0,1.1386356E0,1.3544744E0,2.5275197E0,2.2875435E0,9.555455E0,2.1427693E0,5.822272E0,1.6787499E0,7.1210594E0,1.44032E0,1.0968263E0,1.1907172E0,7.0132685E0,2.542187E0,4.7288957E0,1.0933762E0],"tree_param":{"num_deleted":"0","num_feature":"367","num_nodes":"35","size_leaf_vector":"1"}},{"base_weights":[6.21673E-2,1.4916763E-1,-7.647433E-1,2.907018E-1,-3.8381895E-1,-1.8979491E-1,-2.0745529E-2,4.013393E-1,-5.186082E-1,-7.381855E-1,4.093374E-1,5.416499E-1,-4.7172952E-1,5.1181268E-2,-1.953542E-1,-9.6429604E-1,3.917737E-2,-1.2618731E-2,1.4670318E-1,7.350082E-1,-4.067051E-1,-1.5880433E-1,5.8632877E-2,-2.2248499E-1,-5.396619E-2,1.6995756E-1,-1.19442835E-1,-1.578903E-1,7.20202E-2],"categories":[],"categories_nodes":[],"categories_segments":[],"categories_sizes":[],"default_left":[0,0,0,0,0,0,0,0,0,0,0,0,0,0,0,0,0,0,0,0,0,0,0,0,0,0,0,0,0],"id":7,"left_children":[1,3,5,7,9,-1,-1,11,13,15,17,19,21,-1,-1,23,-1,-1,-1,25,27,-1,-1,-1,-1,-1,-1,-1,-1],"loss_changes":[3.1486592E0,3.0537686E0,4.104452E-1,3.0185962E0,2.7235289E0,0E0,0E0,3.707171E0,1.744289E0,1.5218444E0,5.5223924E-1,4.8357167E0,1.3262838E0,0E0,0E0,2.3990822E-1,0E0,0E0,0E0,3.7044353E0,1.702976E0,0E0,0E0,0E0,0E0,0E0,0E0,0E0,0E0],"parents":[2147483647,0,0,1,1,2,2,3,3,4,4,7,7,8,8,9,9,10,10,11,11,12,12,15,15,19,19,20,20],"right_children":[2,4,6,8,10,-1,-1,12,14,16,18,20,22,-1,-1,24,-1,-1,-1,26,28,-1,-1,-1,-1,-1,-1,-1,-1],"split_conditions":[2.8388566E-1,2.6854858E-1,6.2737134E-3,3.7765718E-1,2.4652313E-1,-1.8979491E-1,-2.0745529E-2,3.8131264E-1,2.3996712E-1,2.9963142E-1,-3.5464566E-2,3.9129776E-1,3.2297887E-2,5.1181268E-2,-1.953542E-1,2.803835E-1,3.917737E-2,-1.2618731E-2,1.4670318E-1,6.1687523E-1,3.648461E-1,-1.5880433E-1,5.8632877E-2,-2.2248499E-1,-5.396619E-2,1.6995756E-1,-1.19442835E-1,-1.578903E-1,7.20202E-2],"split_indices":[189,169,323,44,300,0,0,23,107,188,333,38,334,0,0,143,0,0,0,244,210,0,0,0,0,0,0,0,0],"split_type":[0,0,0,0,0,0,0,0,0,0,0,0,0,0,0,0,0,0,0,0,0,0,0,0,0,0,0,0,0],"sum_hessian":[4.1181282E1,3.800259E1,3.1786926E0,3.0387732E1,7.614858E0,2.14518E0,1.0335127E0,2.7176622E1,3.2111087E0,5.311218E0,2.3036406E0,2.374084E1,3.43578E0,1.357587E0,1.8535217E0,4.2500525E0,1.0611653E0,1.2652065E0,1.0384341E0,1.9907005E1,3.833836E0,2.3904645E0,1.0453155E0,3.0068493E0,1.2432032E0,1.8661339E1,1.2456677E0,2.5376515E0,1.2961845E0],"tree_param":{"num_deleted":"0","num_feature":"367","num_nodes":"29","size_leaf_vector":"1"}},{"base_weights":[-8.06903E-2,-1.6922727E-1,7.290392E-1,-3.0650377E-1,3.5842302E-1,2.0925932E-1,-2.588065E-2,-1.611504E-1,-2.091079E-1,6.4811444E-1,-1.09892346E-1,-2.7766562E-1,7.537589E-1,1.9967869E-1,-5.5745225E-2,-8.910427E-2,-1.9569471E-1,1.7864308E-1,4.2986475E-2,-7.294107E-2,7.351116E-2],"categories":[],"categories_nodes":[],"categories_segments":[],"categories_sizes":[],"default_left":[0,0,0,0,0,0,0,0,0,0,0,0,0,0,0,0,0,0,0,0,0],"id":8,"left_children":[1,3,5,7,9,-1,-1,11,-1,13,-1,15,17,-1,-1,19,-1,-1,-1,-1,-1],"loss_changes":[3.1101751E0,2.8889601E0,1.3050692E0,3.1599967E0,2.5606437E0,0E0,0E0,3.0955083E0,0E0,2.4902194E0,0E0,3.183044E0,5.807495E-2,0E0,0E0,2.726757E0,0E0,0E0,0E0,0E0,0E0],"parents":[2147483647,0,0,1,1,2,2,3,3,4,4,7,7,9,9,11,11,12,12,15,15],"right_children":[2,4,6,8,10,-1,-1,12,-1,14,-1,16,18,-1,-1,20,-1,-1,-1,-1,-1],"split_conditions":[2.9193875E-1,2.7149668E-1,2.7006394E-1,3.7381098E-1,4.3E1,2.0925932E-1,-2.588065E-2,2.1349844E-1,-2.091079E-1,1.6380906E-1,-1.09892346E-1,3.445715E-1,-7.713456E-2,1.9967869E-1,-5.5745225E-2,-5.9819566E-3,-1.9569471E-1,1.7864308E-1,4.2986475E-2,-7.294107E-2,7.351116E-2],"split_indices":[146,301,175,202,2,0,0,293,0,316,0,6,75,0,0,262,0,0,0,0,0],"split_type":[0,0,0,0,0,0,0,0,0,0,0,0,0,0,0,0,0,0,0,0,0],"sum_hessian":[4.0662167E1,3.7367374E1,3.2947938E0,2.9985334E1,7.382039E0,2.2459278E0,1.0488663E0,2.607497E1,3.9103642E0,5.813251E0,1.5687879E0,2.374723E1,2.3277395E0,4.1628084E0,1.6504426E0,1.9600588E1,4.146644E0,1.3266718E0,1.0010675E0,1.2349092E1,7.251495E0],"tree_param":{"num_deleted":"0","num_feature":"367","num_nodes":"21","size_leaf_vector":"1"}},{"base_weights":[3.9037235E-2,2.0235926E-1,-4.4267714E-1,3.1382787E-1,-1.5934205E-1,-1.6277378E-2,-2.128644E-1,5.2774423E-1,-1.8138212E-1,5.3881127E-1,-1.6991052E-1,7.3403305E-1,-4.931971E-1,-5.9677887E-1,3.7649336E-1,1.8701278E-1,-2.391851E-2,9.7966856E-1,-2.716904E-1,-1.4665607E-1,2.0461323E-2,-8.263215E-1,4.5418408E-2,1.5997534E-1,-7.0462786E-2,2.2952211E-1,-9.737605E-2,7.3803335E-2,-1.9617403E-1,-1.95006E-1,-5.63715E-2],"categories":[],"categories_nodes":[],"categories_segments":[],"categories_sizes":[],"default_left":[0,0,0,0,0,0,0,0,0,0,0,0,0,0,0,0,0,0,0,0,0,0,0,0,0,0,0,0,0,0,0],"id":9,"left_children":[1,3,5,7,-1,9,-1,11,13,15,-1,17,19,21,23,-1,-1,25,27,-1,-1,29,-1,-1,-1,-1,-1,-1,-1,-1,-1],"loss_changes":[3.203951E0,3.6186843E0,2.722614E0,3.0544496E0,0E0,3.7633996E0,0E0,4.5237346E0,2.3496528E0,1.3905365E0,0E0,4.426512E0,6.3542134E-1,1.2547865E0,1.678622E0,0E0,0E0,3.9458141E0,2.2197325E0,0E0,0E0,9.9959135E-2,0E0,0E0,0E0,0E0,0E0,0E0,0E0,0E0,0E0],"parents":[2147483647,0,0,1,1,2,2,3,3,5,5,7,7,8,8,9,9,11,11,12,12,13,13,14,14,17,17,18,18,21,21],"right_children":[2,4,6,8,-1,10,-1,12,14,16,-1,18,20,22,24,-1,-1,26,28,-1,-1,30,-1,-1,-1,-1,-1,-1,-1,-1,-1],"split_conditions":[2.3996712E-1,4.300853E-1,7.70184E-2,2.5719994E-1,-1.5934205E-1,1.671594E-1,-2.128644E-1,9.935143E-1,1.2398362E-1,3.2297887E-2,-1.6991052E-1,4.0663227E-1,-1.2523832E-2,9.8072517E-1,1.792306E-1,1.8701278E-1,-2.391851E-2,2.3172836E-1,3.6001354E-1,-1.4665607E-1,2.0461323E-2,1.0731131E-1,4.5418408E-2,1.5997534E-1,-7.0462786E-2,2.2952211E-1,-9.737605E-2,7.3803335E-2,-1.9617403E-1,-1.95006E-1,-5.63715E-2],"split_indices":[107,33,197,276,0,100,0,0,307,334,0,353,86,0,346,0,0,85,131,0,0,340,0,0,0,0,0,0,0,0,0],"split_type":[0,0,0,0,0,0,0,0,0,0,0,0,0,0,0,0,0,0,0,0,0,0,0,0,0,0,0,0,0,0,0],"sum_hessian":[3.8585487E1,2.9248798E1,9.33669E0,2.6930029E1,2.3187692E0,6.146711E0,3.1899788E0,1.8760387E1,8.169641E0,3.901258E0,2.245453E0,1.5840683E1,2.9197052E0,4.642832E0,3.5268095E0,2.1731656E0,1.7280922E0,1.2752058E1,3.088625E0,1.9159213E0,1.0037838E0,3.6288154E0,1.0140162E0,2.169168E0,1.3576415E0,1.1636929E1,1.1151291E0,1.874641E0,1.2139839E0,2.2291613E0,1.3996542E0],"tree_param":{"num_deleted":"0","num_feature":"367","num_nodes":"31","size_leaf_vector":"1"}},{"base_weights":[1.320633E-2,1.906287E-1,-6.372149E-1,3.3293438E-1,-5.3672314E-1,-1.9323383E-1,4.9658455E-2,4.650376E-1,-5.06813E-1,4.1872464E-2,-1.7945164E-1,-1.0267202E-1,1.0320433E-1,5.6441504E-1,-1.3050137E-1,-2.2463506E-2,-1.5935294E-1,7.363695E-1,-1.3533033E-1,1.697676E-1,-9.475437E-2,1.2328183E-1,-1.3135192E-1],"categories":[],"categories_nodes":[],"categories_segments":[],"categories_sizes":[],"default_left":[0,0,0,0,0,0,0,0,0,0,0,0,0,0,0,0,0,0,0,0,0,0,0],"id":10,"left_children":[1,3,5,7,9,-1,11,13,15,-1,-1,-1,-1,17,-1,-1,-1,19,21,-1,-1,-1,-1],"loss_changes":[4.2046585E0,3.1358256E0,1.8134463E0,2.9548624E0,1.5483484E0,0E0,1.1790105E0,2.7784142E0,3.4635878E-1,0E0,0E0,0E0,0E0,2.562138E0,0E0,0E0,0E0,2.6592283E0,2.3184052E0,0E0,0E0,0E0,0E0],"parents":[2147483647,0,0,1,1,2,2,3,3,4,4,6,6,7,7,8,8,13,13,17,17,18,18],"right_children":[2,4,6,8,10,-1,12,14,16,-1,-1,-1,-1,18,-1,-1,-1,20,22,-1,-1,-1,-1],"split_conditions":[9.2937425E-2,3.0718458E-1,2.0221351E-1,3.770638E-1,8.386855E-2,-1.9323383E-1,4.7769602E-2,6.55434E-1,3.5434657E-1,4.1872464E-2,-1.7945164E-1,-1.0267202E-1,1.0320433E-1,3.648461E-1,-1.3050137E-1,-2.2463506E-2,-1.5935294E-1,2.8388566E-1,-8.980539E-2,1.697676E-1,-9.475437E-2,1.2328183E-1,-1.3135192E-1],"split_indices":[70,251,70,108,93,0,86,327,43,0,0,0,0,210,0,0,0,189,261,0,0,0,0],"split_type":[0,0,0,0,0,0,0,0,0,0,0,0,0,0,0,0,0,0,0,0,0,0,0],"sum_hessian":[3.438312E1,2.7569586E1,6.813536E0,2.3511791E1,4.057794E0,4.332173E0,2.4813633E0,2.0701406E1,2.8103845E0,1.4586302E0,2.599164E0,1.0785307E0,1.4028327E0,1.94654E1,1.236006E0,1.7782891E0,1.0320954E0,1.5583575E1,3.8818257E0,1.4531596E1,1.0519798E0,1.5152097E0,2.366616E0],"tree_param":{"num_deleted":"0","num_feature":"367","num_nodes":"23","size_leaf_vector":"1"}},{"base_weights":[1.316303E-2,-8.333073E-2,7.3681253E-1,-1.718648E-1,1.5748529E-1,1.8836813E-1,3.2500934E-2,-1.6792754E-2,-6.755669E-1,-2.0533977E-1,6.5118223E-1,-8.556889E-1,4.9301904E-2,-3.569682E-1,1.7509815E-1,1.230568E-2,1.7130479E-1,-1.8927908E-1,-5.135187E-2,-9.704464E-2,7.886594E-2],"categories":[],"categories_nodes":[],"categories_segments":[],"categories_sizes":[],"default_left":[0,0,0,0,0,0,0,0,0,0,0,0,0,0,0,0,0,0,0,0,0],"id":11,"left_children":[1,3,5,7,-1,-1,-1,9,11,13,15,17,-1,19,-1,-1,-1,-1,-1,-1,-1],"loss_changes":[2.7684875E0,2.8416555E0,3.9599466E-1,2.5417795E0,0E0,0E0,0E0,3.4104846E0,1.4845972E0,3.7623816E0,6.697874E-1,1.1768532E-1,0E0,2.0386176E0,0E0,0E0,0E0,0E0,0E0,0E0,0E0],"parents":[2147483647,0,0,1,1,2,2,3,3,7,7,8,8,9,9,10,10,11,11,13,13],"right_children":[2,4,6,8,-1,-1,-1,10,12,14,16,18,-1,20,-1,-1,-1,-1,-1,-1,-1],"split_conditions":[3.3889303E-1,4.7344235E-1,2.4501828E-3,3.3855125E-1,1.5748529E-1,1.8836813E-1,3.2500934E-2,3.732689E-2,4.0663227E-1,3.0742702E-1,4.4405915E-2,7.916964E-2,4.9301904E-2,4.72037E-1,1.7509815E-1,1.230568E-2,1.7130479E-1,-1.8927908E-1,-5.135187E-2,-9.704464E-2,7.886594E-2],"split_indices":[235,52,333,303,0,0,0,174,353,142,181,253,0,326,0,0,0,0,0,0,0],"split_type":[0,0,0,0,0,0,0,0,0,0,0,0,0,0,0,0,0,0,0,0,0],"sum_hessian":[3.7768135E1,3.4105274E1,3.6628609E0,3.1686213E1,2.4190633E0,2.2276366E0,1.4352243E0,2.5017538E1,6.668675E0,2.0050535E1,4.9670024E0,5.639107E0,1.0295675E0,1.8171066E1,1.8794692E0,1.618629E0,3.3483734E0,4.3935676E0,1.2455398E0,1.5823901E1,2.3471646E0],"tree_param":{"num_deleted":"0","num_feature":"367","num_nodes":"21","size_leaf_vector":"1"}},{"base_weights":[-3.7739795E-2,9.621079E-2,-4.8578292E-1,2.3365182E-1,-3.509053E-1,-6.859423E-1,7.9743855E-2,3.937077E-1,-4.1068012E-1,-6.4821845E-1,1.16415404E-1,-8.746452E-1,2.9651428E-2,5.327476E-1,-1.296413E-1,1.06163286E-1,-1.8349174E-1,-8.584281E-1,2.0961836E-2,-2.182244E-1,-2.2666978E-2,7.239679E-1,-4.6406087E-1,1.1316537E-1,-6.843663E-2,-1.9504121E-1,-5.639103E-2,1.797083E-1,-5.689896E-3,-1.5274337E-1,2.2881363E-2],"categories":[],"categories_nodes":[],"categories_segments":[],"categories_sizes":[],"default_left":[0,0,0,0,0,0,0,0,0,0,0,0,0,0,0,0,0,0,0,0,0,0,0,0,0,0,0,0,0,0,0],"id":12,"left_children":[1,3,5,7,9,11,-1,13,15,17,-1,19,-1,21,-1,23,-1,25,-1,-1,-1,27,29,-1,-1,-1,-1,-1,-1,-1,-1],"loss_changes":[2.2429812E0,1.864511E0,1.7939017E0,2.5116835E0,2.3799863E0,1.2899325E0,0E0,3.0635355E0,1.4131968E0,1.0315259E0,0E0,8.908639E-1,0E0,3.595996E0,0E0,8.908897E-1,0E0,4.5400143E-2,0E0,0E0,0E0,1.9618139E0,6.701891E-1,0E0,0E0,0E0,0E0,0E0,0E0,0E0,0E0],"parents":[2147483647,0,0,1,1,2,2,3,3,4,4,5,5,7,7,8,8,9,9,11,11,13,13,15,15,17,17,21,21,22,22],"right_children":[2,4,6,8,10,12,-1,14,16,18,-1,20,-1,22,-1,24,-1,26,-1,-1,-1,28,30,-1,-1,-1,-1,-1,-1,-1,-1],"split_conditions":[1.1915521E-1,3.3156937E-1,4.122481E-1,3.1172156E-1,4.6215844E-1,2.601344E-1,7.9743855E-2,3.5525352E-1,4.4405915E-2,2.803835E-1,1.16415404E-1,9.973961E-2,2.9651428E-2,3.6598867E-1,-1.296413E-1,4.9974117E-1,-1.8349174E-1,2.9963142E-1,2.0961836E-2,-2.182244E-1,-2.2666978E-2,2.646093E-1,3.301554E-1,1.1316537E-1,-6.843663E-2,-1.9504121E-1,-5.639103E-2,1.797083E-1,-5.689896E-3,-1.5274337E-1,2.2881363E-2],"split_indices":[162,145,344,302,221,51,0,62,181,143,0,89,0,343,0,48,0,188,0,0,0,215,201,0,0,0,0,0,0,0,0],"split_type":[0,0,0,0,0,0,0,0,0,0,0,0,0,0,0,0,0,0,0,0,0,0,0,0,0,0,0,0,0,0,0],"sum_hessian":[3.5594524E1,2.8006683E1,7.5878396E0,2.1786926E1,6.2197566E0,6.37067E0,1.2171695E0,1.7763369E1,4.0235586E0,4.94815E0,1.2716064E0,5.155882E0,1.2147881E0,1.6103142E1,1.660226E0,2.3833685E0,1.64019E0,3.7588797E0,1.1892703E0,3.677093E0,1.478789E0,1.3740904E1,2.3622386E0,1.0474492E0,1.3359193E0,2.5505333E0,1.2083465E0,1.0995544E1,2.745359E0,1.3451746E0,1.017064E0],"tree_param":{"num_deleted":"0","num_feature":"367","num_nodes":"31","size_leaf_vector":"1"}},{"base_weights":[2.9667279E-2,2.0397186E-1,-3.3372474E-1,3.220907E-1,-4.2893016E-1,-6.194233E-1,3.995457E-2,3.9895317E-1,-9.428173E-2,2.3057884E-2,-6.491925E-1,-7.775897E-1,2.0115212E-2,5.073601E-1,-1.5400489E-1,5.234848E-1,-1.901194E-1,-4.0806945E-2,-1.5601613E-1,-8.685701E-1,-4.3624073E-2,1.7736886E-1,-6.3623756E-2,7.1315557E-1,1.2921042E-2,9.975386E-2,-1.3143401E-1,-1.9784635E-1,-5.7814654E-2,1.8055746E-1,-2.7126102E-2,-7.239235E-2,1.4226605E-1],"categories":[],"categories_nodes":[],"categories_segments":[],"categories_sizes":[],"default_left":[0,0,0,0,0,0,0,0,0,0,0,0,0,0,0,0,0,0,0,0,0,0,0,0,0,0,0,0,0,0,0,0,0],"id":13,"left_children":[1,3,5,7,9,11,13,15,-1,-1,17,19,-1,21,-1,23,25,-1,-1,27,-1,-1,-1,29,31,-1,-1,-1,-1,-1,-1,-1,-1],"loss_changes":[2.382613E0,2.0307357E0,1.3298656E0,1.5241046E0,6.0354215E-1,8.740647E-1,2.7516475E0,1.6043053E0,0E0,0E0,3.2565594E-2,1.0803127E-1,0E0,1.70968E0,0E0,1.6563683E0,1.7155569E0,0E0,0E0,4.2089462E-2,0E0,0E0,0E0,2.1379895E0,1.743898E0,0E0,0E0,0E0,0E0,0E0,0E0,0E0,0E0],"parents":[2147483647,0,0,1,1,2,2,3,3,4,4,5,5,6,6,7,7,10,10,11,11,13,13,15,15,16,16,19,19,23,23,24,24],"right_children":[2,4,6,8,10,12,14,16,-1,-1,18,20,-1,22,-1,24,26,-1,-1,28,-1,-1,-1,30,32,-1,-1,-1,-1,-1,-1,-1,-1],"split_conditions":[7.70184E-2,4.8010898E-1,7.916964E-2,3.7264007E-1,4.14E1,1.671594E-1,5.2999355E-2,1.1915521E-1,-9.428173E-2,2.3057884E-2,2.5719994E-1,3.3156937E-1,2.0115212E-2,1.792306E-1,-1.5400489E-1,4.92913E-2,1.6264835E-2,-4.0806945E-2,-1.5601613E-1,9.2564434E-2,-4.3624073E-2,1.7736886E-1,-6.3623756E-2,2.2236861E-1,3.732689E-2,9.975386E-2,-1.3143401E-1,-1.9784635E-1,-5.7814654E-2,1.8055746E-1,-2.7126102E-2,-7.239235E-2,1.4226605E-1],"split_indices":[197,240,253,66,2,100,30,162,0,0,276,145,0,346,0,263,361,0,0,262,0,0,0,315,174,0,0,0,0,0,0,0,0],"split_type":[0,0,0,0,0,0,0,0,0,0,0,0,0,0,0,0,0,0,0,0,0,0,0,0,0,0,0,0,0,0,0,0,0],"sum_hessian":[3.5541042E1,2.4316223E1,1.1224817E1,2.0905676E1,3.4105477E0,5.988582E0,5.2362356E0,1.9512789E1,1.3928876E0,1.1199585E0,2.290589E0,4.844398E0,1.1441838E0,3.557159E0,1.6790766E0,1.6199507E1,3.3132818E0,1.1018806E0,1.1887087E0,3.6915865E0,1.1528119E0,2.3859603E0,1.1711986E0,1.1522268E1,4.6772385E0,1.3112726E0,2.0020092E0,2.4701946E0,1.2213917E0,9.366114E0,2.1561542E0,3.3570304E0,1.3202082E0],"tree_param":{"num_deleted":"0","num_feature":"367","num_nodes":"33","size_leaf_vector":"1"}},{"base_weights":[-6.5740384E-2,3.1337522E-2,-7.285834E-1,2.1990559E-1,-3.09098E-1,-1.8046033E-1,-1.6075453E-2,3.5998726E-1,-3.6119324E-1,-6.507632E-1,1.2878896E-1,6.0882574E-1,-1.5841341E-1,-5.988474E-1,4.1901987E-2,-8.187145E-1,2.6401252E-2,5.6894207E-1,-1.18912295E-1,7.692669E-1,-6.3154474E-2,3.6567783E-1,-1.6193384E-1,-3.9269455E-2,-1.5411375E-1,-1.956504E-1,-5.627957E-2,1.5849164E-1,8.23361E-3,1.7970657E-1,-9.9661155E-3,-5.4175403E-2,1.6704473E-1],"categories":[],"categories_nodes":[],"categories_segments":[],"categories_sizes":[],"default_left":[0,0,0,0,0,0,0,0,0,0,0,0,0,0,0,0,0,0,0,0,0,0,0,0,0,0,0,0,0,0,0,0,0],"id":14,"left_children":[1,3,5,7,9,-1,-1,11,13,15,17,19,21,23,-1,25,-1,27,-1,29,-1,31,-1,-1,-1,-1,-1,-1,-1,-1,-1,-1,-1],"loss_changes":[2.217182E0,2.0390222E0,4.226718E-1,1.7860179E0,1.78345E0,0E0,0E0,2.2755952E0,7.29111E-1,9.687288E-1,2.189321E0,1.9667387E0,2.4369555E0,8.379698E-2,0E0,1.9867063E-1,0E0,4.5404434E-1,0E0,1.1240482E0,0E0,1.4709439E0,0E0,0E0,0E0,0E0,0E0,0E0,0E0,0E0,0E0,0E0,0E0],"parents":[2147483647,0,0,1,1,2,2,3,3,4,4,7,7,8,8,9,9,10,10,11,11,12,12,13,13,15,15,17,17,19,19,21,21],"right_children":[2,4,6,8,10,-1,-1,12,14,16,18,20,22,24,-1,26,-1,28,-1,30,-1,32,-1,-1,-1,-1,-1,-1,-1,-1,-1,-1,-1],"split_conditions":[3.8131264E-1,7.70184E-2,3.2297887E-2,3.6145574E-1,7.916964E-2,-1.8046033E-1,-1.6075453E-2,-1.1979019E-2,-2.2124846E-2,3.0467713E-1,5.2999355E-2,4.161838E-1,2.186335E-1,4.0476128E-1,4.1901987E-2,4.7267264E-1,2.6401252E-2,9.725216E-2,-1.18912295E-1,8.3695136E-2,-6.3154474E-2,1.2518978E-1,-1.6193384E-1,-3.9269455E-2,-1.5411375E-1,-1.956504E-1,-5.627957E-2,1.5849164E-1,8.23361E-3,1.7970657E-1,-9.9661155E-3,-5.4175403E-2,1.6704473E-1],"split_indices":[23,197,334,18,253,0,0,167,174,233,30,191,214,160,0,161,0,284,0,99,0,285,0,0,0,0,0,0,0,0,0,0,0],"split_type":[0,0,0,0,0,0,0,0,0,0,0,0,0,0,0,0,0,0,0,0,0,0,0,0,0,0,0,0,0,0,0,0,0],"sum_hessian":[3.3101604E1,2.9703978E1,3.3976285E0,1.9343573E1,1.0360406E1,2.3703737E0,1.0272547E0,1.5892885E1,3.4506872E0,5.5465307E0,4.8138747E0,1.0620492E1,5.272393E0,2.4013808E0,1.0493063E0,4.52889E0,1.0176404E0,3.1254969E0,1.6883779E0,9.193232E0,1.4272598E0,3.1643884E0,2.1080048E0,1.3591218E0,1.042259E0,2.8592968E0,1.6695936E0,1.8433251E0,1.2821718E0,7.856395E0,1.3368373E0,1.5229121E0,1.6414762E0],"tree_param":{"num_deleted":"0","num_feature":"367","num_nodes":"33","size_leaf_vector":"1"}},{"base_weights":[-5.800193E-2,5.25364E-2,-5.410954E-1,-8.438196E-2,6.8421435E-1,-1.4101814E-1,1.5166807E-2,-2.8938255E-1,2.9850957E-1,1.6309433E-1,2.3993488E-2,-4.672122E-1,3.1928867E-1,1.7422518E-1,-1.2210103E-1,-6.1628443E-1,1.01405814E-1,1.1019515E-1,-2.6095888E-2,-4.1443473E-1,1.0606235E-1,-1.4924476E-1,-5.3615677E-3,8.507729E-2,-1.8030946E-1],"categories":[],"categories_nodes":[],"categories_segments":[],"categories_sizes":[],"default_left":[0,0,0,0,0,0,0,0,0,0,0,0,0,0,0,0,0,0,0,0,0,0,0,0,0],"id":15,"left_children":[1,3,5,7,9,-1,-1,11,13,-1,-1,15,17,-1,19,21,-1,-1,-1,23,-1,-1,-1,-1,-1],"loss_changes":[1.6580801E0,2.2845113E0,6.373521E-1,1.8171738E0,2.499845E-1,0E0,0E0,1.7585924E0,2.076809E0,0E0,0E0,2.0426319E0,4.8412284E-1,0E0,1.2866293E0,8.059678E-1,0E0,0E0,0E0,2.1933858E0,0E0,0E0,0E0,0E0,0E0],"parents":[2147483647,0,0,1,1,2,2,3,3,4,4,7,7,8,8,11,11,12,12,14,14,15,15,19,19],"right_children":[2,4,6,8,10,-1,-1,12,14,-1,-1,16,18,-1,20,22,-1,-1,-1,24,-1,-1,-1,-1,-1],"split_conditions":[3.4384528E-1,2.3640952E-1,3.5182902E-1,-3.9401483E-2,1.7770545E-1,-1.4101814E-1,1.5166807E-2,2.7149668E-1,3.0528374E-3,1.6309433E-1,2.3993488E-2,9.973961E-2,9.894171E-1,1.7422518E-1,1.8772155E-1,3.1172156E-1,1.01405814E-1,1.1019515E-1,-2.6095888E-2,4.92913E-2,1.0606235E-1,-1.4924476E-1,-5.3615677E-3,8.507729E-2,-1.8030946E-1],"split_indices":[186,275,260,76,329,0,0,301,306,0,0,89,0,0,192,302,0,0,0,263,0,0,0,0,0],"split_type":[0,0,0,0,0,0,0,0,0,0,0,0,0,0,0,0,0,0,0,0,0,0,0,0,0],"sum_hessian":[2.9517649E1,2.4746552E1,4.7710967E0,2.1050255E1,3.6962981E0,3.656266E0,1.1148306E0,1.3868995E1,7.181259E0,2.6375117E0,1.0587865E0,1.0913042E1,2.955953E0,2.587524E0,4.593735E0,9.783461E0,1.1295818E0,1.8024453E0,1.1535076E0,3.4241881E0,1.169547E0,7.7985115E0,1.9849488E0,1.303525E0,2.1206632E0],"tree_param":{"num_deleted":"0","num_feature":"367","num_nodes":"25","size_leaf_vector":"1"}},{"base_weights":[-2.4244336E-2,-1.1755629E-1,1.3861829E-1,-2.375476E-2,-1.4715564E-1,1.5388978E-1,-3.4821445E-1,3.0014703E-1,-4.0237695E-1,-6.535807E-1,1.0217269E-1,5.754719E-1,-2.646035E-1,2.6617913E-2,-1.5654819E-1,-1.767543E-1,-4.068168E-3,1.3083248E-1,-1.1346314E-1,1.4700471E-1,-6.3514784E-2,4.2723402E-2,-1.4593758E-1],"categories":[],"categories_nodes":[],"categories_segments":[],"categories_sizes":[],"default_left":[0,0,0,0,0,0,0,0,0,0,0,0,0,0,0,0,0,0,0,0,0,0,0],"id":16,"left_children":[1,3,-1,5,-1,7,9,11,13,15,17,19,21,-1,-1,-1,-1,-1,-1,-1,-1,-1,-1],"loss_changes":[2.1144452E0,1.5906334E0,0E0,1.5009407E0,0E0,1.4973637E0,1.3308069E0,2.3245187E0,9.086432E-1,8.001139E-1,2.0630562E0,1.6165032E0,1.3265754E0,0E0,0E0,0E0,0E0,0E0,0E0,0E0,0E0,0E0,0E0],"parents":[2147483647,0,0,1,1,3,3,5,5,6,6,7,7,8,8,9,9,10,10,11,11,12,12],"right_children":[2,4,-1,6,-1,8,10,12,14,16,18,20,22,-1,-1,-1,-1,-1,-1,-1,-1,-1,-1],"split_conditions":[3.3889303E-1,3.8131264E-1,1.3861829E-1,7.70184E-2,-1.4715564E-1,3.6145574E-1,9.251271E-2,-1.1979019E-2,6.2620096E-2,2.4652313E-1,1.4274454E-1,4.161838E-1,2.186335E-1,2.6617913E-2,-1.5654819E-1,-1.767543E-1,-4.068168E-3,1.3083248E-1,-1.1346314E-1,1.4700471E-1,-6.3514784E-2,4.2723402E-2,-1.4593758E-1],"split_indices":[235,23,0,197,0,18,274,167,19,300,348,191,214,0,0,0,0,0,0,0,0,0,0],"split_type":[0,0,0,0,0,0,0,0,0,0,0,0,0,0,0,0,0,0,0,0,0,0,0],"sum_hessian":[2.9371817E1,2.6730766E1,2.641051E0,2.4110895E1,2.6198716E0,1.5920167E1,8.190727E0,1.29703455E1,2.949821E0,4.612357E0,3.5783703E0,8.706705E0,4.2636414E0,1.4951239E0,1.4546971E0,3.0925436E0,1.5198137E0,1.973841E0,1.6045293E0,7.5370774E0,1.1696274E0,2.368715E0,1.8949263E0],"tree_param":{"num_deleted":"0","num_feature":"367","num_nodes":"23","size_leaf_vector":"1"}},{"base_weights":[-3.4204527E-4,7.15561E-2,-1.20448865E-1,1.7936423E-1,-4.531989E-1,3.009207E-1,-3.956577E-1,-6.820692E-1,4.0318977E-2,3.9089411E-1,-1.1656927E-1,-1.5383743E-1,8.077272E-2,-2.8155936E-2,-1.6493772E-1,5.010146E-1,-8.854204E-2,1.2236712E-1,-4.4297945E-2],"categories":[],"categories_nodes":[],"categories_segments":[],"categories_sizes":[],"default_left":[0,0,0,0,0,0,0,0,0,0,0,0,0,0,0,0,0,0,0],"id":17,"left_children":[1,3,-1,5,7,9,11,13,-1,15,-1,-1,-1,-1,-1,17,-1,-1,-1],"loss_changes":[1.3272902E0,1.6315043E0,0E0,1.75805E0,8.798791E-1,1.8121426E0,1.661675E0,1.8488383E-1,0E0,1.9367616E0,0E0,0E0,0E0,0E0,0E0,1.4943805E0,0E0,0E0,0E0],"parents":[2147483647,0,0,1,1,3,3,4,4,5,5,6,6,7,7,9,9,15,15],"right_children":[2,4,-1,6,8,10,12,14,-1,16,-1,-1,-1,-1,-1,18,-1,-1,-1],"split_conditions":[3.5942093E-1,3.7381098E-1,-1.20448865E-1,4.6297777E-1,-2.2124846E-2,5.7580024E-1,5.4670397E-2,3.291724E-2,4.0318977E-2,5.325511E-1,-1.1656927E-1,-1.5383743E-1,8.077272E-2,-2.8155936E-2,-1.6493772E-1,3.8131264E-1,-8.854204E-2,1.2236712E-1,-4.4297945E-2],"split_indices":[137,202,0,200,174,80,92,3,0,134,0,0,0,0,0,23,0,0,0],"split_type":[0,0,0,0,0,0,0,0,0,0,0,0,0,0,0,0,0,0,0],"sum_hessian":[2.8674786E1,2.6402126E1,2.2726576E0,2.2448414E1,3.9537132E0,1.892455E1,3.5238652E0,2.8988295E0,1.0548837E0,1.7682089E1,1.2424603E0,2.4276354E0,1.0962298E0,1.0188904E0,1.8799391E0,1.597124E1,1.7108482E0,1.3980084E1,1.9911561E0],"tree_param":{"num_deleted":"0","num_feature":"367","num_nodes":"19","size_leaf_vector":"1"}},{"base_weights":[-4.068965E-2,-1.1714368E-1,1.1788501E-1,-2.3336302E-1,2.1817306E-1,-7.831091E-2,-1.5953746E-1,5.8734816E-1,-3.5207084E-1,-2.2356497E-1,4.038565E-1,1.5737459E-1,-1.15566095E-2,-1.2455433E-1,1.37293665E-2,-3.1092232E-1,8.133825E-2,1.588266E-1,-5.0367873E-2,-8.465027E-2,4.701654E-2],"categories":[],"categories_nodes":[],"categories_segments":[],"categories_sizes":[],"default_left":[0,0,0,0,0,0,0,0,0,0,0,0,0,0,0,0,0,0,0,0,0],"id":18,"left_children":[1,3,-1,5,7,9,-1,11,13,15,17,-1,-1,-1,-1,19,-1,-1,-1,-1,-1],"loss_changes":[1.4122214E0,1.0523945E0,0E0,1.6496638E0,1.7080663E0,1.2430007E0,0E0,6.509131E-1,4.3312678E-1,8.582748E-1,1.2662545E0,0E0,0E0,0E0,0E0,8.5024595E-1,0E0,0E0,0E0,0E0,0E0],"parents":[2147483647,0,0,1,1,3,3,4,4,5,5,7,7,8,8,9,9,10,10,15,15],"right_children":[2,4,-1,6,8,10,-1,12,14,16,18,-1,-1,-1,-1,20,-1,-1,-1,-1,-1],"split_conditions":[3.3889303E-1,5.9363488E-2,1.1788501E-1,2.6580438E-1,1.6448818E-1,7.539982E-3,-1.5953746E-1,4.923895E-1,2.3214212E-1,4.7810712E-1,3.3419285E-2,1.5737459E-1,-1.15566095E-2,-1.2455433E-1,1.37293665E-2,3.9678016E-1,8.133825E-2,1.588266E-1,-5.0367873E-2,-8.465027E-2,4.701654E-2],"split_indices":[235,185,0,352,358,79,0,158,340,280,262,0,0,0,0,220,0,0,0,0,0],"split_type":[0,0,0,0,0,0,0,0,0,0,0,0,0,0,0,0,0,0,0,0,0],"sum_hessian":[2.6881252E1,2.4698578E1,2.182674E0,1.856729E1,6.13129E0,1.5458676E1,3.108612E0,3.703594E0,2.427696E0,1.2292012E1,3.1666644E0,2.6609201E0,1.0426736E0,1.1849853E0,1.2427108E0,1.1240661E1,1.0513514E0,1.8527559E0,1.3139083E0,9.5091715E0,1.73149E0],"tree_param":{"num_deleted":"0","num_feature":"367","num_nodes":"21","size_leaf_vector":"1"}},{"base_weights":[-2.0212247E-3,-8.64045E-2,1.2769483E-1,-1.7380783E-1,4.414273E-1,-2.894853E-1,3.0272663E-1,1.2948215E-1,-1.341625E-2,-4.2117068E-1,1.7568831E-1,1.03015326E-1,-4.830634E-2,-5.3992665E-1,8.916893E-2,1.4999847E-1,-3.4998015E-1,-1.2726592E-1,4.087878E-2,7.250649E-2,-5.2299637E-2,-1.2490692E-1,1.3879192E-2],"categories":[],"categories_nodes":[],"categories_segments":[],"categories_sizes":[],"default_left":[0,0,0,0,0,0,0,0,0,0,0,0,0,0,0,0,0,0,0,0,0,0,0],"id":19,"left_children":[1,3,-1,5,7,9,11,-1,-1,13,15,-1,-1,17,19,-1,21,-1,-1,-1,-1,-1,-1],"loss_changes":[1.559329E0,1.2518374E0,0E0,1.3318172E0,4.5205033E-1,1.2178347E0,6.904321E-1,0E0,0E0,9.47989E-1,1.71926E0,0E0,0E0,1.0044951E0,4.4574872E-1,0E0,4.1193622E-1,0E0,0E0,0E0,0E0,0E0,0E0],"parents":[2147483647,0,0,1,1,3,3,4,4,5,5,6,6,9,9,10,10,13,13,14,14,16,16],"right_children":[2,4,-1,6,8,10,12,-1,-1,14,16,-1,-1,18,20,-1,22,-1,-1,-1,-1,-1,-1],"split_conditions":[4.2519727E-1,3.334234E-1,1.2769483E-1,3.3961967E-1,1.3434206E-1,1.1217262E-1,3.049612E-1,1.2948215E-1,-1.341625E-2,3.732689E-2,4.4492103E-2,1.03015326E-1,-4.830634E-2,3.0742702E-1,3.3855125E-1,1.4999847E-1,2.2011036E-1,-1.2726592E-1,4.087878E-2,7.250649E-2,-5.2299637E-2,-1.2490692E-1,1.3879192E-2],"split_indices":[183,115,0,365,198,85,354,0,0,174,91,0,0,142,303,0,81,0,0,0,0,0,0],"split_type":[0,0,0,0,0,0,0,0,0,0,0,0,0,0,0,0,0,0,0,0,0,0,0],"sum_hessian":[2.6830576E1,2.4471615E1,2.3589618E0,2.1570486E1,2.9011288E0,1.7672943E1,3.8975413E0,1.8703452E0,1.0307837E0,1.3847476E1,3.8254685E0,2.8422246E0,1.0553167E0,1.1186421E1,2.6610541E0,1.6242263E0,2.201242E0,1.0032162E1,1.1542597E0,1.476336E0,1.184718E0,1.0346711E0,1.166571E0],"tree_param":{"num_deleted":"0","num_feature":"367","num_nodes":"23","size_leaf_vector":"1"}},{"base_weights":[7.7564105E-2,1.6927052E-1,-3.841649E-1,2.918589E-1,-2.7908516E-1,-1.053186E-2,-1.07785426E-1,4.2267174E-1,-2.8881595E-1,-1.2746899E-1,6.1532836E-2,6.673665E-1,5.404929E-3,2.2425717E-2,-1.032296E-1,8.038399E-1,-6.7824046E-3,4.3334556E-1,-1.2554953E-1,1.8753497E-1,1.234896E-2,1.475896E-1,-4.6007022E-2],"categories":[],"categories_nodes":[],"categories_segments":[],"categories_sizes":[],"default_left":[0,0,0,0,0,0,0,0,0,0,0,0,0,0,0,0,0,0,0,0,0,0,0],"id":20,"left_children":[1,3,5,7,9,-1,-1,11,13,-1,-1,15,17,-1,-1,19,-1,21,-1,-1,-1,-1,-1],"loss_changes":[1.1118358E0,1.2532389E0,1.9748122E-1,1.4309157E0,1.2657821E0,0E0,0E0,1.4736855E0,4.0077913E-1,0E0,0E0,8.9934444E-1,1.9943404E0,0E0,0E0,7.0369625E-1,0E0,1.055724E0,0E0,0E0,0E0,0E0,0E0],"parents":[2147483647,0,0,1,1,2,2,3,3,4,4,7,7,8,8,11,11,12,12,15,15,17,17],"right_children":[2,4,6,8,10,-1,-1,12,14,-1,-1,16,18,-1,-1,20,-1,22,-1,-1,-1,-1,-1],"split_conditions":[3.9129776E-1,2.6580438E-1,8.386855E-2,9.2937425E-2,4.8524577E-2,-1.053186E-2,-1.07785426E-1,1.6264835E-2,1.788681E-1,-1.2746899E-1,6.1532836E-2,3.6145574E-1,1.1915521E-1,2.2425717E-2,-1.032296E-1,3.6001354E-1,-6.7824046E-3,-1.5523428E-2,-1.2554953E-1,1.8753497E-1,1.234896E-2,1.475896E-1,-4.6007022E-2],"split_indices":[38,352,93,70,103,0,0,361,366,0,0,18,162,0,0,131,0,91,0,0,0,0,0],"split_type":[0,0,0,0,0,0,0,0,0,0,0,0,0,0,0,0,0,0,0,0,0,0,0],"sum_hessian":[2.3721807E1,2.0319452E1,3.402354E0,1.623073E1,4.0887237E0,1.5094098E0,1.8929441E0,1.3468652E1,2.762078E0,2.4851196E0,1.6036043E0,8.112135E0,5.3565164E0,1.182779E0,1.579299E0,6.668208E0,1.4439268E0,3.3845272E0,1.971989E0,5.4260783E0,1.2421299E0,2.2424593E0,1.1420679E0],"tree_param":{"num_deleted":"0","num_feature":"367","num_nodes":"23","size_leaf_vector":"1"}},{"base_weights":[-1.9751277E-2,1.1101988E-1,-4.4744682E-1,2.1392193E-1,-4.0023208E-1,-3.1710766E-2,-1.460198E-1,3.6785135E-1,-2.7626303E-1,1.1935912E-2,-1.23932555E-1,5.848224E-2,-7.500016E-2,5.512841E-1,-9.172665E-2,9.359614E-2,-1.3348344E-1,7.0901614E-1,-2.5729427E-2,9.920519E-2,-5.0146884E-1,9.144061E-2,-6.824123E-2,1.743207E-1,1.6773146E-2,-1.984421E-2,-1.2857871E-1],"categories":[],"categories_nodes":[],"categories_segments":[],"categories_sizes":[],"default_left":[0,0,0,0,0,0,0,0,0,0,0,0,0,0,0,0,0,0,0,0,0,0,0,0,0,0,0],"id":21,"left_children":[1,3,5,7,9,11,-1,13,15,-1,-1,-1,-1,17,19,21,-1,23,-1,-1,25,-1,-1,-1,-1,-1,-1],"loss_changes":[1.3757435E0,1.0830157E0,6.525928E-1,1.3416219E0,3.9270663E-1,4.8493746E-1,0E0,1.1410449E0,7.132647E-1,0E0,0E0,0E0,0E0,1.0980437E0,1.3438922E0,6.601984E-1,0E0,7.1704245E-1,0E0,0E0,1.16930485E-1,0E0,0E0,0E0,0E0,0E0,0E0],"parents":[2147483647,0,0,1,1,2,2,3,3,4,4,5,5,7,7,8,8,13,13,14,14,15,15,17,17,20,20],"right_children":[2,4,6,8,10,12,-1,14,16,-1,-1,-1,-1,18,20,22,-1,24,-1,-1,26,-1,-1,-1,-1,-1,-1],"split_conditions":[2.3996712E-1,3.885587E-1,4.92913E-2,9.923974E-1,3.6001354E-1,1.1065804E-1,-1.460198E-1,7.883529E-2,2.4631712E-1,1.1935912E-2,-1.23932555E-1,5.848224E-2,-7.500016E-2,2.803835E-1,3.291724E-2,3.2887807E-1,-1.3348344E-1,4.36E1,-2.5729427E-2,9.920519E-2,2.3735994E-1,9.144061E-2,-6.824123E-2,1.743207E-1,1.6773146E-2,-1.984421E-2,-1.2857871E-1],"split_indices":[107,299,263,0,131,90,0,356,41,0,0,0,0,143,3,157,0,2,0,0,27,0,0,0,0,0,0],"split_type":[0,0,0,0,0,0,0,0,0,0,0,0,0,0,0,0,0,0,0,0,0,0,0,0,0,0,0],"sum_hessian":[2.270932E1,1.7958727E1,4.750593E0,1.5433854E1,2.5248713E0,2.3727899E0,2.3778036E0,1.1935422E1,3.4984322E0,1.0507005E0,1.4741709E0,1.2967012E0,1.0760888E0,8.387965E0,3.5474575E0,2.1891658E0,1.3092664E0,6.7737885E0,1.6141762E0,1.3706932E0,2.1767645E0,1.1641316E0,1.0250341E0,5.062832E0,1.7109568E0,1.0088687E0,1.1678958E0],"tree_param":{"num_deleted":"0","num_feature":"367","num_nodes":"27","size_leaf_vector":"1"}},{"base_weights":[8.655553E-3,9.296263E-2,-3.6974335E-1,2.1907817E-1,-3.021058E-1,-1.2748468E-1,5.209878E-2,3.5043505E-1,-4.55686E-1,1.2350505E-1,-1.4793958E-1,4.5681494E-1,-6.607982E-2,-1.1936005E-1,-1.641615E-2,8.622219E-2,-4.462966E-2,5.5366075E-1,-6.313204E-2,1.291512E-1,-1.42778335E-2],"categories":[],"categories_nodes":[],"categories_segments":[],"categories_sizes":[],"default_left":[0,0,0,0,0,0,0,0,0,0,0,0,0,0,0,0,0,0,0,0,0],"id":22,"left_children":[1,3,5,7,9,-1,-1,11,13,15,-1,17,-1,-1,-1,-1,-1,19,-1,-1,-1],"loss_changes":[8.069807E-1,1.0928036E0,9.443702E-1,1.5954428E0,1.0982418E0,0E0,0E0,1.1739103E0,1.13092005E-1,4.798207E-1,0E0,1.1200278E0,0E0,0E0,0E0,0E0,0E0,7.133131E-1,0E0,0E0,0E0],"parents":[2147483647,0,0,1,1,2,2,3,3,4,4,7,7,8,8,9,9,11,11,17,17],"right_children":[2,4,6,8,10,-1,-1,12,14,16,-1,18,-1,-1,-1,-1,-1,20,-1,-1,-1],"split_conditions":[4.6297777E-1,2.5875783E-1,-8.980539E-2,5.158099E-1,-1.1979019E-2,-1.2748468E-1,5.209878E-2,5.7580024E-1,9.6983355E-1,4.1E1,-1.4793958E-1,5.5996615E-1,-6.607982E-2,-1.1936005E-1,-1.641615E-2,8.622219E-2,-4.462966E-2,4.381856E-1,-6.313204E-2,1.291512E-1,-1.42778335E-2],"split_indices":[200,127,261,121,167,0,0,80,0,2,0,15,0,0,0,0,0,294,0,0,0],"split_type":[0,0,0,0,0,0,0,0,0,0,0,0,0,0,0,0,0,0,0,0,0],"sum_hessian":[2.3218405E1,1.9604794E1,3.6136117E0,1.5198521E1,4.4062724E0,2.528347E0,1.0852648E0,1.3124265E1,2.074256E0,2.5975778E0,1.8086946E0,1.1635294E1,1.4889705E0,1.0719584E0,1.0022975E0,1.2472143E0,1.3503635E0,1.0590783E1,1.044511E0,9.201851E0,1.3889325E0],"tree_param":{"num_deleted":"0","num_feature":"367","num_nodes":"21","size_leaf_vector":"1"}},{"base_weights":[-5.1074214E-2,7.228242E-2,-4.3766764E-1,2.2717288E-1,-2.8620243E-1,-1.1709493E-1,-2.5450398E-4,4.3635777E-1,-2.3961747E-1,-5.1582146E-1,7.260414E-2,6.226702E-1,-1.04963414E-1,5.1061053E-2,-1.211787E-1,-1.3656513E-1,-1.4403524E-2,8.0012214E-1,-1.7234562E-2,-6.365086E-2,2.5841335E-2,1.80527E-1,6.355072E-2],"categories":[],"categories_nodes":[],"categories_segments":[],"categories_sizes":[],"default_left":[0,0,0,0,0,0,0,0,0,0,0,0,0,0,0,0,0,0,0,0,0,0,0],"id":23,"left_children":[1,3,5,7,9,-1,-1,11,13,15,-1,17,19,-1,-1,-1,-1,21,-1,-1,-1,-1,-1],"loss_changes":[1.1626192E0,1.1109741E0,3.7843812E-1,1.443413E0,1.100467E0,0E0,0E0,1.0560327E0,1.0408845E0,3.168465E-1,0E0,1.0062888E0,2.0948443E-1,0E0,0E0,0E0,0E0,1.27027035E-2,0E0,0E0,0E0,0E0,0E0],"parents":[2147483647,0,0,1,1,2,2,3,3,4,4,7,7,8,8,9,9,11,11,12,12,17,17],"right_children":[2,4,6,8,10,-1,-1,12,14,16,-1,18,20,-1,-1,-1,-1,22,-1,-1,-1,-1,-1],"split_conditions":[9.9380493E-1,2.5719994E-1,4.7221478E-2,2.3996712E-1,1.6278192E-1,-1.1709493E-1,-2.5450398E-4,4.3E1,4.92913E-2,-1.7883655E-2,7.260414E-2,3.7181795E-1,9.2773145E-1,5.1061053E-2,-1.211787E-1,-1.3656513E-1,-1.4403524E-2,3.2806322E-2,-1.7234562E-2,-6.365086E-2,2.5841335E-2,1.80527E-1,6.355072E-2],"split_indices":[0,276,83,107,334,0,0,2,263,359,0,45,0,0,0,0,0,333,0,0,0,0,0],"split_type":[0,0,0,0,0,0,0,0,0,0,0,0,0,0,0,0,0,0,0,0,0,0,0],"sum_hessian":[2.2715883E1,1.783728E1,4.878603E0,1.2711377E1,5.125904E0,3.3890998E0,1.4895033E0,8.82278E0,3.888597E0,3.9384286E0,1.1874754E0,6.451885E0,2.3708947E0,1.7827134E0,2.1058836E0,2.470282E0,1.4681464E0,5.0571136E0,1.3947713E0,1.0528481E0,1.3180466E0,3.452198E0,1.6049156E0],"tree_param":{"num_deleted":"0","num_feature":"367","num_nodes":"23","size_leaf_vector":"1"}},{"base_weights":[-3.729656E-2,-9.99677E-2,9.19866E-2,-1.7348497E-1,8.138273E-2,-2.400755E-1,9.140029E-2,-1.3218649E-1,-1.4231905E-1,-2.9012691E-3,-4.5968303E-1,-2.8886085E-2,1.0110142E-1,-1.3673893E-1,2.1555755E-2],"categories":[],"categories_nodes":[],"categories_segments":[],"categories_sizes":[],"default_left":[0,0,0,0,0,0,0,0,0,0,0,0,0,0,0],"id":24,"left_children":[1,3,-1,5,-1,7,-1,9,-1,11,13,-1,-1,-1,-1],"loss_changes":[7.3545504E-1,8.334161E-1,0E0,8.897283E-1,0E0,7.941302E-1,0E0,6.522567E-1,0E0,9.417773E-1,6.282697E-1,0E0,0E0,0E0,0E0],"parents":[2147483647,0,0,1,1,3,3,5,5,7,7,9,9,10,10],"right_children":[2,4,-1,6,-1,8,-1,10,-1,12,14,-1,-1,-1,-1],"split_conditions":[4.7344235E-1,4.2519727E-1,9.19866E-2,3.3889303E-1,8.138273E-2,3.5434657E-1,9.140029E-2,1.793223E-1,-1.4231905E-1,-1.4700995E-2,2.8449345E-1,-2.8886085E-2,1.0110142E-1,-1.3673893E-1,2.1555755E-2],"split_indices":[52,183,0,235,0,43,0,265,0,171,99,0,0,0,0],"split_type":[0,0,0,0,0,0,0,0,0,0,0,0,0,0,0],"sum_hessian":[2.1125597E1,1.9470476E1,1.6551211E0,1.7578638E1,1.8918375E0,1.645945E1,1.119188E0,1.4436547E1,2.0229032E0,1.1073815E1,3.3627315E0,9.222423E0,1.8513931E0,2.2641175E0,1.098614E0],"tree_param":{"num_deleted":"0","num_feature":"367","num_nodes":"15","size_leaf_vector":"1"}},{"base_weights":[-8.305761E-2,-1.6060746E-1,9.9401385E-2,-2.573669E-1,2.8459626E-1,-3.5567486E-1,1.9659127E-1,9.946187E-2,-1.6966492E-2,-4.7811675E-1,1.4682792E-1,1.1043835E-1,-5.7396878E-2,-5.612119E-1,2.8288176E-2,-1.8675838E-2,7.4713334E-2,-1.2990099E-1,2.5289614E-2],"categories":[],"categories_nodes":[],"categories_segments":[],"categories_sizes":[],"default_left":[0,0,0,0,0,0,0,0,0,0,0,0,0,0,0,0,0,0,0],"id":25,"left_children":[1,3,-1,5,7,9,11,-1,-1,13,15,-1,-1,17,-1,-1,-1,-1,-1],"loss_changes":[1.0634735E0,9.366872E-1,0E0,8.2816625E-1,3.6071405E-1,9.513935E-1,7.8929865E-1,0E0,0E0,6.8434024E-1,2.2937934E-1,0E0,0E0,7.234397E-1,0E0,0E0,0E0,0E0,0E0],"parents":[2147483647,0,0,1,1,3,3,4,4,5,5,6,6,9,9,10,10,13,13],"right_children":[2,4,-1,6,8,10,12,-1,-1,14,16,-1,-1,18,-1,-1,-1,-1,-1],"split_conditions":[2.1349844E-1,3.4676477E-1,9.9401385E-2,4.7769602E-2,9.18806E-2,2.7149668E-1,1.0932717E-1,9.946187E-2,-1.6966492E-2,3.4107792E-1,-8.980539E-2,1.1043835E-1,-5.7396878E-2,4.52E1,2.8288176E-2,-1.8675838E-2,7.4713334E-2,-1.2990099E-1,2.5289614E-2],"split_indices":[293,40,0,86,7,301,174,0,0,104,261,0,0,2,0,0,0,0,0],"split_type":[0,0,0,0,0,0,0,0,0,0,0,0,0,0,0,0,0,0,0],"sum_hessian":[2.0866714E1,1.9043833E1,1.822882E0,1.5990426E1,3.0534065E0,1.332196E1,2.6684651E0,1.7180274E0,1.3353791E0,1.0750886E1,2.5710752E0,1.4559382E0,1.2125269E0,9.562531E0,1.1883546E0,1.5340579E0,1.0370175E0,8.523614E0,1.0389167E0],"tree_param":{"num_deleted":"0","num_feature":"367","num_nodes":"19","size_leaf_vector":"1"}},{"base_weights":[-5.395744E-2,-1.3115534E-1,9.329691E-2,-1.0809903E-3,-3.7819374E-1,-1.2723845E-1,1.18807785E-1,-1.3817431E-1,8.280206E-2,3.3583995E-2,-1.2865953E-1,9.182628E-2,-7.50647E-2,2.2878787E-1,-1.0191268E-1,9.094324E-2,-8.1079505E-2],"categories":[],"categories_nodes":[],"categories_segments":[],"categories_sizes":[],"default_left":[0,0,0,0,0,0,0,0,0,0,0,0,0,0,0,0,0],"id":26,"left_children":[1,3,-1,5,7,9,-1,-1,11,13,-1,-1,-1,15,-1,-1,-1],"loss_changes":[8.8208866E-1,5.96421E-1,0E0,1.0643713E0,9.802331E-1,9.9180615E-1,0E0,0E0,7.724595E-1,1.1622958E0,0E0,0E0,0E0,1.3227807E0,0E0,0E0,0E0],"parents":[2147483647,0,0,1,1,3,3,4,4,5,5,8,8,9,9,13,13],"right_children":[2,4,-1,6,8,10,-1,-1,12,14,-1,-1,-1,16,-1,-1,-1],"split_conditions":[2.9193875E-1,8.212616E-3,9.329691E-2,-2.5881963E-2,1.6331467E-1,4.6297777E-1,1.18807785E-1,-1.3817431E-1,1.3116239E-1,9.935143E-1,-1.2865953E-1,9.182628E-2,-7.50647E-2,1.671594E-1,-1.0191268E-1,9.094324E-2,-8.1079505E-2],"split_indices":[146,138,0,199,181,200,0,0,167,0,0,0,0,100,0,0,0],"split_type":[0,0,0,0,0,0,0,0,0,0,0,0,0,0,0,0,0],"sum_hessian":[1.9432243E1,1.757353E1,1.8587145E0,1.2169984E1,5.403546E0,1.0690036E1,1.4799479E0,2.9225972E0,2.4809487E0,8.862947E0,1.8270886E0,1.3608646E0,1.1200842E0,6.945537E0,1.9174099E0,5.3297925E0,1.615745E0],"tree_param":{"num_deleted":"0","num_feature":"367","num_nodes":"17","size_leaf_vector":"1"}},{"base_weights":[-3.913311E-2,1.33916E-1,-3.8478574E-1,2.4172042E-1,-7.263156E-2,-5.385139E-1,2.0567577E-2,3.621875E-1,-7.389545E-2,-1.2981789E-1,-1.0979072E-2,4.6977046E-1,-5.679297E-2,6.709046E-1,-3.552179E-2,1.576197E-1,1.4970246E-2,4.6928264E-2,-6.7372255E-2],"categories":[],"categories_nodes":[],"categories_segments":[],"categories_sizes":[],"default_left":[0,0,0,0,0,0,0,0,0,0,0,0,0,0,0,0,0,0,0],"id":27,"left_children":[1,3,5,7,-1,9,-1,11,-1,-1,-1,13,-1,15,17,-1,-1,-1,-1],"loss_changes":[1.2033082E0,8.151405E-1,5.56292E-1,9.9931026E-1,0E0,2.4463296E-1,0E0,8.5109234E-1,0E0,0E0,0E0,9.616296E-1,0E0,4.0557098E-1,3.7024444E-1,0E0,0E0,0E0,0E0],"parents":[2147483647,0,0,1,1,2,2,3,3,5,5,7,7,11,11,13,13,14,14],"right_children":[2,4,6,8,-1,10,-1,12,-1,-1,-1,14,-1,16,18,-1,-1,-1,-1],"split_conditions":[7.70184E-2,4.8010898E-1,2.6611948E-1,3.049612E-1,-7.263156E-2,2.601344E-1,2.0567577E-2,5.7580024E-1,-7.389545E-2,-1.2981789E-1,-1.0979072E-2,6.2620096E-2,-5.679297E-2,4.6297777E-1,-1.6382113E-2,1.576197E-1,1.4970246E-2,4.6928264E-2,-6.7372255E-2],"split_indices":[197,240,152,354,0,51,0,80,0,0,0,19,0,200,310,0,0,0,0],"split_type":[0,0,0,0,0,0,0,0,0,0,0,0,0,0,0,0,0,0,0],"sum_hessian":[1.825573E1,1.2573463E1,5.6822658E0,1.0754714E1,1.8187488E0,4.2409124E0,1.4413532E0,9.3243065E0,1.4304075E0,3.1732273E0,1.0676851E0,8.22743E0,1.0968765E0,5.6504745E0,2.5769556E0,4.4527884E0,1.1976861E0,1.475473E0,1.1014826E0],"tree_param":{"num_deleted":"0","num_feature":"367","num_nodes":"19","size_leaf_vector":"1"}},{"base_weights":[-1.999204E-2,1.02607235E-1,-4.328469E-1,2.6849508E-1,-2.6939288E-1,-1.3473402E-1,1.6605467E-2,3.9403132E-1,-7.622763E-2,-1.0844628E-1,4.0730145E-2,5.133477E-1,-7.021921E-2,6.567079E-1,1.6096557E-3,1.5194462E-1,2.6242143E-2],"categories":[],"categories_nodes":[],"categories_segments":[],"categories_sizes":[],"default_left":[0,0,0,0,0,0,0,0,0,0,0,0,0,0,0,0,0],"id":28,"left_children":[1,3,5,7,9,-1,-1,11,-1,-1,-1,13,-1,15,-1,-1,-1],"loss_changes":[1.055464E0,1.0726463E0,6.4793223E-1,1.1052815E0,8.200722E-1,0E0,0E0,1.0965453E0,0E0,0E0,0E0,6.6768837E-1,0E0,2.9140782E-1,0E0,0E0,0E0],"parents":[2147483647,0,0,1,1,2,2,3,3,4,4,7,7,11,11,13,13],"right_children":[2,4,6,8,10,-1,-1,12,-1,-1,-1,14,-1,16,-1,-1,-1],"split_conditions":[9.9380493E-1,2.5719994E-1,-2.5881963E-2,3.9712712E-1,9.397907E-2,-1.3473402E-1,1.6605467E-2,2.8388566E-1,-7.622763E-2,-1.0844628E-1,4.0730145E-2,4.36E1,-7.021921E-2,3.2806322E-2,1.6096557E-3,1.5194462E-1,2.6242143E-2],"split_indices":[0,276,199,297,164,0,0,189,0,0,0,2,0,333,0,0,0],"split_type":[0,0,0,0,0,0,0,0,0,0,0,0,0,0,0,0,0],"sum_hessian":[1.8975042E1,1.5209867E1,3.7651753E0,1.0711482E1,4.4983845E0,2.3583548E0,1.4068205E0,9.306528E0,1.404954E0,2.7601469E0,1.7382374E0,8.290104E0,1.0164237E0,6.224491E0,2.065613E0,4.83161E0,1.392881E0],"tree_param":{"num_deleted":"0","num_feature":"367","num_nodes":"17","size_leaf_vector":"1"}},{"base_weights":[-1.23406254E-1,-1.9613539E-1,9.837847E-2,-2.554737E-1,7.429758E-2,-3.2646763E-1,5.1875886E-2,-1.340146E-1,-5.997623E-1,-2.842688E-1,9.337249E-2,-7.057994E-1,-1.2808642E-2,-7.826605E-2,2.8728057E-2,-1.6002582E-1,-3.7062682E-2],"categories":[],"categories_nodes":[],"categories_segments":[],"categories_sizes":[],"default_left":[0,0,0,0,0,0,0,0,0,0,0,0,0,0,0,0,0],"id":29,"left_children":[1,3,-1,5,-1,7,-1,9,11,13,-1,15,-1,-1,-1,-1,-1],"loss_changes":[9.054347E-1,6.634967E-1,0E0,6.6497207E-1,0E0,6.7674387E-1,0E0,1.011586E0,2.7634478E-1,4.414385E-1,0E0,7.881808E-2,0E0,0E0,0E0,0E0,0E0],"parents":[2147483647,0,0,1,1,3,3,5,5,7,7,8,8,9,9,11,11],"right_children":[2,4,-1,6,-1,8,-1,10,12,14,-1,16,-1,-1,-1,-1,-1],"split_conditions":[3.3889303E-1,4.7344235E-1,9.837847E-2,4.2519727E-1,7.429758E-2,-1.1979019E-2,5.1875886E-2,7.916964E-2,3.1549564E-1,4.52E1,9.337249E-2,1.8772155E-1,-1.2808642E-2,-7.826605E-2,2.8728057E-2,-1.6002582E-1,-3.7062682E-2],"split_indices":[235,52,0,183,0,167,0,253,178,2,0,192,0,0,0,0,0],"split_type":[0,0,0,0,0,0,0,0,0,0,0,0,0,0,0,0,0],"sum_hessian":[1.7077206E1,1.5881256E1,1.1959505E0,1.4876062E1,1.0051934E0,1.33949175E1,1.4811453E0,8.73449E0,4.6604266E0,7.408776E0,1.3257146E0,3.625363E0,1.0350636E0,5.9944634E0,1.4143125E0,2.6142921E0,1.0110711E0],"tree_param":{"num_deleted":"0","num_feature":"367","num_nodes":"17","size_leaf_vector":"1"}},{"base_weights":[-1.1523988E-1,-1.9147791E-1,8.96235E-2,-3.298857E-1,2.9510438E-1,-4.171737E-1,2.9511733E-2,1.3622062E-1,-3.3420138E-2,-5.1603067E-1,2.6328385E-2,-6.1382276E-1,3.16369E-2,-1.4002055E-1,-1.9491216E-2],"categories":[],"categories_nodes":[],"categories_segments":[],"categories_sizes":[],"default_left":[0,0,0,0,0,0,0,0,0,0,0,0,0,0,0],"id":30,"left_children":[1,3,-1,5,7,9,-1,-1,-1,11,-1,13,-1,-1,-1],"loss_changes":[8.602393E-1,1.2141438E0,0E0,6.192777E-1,8.6316705E-1,6.959441E-1,0E0,0E0,0E0,7.5720596E-1,0E0,3.304453E-1,0E0,0E0,0E0],"parents":[2147483647,0,0,1,1,3,3,4,4,5,5,9,9,11,11],"right_children":[2,4,-1,6,8,10,-1,-1,-1,12,-1,14,-1,-1,-1],"split_conditions":[3.37968E-1,1.2398362E-1,8.96235E-2,2.1559803E-1,6.1866753E-2,3.8363314E-1,2.9511733E-2,1.3622062E-1,-3.3420138E-2,4.2519727E-1,2.6328385E-2,4.777992E-1,3.16369E-2,-1.4002055E-1,-1.9491216E-2],"split_indices":[198,307,0,20,98,129,0,0,0,183,0,117,0,0,0],"split_type":[0,0,0,0,0,0,0,0,0,0,0,0,0,0,0],"sum_hessian":[1.703139E1,1.5582723E1,1.448666E0,1.2382555E1,3.2001686E0,1.0575366E1,1.8071883E0,1.4857706E0,1.7143979E0,9.011824E0,1.5635428E0,7.948501E0,1.0633223E0,6.505645E0,1.4428564E0],"tree_param":{"num_deleted":"0","num_feature":"367","num_nodes":"15","size_leaf_vector":"1"}},{"base_weights":[5.571634E-2,1.707955E-1,-3.1974253E-1,2.4460581E-1,-8.190485E-2,3.7236672E-2,-1.1937256E-1,3.2709736E-1,-6.1055448E-2,4.8092687E-1,-6.8160454E-3,6.3246167E-1,-6.445094E-2,-3.0887416E-1,9.823538E-2,1.4362124E-1,1.6935393E-2,-8.561896E-2,6.583676E-4],"categories":[],"categories_nodes":[],"categories_segments":[],"categories_sizes":[],"default_left":[0,0,0,0,0,0,0,0,0,0,0,0,0,0,0,0,0,0,0],"id":31,"left_children":[1,3,5,7,-1,-1,-1,9,-1,11,13,15,-1,17,-1,-1,-1,-1,-1],"loss_changes":[8.460301E-1,7.286041E-1,7.623998E-1,7.1866816E-1,0E0,0E0,0E0,6.373998E-1,0E0,1.2341657E0,8.857139E-1,2.8915286E-1,0E0,1.3729608E-1,0E0,0E0,0E0,0E0,0E0],"parents":[2147483647,0,0,1,1,2,2,3,3,7,7,9,9,10,10,11,11,13,13],"right_children":[2,4,6,8,-1,-1,-1,10,-1,12,14,16,-1,18,-1,-1,-1,-1,-1],"split_conditions":[2.5875783E-1,4.963515E-1,-8.980539E-2,4.161838E-1,-8.190485E-2,3.7236672E-2,-1.1937256E-1,1.5720715E-1,-6.1055448E-2,3.770638E-1,3.8342614E-2,3.848517E-1,-6.445094E-2,1.8772155E-1,9.823538E-2,1.4362124E-1,1.6935393E-2,-8.561896E-2,6.583676E-4],"split_indices":[127,49,261,191,0,0,0,21,0,108,249,170,0,192,0,0,0,0,0],"split_type":[0,0,0,0,0,0,0,0,0,0,0,0,0,0,0,0,0,0,0],"sum_hessian":[1.7316721E1,1.3671477E1,3.645243E0,1.2642046E1,1.0294316E0,1.4061848E0,2.239058E0,1.1345225E1,1.2968204E0,7.465633E0,3.8795927E0,6.4594874E0,1.0061454E0,2.6512415E0,1.2283511E0,5.317228E0,1.1422597E0,1.6497931E0,1.0014485E0],"tree_param":{"num_deleted":"0","num_feature":"367","num_nodes":"19","size_leaf_vector":"1"}},{"base_weights":[-1.5356495E-2,-1.4119747E-1,2.3773773E-1,5.5350207E-2,-5.104632E-1,4.0132973E-1,-3.8973477E-2,2.2217828E-1,-8.2635626E-2,-1.4467937E-1,-2.0864526E-2,5.377136E-1,1.2781284E-2,3.661088E-1,-4.5633998E-2,1.2627135E-1,3.2566827E-2,5.4046005E-1,-1.5516988E-2,1.415039E-1,3.9240425E-3],"categories":[],"categories_nodes":[],"categories_segments":[],"categories_sizes":[],"default_left":[0,0,0,0,0,0,0,0,0,0,0,0,0,0,0,0,0,0,0,0,0],"id":32,"left_children":[1,3,5,7,9,11,-1,13,-1,-1,-1,15,-1,17,-1,-1,-1,19,-1,-1,-1],"loss_changes":[5.903575E-1,9.212325E-1,5.1543987E-1,7.899481E-1,3.026079E-1,1.8697834E-1,0E0,5.526235E-1,0E0,0E0,0E0,1.2703538E-2,0E0,4.958809E-1,0E0,0E0,0E0,3.6359465E-1,0E0,0E0,0E0],"parents":[2147483647,0,0,1,1,2,2,3,3,4,4,5,5,7,7,11,11,13,13,17,17],"right_children":[2,4,6,8,10,12,-1,14,-1,-1,-1,16,-1,18,-1,-1,-1,20,-1,-1,-1],"split_conditions":[4.7221478E-2,-1.1979019E-2,3.4383768E-1,3.6145574E-1,9.360245E-3,2.5719994E-1,-3.8973477E-2,3.413965E-1,-8.2635626E-2,-1.4467937E-1,-2.0864526E-2,3.86E1,1.2781284E-2,2.4631712E-1,-4.5633998E-2,1.2627135E-1,3.2566827E-2,2.5875783E-1,-1.5516988E-2,1.415039E-1,3.9240425E-3],"split_indices":[83,167,255,18,264,276,0,241,0,0,0,2,0,41,0,0,0,127,0,0,0],"split_type":[0,0,0,0,0,0,0,0,0,0,0,0,0,0,0,0,0,0,0,0,0],"sum_hessian":[1.6481823E1,1.130365E1,5.178173E0,7.931884E0,3.3717666E0,3.8097794E0,1.3683934E0,6.2369123E0,1.6949712E0,1.699562E0,1.6722045E0,2.2904215E0,1.5193579E0,4.8681226E0,1.3687897E0,1.2852199E0,1.0052016E0,3.338251E0,1.5298716E0,2.2561655E0,1.0820856E0],"tree_param":{"num_deleted":"0","num_feature":"367","num_nodes":"21","size_leaf_vector":"1"}},{"base_weights":[2.9905554E-2,1.4651276E-1,-3.357089E-1,3.1769642E-1,-2.3279268E-1,1.1672139E-2,-4.9272513E-1,1.02655254E-1,1.4455931E-1,2.7793309E-2,-9.977444E-2,-1.2761132E-1,-1.653087E-2,2.673804E-1,-7.490023E-2,4.4925064E-1,-2.3176093E-2,1.2509993E-1,-9.078334E-3],"categories":[],"categories_nodes":[],"categories_segments":[],"categories_sizes":[],"default_left":[0,0,0,0,0,0,0,0,0,0,0,0,0,0,0,0,0,0,0],"id":33,"left_children":[1,3,5,7,9,-1,11,13,-1,-1,-1,-1,-1,15,-1,17,-1,-1,-1],"loss_changes":[8.1873095E-1,1.0077751E0,3.1762862E-1,8.2588685E-1,5.6879556E-1,0E0,1.525312E-1,7.222533E-1,0E0,0E0,0E0,0E0,0E0,5.028512E-1,0E0,4.286381E-1,0E0,0E0,0E0],"parents":[2147483647,0,0,1,1,2,2,3,3,4,4,6,6,7,7,13,13,15,15],"right_children":[2,4,6,8,10,-1,12,14,-1,-1,-1,-1,-1,16,-1,18,-1,-1,-1],"split_conditions":[1.7741059E-1,2.3735994E-1,1.3594216E-3,-3.9401483E-2,-2.905002E-2,1.1672139E-2,6.234916E-2,-5.028886E-2,1.4455931E-1,2.7793309E-2,-9.977444E-2,-1.2761132E-1,-1.653087E-2,1.3849129E-1,-7.490023E-2,5.299835E-1,-2.3176093E-2,1.2509993E-1,-9.078334E-3],"split_indices":[137,27,176,76,73,0,261,74,0,0,0,0,0,189,0,339,0,0,0],"split_type":[0,0,0,0,0,0,0,0,0,0,0,0,0,0,0,0,0,0,0],"sum_hessian":[1.7050343E1,1.3381716E1,3.6686268E0,9.332368E0,4.0493484E0,1.2242912E0,2.4443355E0,6.915035E0,2.417333E0,1.8885049E0,2.1608434E0,1.3942412E0,1.0500944E0,5.4672537E0,1.4477811E0,3.5910156E0,1.8762383E0,2.4525747E0,1.1384408E0],"tree_param":{"num_deleted":"0","num_feature":"367","num_nodes":"19","size_leaf_vector":"1"}},{"base_weights":[3.3325836E-2,-7.503398E-2,3.2194534E-1,1.1226354E-1,-3.5256895E-1,5.2501786E-1,-3.3034105E-2,2.5274315E-1,-8.879978E-2,-6.1317515E-1,5.855928E-2,3.6835406E-2,1.2593918E-1,4.1233808E-1,-6.257109E-2,-1.4248866E-1,-3.0407304E-2,5.420818E-1,-1.9897213E-2,1.2718713E-1,1.8879123E-2],"categories":[],"categories_nodes":[],"categories_segments":[],"categories_sizes":[],"default_left":[0,0,0,0,0,0,0,0,0,0,0,0,0,0,0,0,0,0,0,0,0],"id":34,"left_children":[1,3,5,7,9,11,-1,13,-1,15,-1,-1,-1,17,-1,-1,-1,19,-1,-1,-1],"loss_changes":[5.346652E-1,6.986396E-1,5.461649E-1,7.6303476E-1,1.0793669E0,9.519219E-3,0E0,7.867316E-1,0E0,8.093977E-2,0E0,0E0,0E0,4.5995975E-1,0E0,0E0,0E0,1.5143955E-1,0E0,0E0,0E0],"parents":[2147483647,0,0,1,1,2,2,3,3,4,4,5,5,7,7,9,9,13,13,17,17],"right_children":[2,4,6,8,10,12,-1,14,-1,16,-1,-1,-1,18,-1,-1,-1,20,-1,-1,-1],"split_conditions":[3.732689E-2,-5.028886E-2,3.3855125E-1,4.300853E-1,1.325335E-1,4.7221478E-2,-3.3034105E-2,3.885587E-1,-8.879978E-2,4.5002095E-2,5.855928E-2,3.6835406E-2,1.2593918E-1,4.7267264E-1,-6.257109E-2,-1.4248866E-1,-3.0407304E-2,2.5875783E-1,-1.9897213E-2,1.2718713E-1,1.8879123E-2],"split_indices":[174,74,303,33,178,83,0,299,0,199,0,0,0,161,0,0,0,127,0,0,0],"split_type":[0,0,0,0,0,0,0,0,0,0,0,0,0,0,0,0,0,0,0,0,0],"sum_hessian":[1.5323337E1,1.1678693E1,3.6446443E0,7.328483E0,4.350209E0,2.5173736E0,1.1272706E0,6.2865148E0,1.0419683E0,3.134386E0,1.2158233E0,1.2398323E0,1.2775414E0,5.114365E0,1.1721498E0,2.1307414E0,1.0036448E0,4.03293E0,1.0814353E0,2.9863667E0,1.0465629E0],"tree_param":{"num_deleted":"0","num_feature":"367","num_nodes":"21","size_leaf_vector":"1"}},{"base_weights":[-3.0881988E-2,7.40985E-2,-3.2498917E-1,-4.6170954E-2,1.0647662E-1,-9.18387E-2,1.2999125E-2,-1.6677001E-1,8.587491E-2,-3.2597277E-1,2.7233785E-1,-4.5337698E-1,1.9431397E-2,1.2392092E-2,6.911996E-2,-1.0732672E-1,-8.858984E-3],"categories":[],"categories_nodes":[],"categories_segments":[],"categories_sizes":[],"default_left":[0,0,0,0,0,0,0,0,0,0,0,0,0,0,0,0,0],"id":35,"left_children":[1,3,5,7,-1,-1,-1,9,-1,11,13,15,-1,-1,-1,-1,-1],"loss_changes":[5.1957387E-1,7.2131944E-1,2.6050472E-1,6.9863784E-1,0E0,0E0,0E0,7.4882436E-1,0E0,4.4214344E-1,2.5705531E-2,1.7554772E-1,0E0,0E0,0E0,0E0,0E0],"parents":[2147483647,0,0,1,1,2,2,3,3,7,7,9,9,10,10,11,11],"right_children":[2,4,6,8,-1,-1,-1,10,-1,12,14,16,-1,-1,-1,-1,-1],"split_conditions":[1.7741059E-1,1.1217262E-1,1.325335E-1,3.3961967E-1,1.0647662E-1,-9.18387E-2,1.2999125E-2,1.6781344E-1,8.587491E-2,6.2620096E-2,9.682908E-1,9.725216E-2,1.9431397E-2,1.2392092E-2,6.911996E-2,-1.0732672E-1,-8.858984E-3],"split_indices":[137,85,178,365,0,0,0,29,0,19,0,284,0,0,0,0,0],"split_type":[0,0,0,0,0,0,0,0,0,0,0,0,0,0,0,0,0],"sum_hessian":[1.5048077E1,1.1640941E1,3.4071355E0,9.933346E0,1.7075951E0,2.4028013E0,1.0043341E0,8.4418E0,1.4915453E0,6.384637E0,2.0571637E0,4.852167E0,1.53247E0,1.0080911E0,1.0490727E0,3.772571E0,1.0795958E0],"tree_param":{"num_deleted":"0","num_feature":"367","num_nodes":"17","size_leaf_vector":"1"}},{"base_weights":[9.0636685E-2,1.8763459E-1,-2.8424495E-1,2.5764623E-1,-5.4050084E-2,1.546698E-2,-1.0339501E-1,3.318799E-1,-4.113972E-2,4.8931664E-1,3.24121E-2,6.268021E-1,-5.2997E-3,3.1307444E-1,-6.99E-2,1.4793618E-1,2.8012374E-2,5.726879E-3,8.8766195E-2],"categories":[],"categories_nodes":[],"categories_segments":[],"categories_sizes":[],"default_left":[0,0,0,0,0,0,0,0,0,0,0,0,0,0,0,0,0,0,0],"id":36,"left_children":[1,3,5,7,-1,-1,-1,9,-1,11,13,15,-1,17,-1,-1,-1,-1,-1],"loss_changes":[6.053163E-1,4.7553602E-1,3.3601806E-1,4.63633E-1,0E0,0E0,0E0,4.6928298E-1,0E0,4.8986578E-1,6.042625E-1,1.8811965E-1,0E0,1.05879545E-1,0E0,0E0,0E0,0E0,0E0],"parents":[2147483647,0,0,1,1,2,2,3,3,7,7,9,9,10,10,11,11,13,13],"right_children":[2,4,6,8,-1,-1,-1,10,-1,12,14,16,-1,18,-1,-1,-1,-1,-1],"split_conditions":[3.445715E-1,3.9712712E-1,1.3594216E-3,4.300853E-1,-5.4050084E-2,1.546698E-2,-1.0339501E-1,3.291724E-2,-4.113972E-2,2.186335E-1,1.6845363E-1,1.5720715E-1,-5.2997E-3,1.1065804E-1,-6.99E-2,1.4793618E-1,2.8012374E-2,5.726879E-3,8.8766195E-2],"split_indices":[6,297,176,33,0,0,0,3,0,214,228,21,0,90,0,0,0,0,0],"split_type":[0,0,0,0,0,0,0,0,0,0,0,0,0,0,0,0,0,0,0],"sum_hessian":[1.4179886E1,1.1661929E1,2.5179563E0,1.0494595E1,1.1673346E0,1.2474964E0,1.27046E0,9.289956E0,1.2046382E0,5.6733823E0,3.6165743E0,4.309547E0,1.363835E0,2.1885107E0,1.4280636E0,3.0764353E0,1.2331117E0,1.0731134E0,1.1153972E0],"tree_param":{"num_deleted":"0","num_feature":"367","num_nodes":"19","size_leaf_vector":"1"}},{"base_weights":[-5.5250516E-3,7.4591E-2,-7.940676E-2,1.6375661E-1,-7.877298E-2,2.8668964E-1,-1.9110887E-1,3.9191133E-1,-3.6622234E-2,1.5410888E-2,-8.6757794E-2,5.5371845E-1,-3.5364166E-2,1.28327E-1,3.0207638E-2,5.2070815E-2,-6.094357E-2],"categories":[],"categories_nodes":[],"categories_segments":[],"categories_sizes":[],"default_left":[0,0,0,0,0,0,0,0,0,0,0,0,0,0,0,0,0],"id":37,"left_children":[1,3,-1,5,-1,7,9,11,-1,-1,-1,13,15,-1,-1,-1,-1],"loss_changes":[4.9439543E-1,6.134659E-1,0E0,5.6726456E-1,0E0,5.228351E-1,2.691707E-1,5.570172E-1,0E0,0E0,0E0,1.04824305E-1,3.242816E-1,0E0,0E0,0E0,0E0],"parents":[2147483647,0,0,1,1,3,3,5,5,6,6,7,7,11,11,12,12],"right_children":[2,4,-1,6,-1,8,10,12,-1,-1,-1,14,16,-1,-1,-1,-1],"split_conditions":[3.8131264E-1,2.6244012E-1,-7.940676E-2,2.7640745E-1,-7.877298E-2,3.0718458E-1,2.6854858E-1,3.3156937E-1,-3.6622234E-2,1.5410888E-2,-8.6757794E-2,1.2665097E-1,8.7243244E-2,1.28327E-1,3.0207638E-2,5.2070815E-2,-6.094357E-2],"split_indices":[23,285,0,151,0,251,169,145,0,0,0,217,319,0,0,0,0],"split_type":[0,0,0,0,0,0,0,0,0,0,0,0,0,0,0,0,0],"sum_hessian":[1.3817899E1,1.2142589E1,1.6753101E0,1.0747374E1,1.3952152E0,8.124864E0,2.62251E0,6.773573E0,1.3512906E0,1.5700636E0,1.0524465E0,4.698388E0,2.075185E0,3.3693528E0,1.3290353E0,1.005108E0,1.070077E0],"tree_param":{"num_deleted":"0","num_feature":"367","num_nodes":"17","size_leaf_vector":"1"}},{"base_weights":[5.4496992E-2,-1.0455472E-1,2.5672755E-1,-2.3063585E-1,5.8373403E-2,4.320936E-1,-5.5414326E-2,-4.3362096E-1,5.836466E-2,1.34132225E-2,1.1357247E-1,-1.0355689E-1,-9.9308295E-3],"categories":[],"categories_nodes":[],"categories_segments":[],"categories_sizes":[],"default_left":[0,0,0,0,0,0,0,0,0,0,0,0,0],"id":38,"left_children":[1,3,5,7,-1,9,-1,11,-1,-1,-1,-1,-1],"loss_changes":[5.117303E-1,5.245906E-1,7.6806927E-1,9.219125E-1,0E0,2.3964775E-1,0E0,1.6183925E-1,0E0,0E0,0E0,0E0,0E0],"parents":[2147483647,0,0,1,1,2,2,3,3,5,5,7,7],"right_children":[2,4,6,8,-1,10,-1,12,-1,-1,-1,-1,-1],"split_conditions":[-4.053438E-2,2.2520395E-1,1.3116239E-1,8.8986345E-2,5.8373403E-2,-2.2124846E-2,-5.5414326E-2,4.2811084E-1,5.836466E-2,1.34132225E-2,1.1357247E-1,-1.0355689E-1,-9.9308295E-3],"split_indices":[348,106,167,101,0,174,0,227,0,0,0,0,0],"split_type":[0,0,0,0,0,0,0,0,0,0,0,0,0],"sum_hessian":[1.4074972E1,8.148933E0,5.9260383E0,6.4998693E0,1.6490645E0,4.6040325E0,1.3220055E0,4.803614E0,1.6962551E0,1.6532046E0,2.9508283E0,3.6541343E0,1.14948E0],"tree_param":{"num_deleted":"0","num_feature":"367","num_nodes":"13","size_leaf_vector":"1"}},{"base_weights":[-1.8996172E-2,1.2710176E-1,-3.1869578E-1,2.523082E-1,-5.0321378E-2,-8.646592E-2,-1.8999063E-3,3.657194E-1,-3.8281642E-2,4.9303427E-1,-2.7165016E-2,6.3794184E-1,-1.1874742E-2,1.5470247E-1,2.7782267E-2],"categories":[],"categories_nodes":[],"categories_segments":[],"categories_sizes":[],"default_left":[0,0,0,0,0,0,0,0,0,0,0,0,0,0,0],"id":39,"left_children":[1,3,5,7,-1,-1,-1,9,-1,11,-1,13,-1,-1,-1],"loss_changes":[6.4354944E-1,5.364142E-1,1.6449699E-1,4.7233164E-1,0E0,0E0,0E0,4.9549764E-1,0E0,4.8361683E-1,0E0,1.9674838E-1,0E0,0E0,0E0],"parents":[2147483647,0,0,1,1,2,2,3,3,7,7,9,9,11,11],"right_children":[2,4,6,8,-1,-1,-1,10,-1,12,-1,14,-1,-1,-1],"split_conditions":[7.70184E-2,2.5875783E-1,1.5254553E-1,3.0718458E-1,-5.0321378E-2,-8.646592E-2,-1.8999063E-3,4.921598E-1,-3.8281642E-2,4.6297777E-1,-2.7165016E-2,3.2297887E-2,-1.1874742E-2,1.5470247E-1,2.7782267E-2],"split_indices":[197,127,342,251,0,0,0,141,0,200,0,334,0,0,0],"split_type":[0,0,0,0,0,0,0,0,0,0,0,0,0,0,0],"sum_hessian":[1.2772659E1,8.973936E0,3.7987227E0,6.9950433E0,1.978893E0,2.4866197E0,1.312103E0,5.7111015E0,1.2839416E0,4.568401E0,1.1427006E0,3.4963903E0,1.0720105E0,2.3169262E0,1.1794642E0],"tree_param":{"num_deleted":"0","num_feature":"367","num_nodes":"15","size_leaf_vector":"1"}},{"base_weights":[-1.8451964E-3,-7.387146E-2,8.964002E-2,-1.8942223E-1,1.9550553E-1,-2.9018533E-1,3.240643E-2,1.07084684E-1,-4.0772002E-2,-3.9090112E-1,2.2271467E-2,-4.9227506E-1,6.2845647E-3,-1.11255944E-1,-2.2104006E-2],"categories":[],"categories_nodes":[],"categories_segments":[],"categories_sizes":[],"default_left":[0,0,0,0,0,0,0,0,0,0,0,0,0,0,0],"id":40,"left_children":[1,3,-1,5,7,9,-1,-1,-1,11,-1,13,-1,-1,-1],"loss_changes":[5.234806E-1,4.6967274E-1,0E0,4.094707E-1,7.4236476E-1,3.797047E-1,0E0,0E0,0E0,3.0948067E-1,0E0,7.5303674E-2,0E0,0E0,0E0],"parents":[2147483647,0,0,1,1,3,3,4,4,5,5,9,9,11,11],"right_children":[2,4,-1,6,8,10,-1,-1,-1,12,-1,14,-1,-1,-1],"split_conditions":[3.3889303E-1,5.0609827E-4,8.964002E-2,2.1559803E-1,9.2937425E-2,3.074341E-1,3.240643E-2,1.07084684E-1,-4.0772002E-2,1.1065804E-1,2.2271467E-2,4.32E1,6.2845647E-3,-1.11255944E-1,-2.2104006E-2],"split_indices":[235,259,0,20,70,182,0,0,0,90,0,2,0,0,0],"split_type":[0,0,0,0,0,0,0,0,0,0,0,0,0,0,0],"sum_hessian":[1.4127877E1,1.2899302E1,1.2285756E0,9.2347975E0,3.6645043E0,7.3125854E0,1.9222118E0,1.7955481E0,1.8689562E0,5.8674107E0,1.4451746E0,4.5980654E0,1.2693456E0,3.5463274E0,1.0517378E0],"tree_param":{"num_deleted":"0","num_feature":"367","num_nodes":"15","size_leaf_vector":"1"}},{"base_weights":[-5.548533E-2,-1.273347E-1,5.1999222E-2,-2.060796E-1,4.8384126E-2,-3.1215042E-1,4.0614236E-2,-4.3975914E-1,6.6029854E-2,-2.2563653E-1,-1.4291598E-1,4.7582872E-2,-2.6592681E-2,-1.3557472E-3,-1.04188815E-1],"categories":[],"categories_nodes":[],"categories_segments":[],"categories_sizes":[],"default_left":[0,0,0,0,0,0,0,0,0,0,0,0,0,0,0],"id":41,"left_children":[1,3,-1,5,-1,7,-1,9,11,13,-1,-1,-1,-1,-1],"loss_changes":[3.633683E-1,4.1443908E-1,0E0,5.353387E-1,0E0,4.6481752E-1,0E0,2.4375713E-1,1.3929708E-1,3.4093732E-1,0E0,0E0,0E0,0E0,0E0],"parents":[2147483647,0,0,1,1,3,3,5,5,7,7,8,8,9,9],"right_children":[2,4,-1,6,-1,8,-1,10,12,14,-1,-1,-1,-1,-1],"split_conditions":[3.5677403E-1,3.0467713E-1,5.1999222E-2,4.3039542E-1,4.8384126E-2,-2.5881963E-2,4.0614236E-2,-1.1979019E-2,9.53671E-1,2.3735994E-1,-1.4291598E-1,4.7582872E-2,-2.6592681E-2,-1.3557472E-3,-1.04188815E-1],"split_indices":[269,233,0,120,0,199,0,167,0,27,0,0,0,0,0],"split_type":[0,0,0,0,0,0,0,0,0,0,0,0,0,0,0],"sum_hessian":[1.3570066E1,1.15385895E1,2.0314777E0,9.874685E0,1.663904E0,8.030012E0,1.8446733E0,5.882321E0,2.147691E0,4.3298287E0,1.552492E0,1.0473934E0,1.1002976E0,3.0743365E0,1.2554921E0],"tree_param":{"num_deleted":"0","num_feature":"367","num_nodes":"15","size_leaf_vector":"1"}},{"base_weights":[-4.9180157E-2,-1.4962427E-1,3.4710297E-1,-2.7890489E-1,2.0465726E-1,8.326434E-2,2.0939317E-2,-3.7404212E-1,2.408666E-2,8.2149535E-2,-3.0461047E-2,-4.6800792E-1,1.8902976E-2,-1.0953148E-1,-1.6808676E-2],"categories":[],"categories_nodes":[],"categories_segments":[],"categories_sizes":[],"default_left":[0,0,0,0,0,0,0,0,0,0,0,0,0,0,0],"id":42,"left_children":[1,3,5,7,9,-1,-1,11,-1,-1,-1,13,-1,-1,-1],"loss_changes":[6.2116665E-1,6.116359E-1,9.988129E-3,3.9814293E-1,3.4312606E-1,0E0,0E0,3.854252E-1,0E0,0E0,0E0,1.5651822E-1,0E0,0E0,0E0],"parents":[2147483647,0,0,1,1,2,2,3,3,4,4,7,7,11,11],"right_children":[2,4,6,8,10,-1,-1,12,-1,-1,-1,14,-1,-1,-1],"split_conditions":[3.3961967E-1,1.6781344E-1,-3.5562902E-3,1.519486E-1,9.3829736E-2,8.326434E-2,2.0939317E-2,4.5416757E-1,2.408666E-2,8.2149535E-2,-3.0461047E-2,9.8072517E-1,1.8902976E-2,-1.0953148E-1,-1.6808676E-2],"split_indices":[365,29,364,172,243,0,0,355,0,0,0,0,0,0,0],"split_type":[0,0,0,0,0,0,0,0,0,0,0,0,0,0,0],"sum_hessian":[1.3300755E1,1.1107753E1,2.1930017E0,8.293967E0,2.813786E0,1.1477965E0,1.0452051E0,6.749362E0,1.5446049E0,1.6883508E0,1.1254351E0,5.622901E0,1.1264614E0,4.3037996E0,1.3191011E0],"tree_param":{"num_deleted":"0","num_feature":"367","num_nodes":"15","size_leaf_vector":"1"}},{"base_weights":[-5.0896816E-3,-1.15474716E-1,3.0514017E-1,7.090596E-2,-3.6487767E-1,9.670373E-2,-1.2106385E-2,2.0439123E-1,-5.9930842E-2,-1.3081776E-1,2.0419523E-2,3.8329425E-1,-4.6294123E-2,1.0210442E-1,2.9131516E-3],"categories":[],"categories_nodes":[],"categories_segments":[],"categories_sizes":[],"default_left":[0,0,0,0,0,0,0,0,0,0,0,0,0,0,0],"id":43,"left_children":[1,3,5,7,9,-1,-1,11,-1,-1,-1,13,-1,-1,-1],"loss_changes":[4.894989E-1,5.1438856E-1,2.7425286E-1,4.0017137E-1,6.9579303E-1,0E0,0E0,5.2787423E-1,0E0,0E0,0E0,1.9754452E-1,0E0,0E0,0E0],"parents":[2147483647,0,0,1,1,2,2,3,3,4,4,7,7,11,11],"right_children":[2,4,6,8,10,-1,-1,12,-1,-1,-1,14,-1,-1,-1],"split_conditions":[1.1420392E-1,-2.1901583E-2,9.2937425E-2,4.6297777E-1,3.732689E-2,9.670373E-2,-1.2106385E-2,3.648461E-1,-5.9930842E-2,-1.3081776E-1,2.0419523E-2,9.935143E-1,-4.6294123E-2,1.0210442E-1,2.9131516E-3],"split_indices":[313,223,70,200,174,0,0,210,0,0,0,0,0,0,0],"split_type":[0,0,0,0,0,0,0,0,0,0,0,0,0,0,0],"sum_hessian":[1.2265191E1,9.509373E0,2.7558186E0,5.851901E0,3.6574714E0,1.6356558E0,1.1201627E0,4.6318254E0,1.2200757E0,2.0111911E0,1.6462802E0,3.3694239E0,1.2624012E0,2.2191653E0,1.1502585E0],"tree_param":{"num_deleted":"0","num_feature":"367","num_nodes":"15","size_leaf_vector":"1"}},{"base_weights":[-2.1914037E-2,6.2008444E-2,-7.598891E-2,1.3847908E-1,-6.610983E-2,2.2702792E-1,-5.531913E-2,3.2040727E-1,-4.3864753E-2,4.454816E-1,-3.6745783E-2,1.1360313E-1,-1.028799E-2],"categories":[],"categories_nodes":[],"categories_segments":[],"categories_sizes":[],"default_left":[0,0,0,0,0,0,0,0,0,0,0,0,0],"id":44,"left_children":[1,3,-1,5,-1,7,-1,9,-1,11,-1,-1,-1],"loss_changes":[4.5307642E-1,4.1921657E-1,0E0,4.7138068E-1,0E0,4.7504008E-1,0E0,6.1386967E-1,0E0,4.5863128E-1,0E0,0E0,0E0],"parents":[2147483647,0,0,1,1,3,3,5,5,7,7,9,9],"right_children":[2,4,-1,6,-1,8,-1,10,-1,12,-1,-1,-1],"split_conditions":[4.0476128E-1,3.7381098E-1,-7.598891E-2,4.921598E-1,-6.610983E-2,2.9880247E-1,-5.531913E-2,3.9129776E-1,-4.3864753E-2,2.646093E-1,-3.6745783E-2,1.1360313E-1,-1.028799E-2],"split_indices":[160,202,0,141,0,105,0,38,0,215,0,0,0],"split_type":[0,0,0,0,0,0,0,0,0,0,0,0,0],"sum_hessian":[1.3294916E1,1.1440148E1,1.8547679E0,1.01166525E1,1.3234962E0,8.711295E0,1.4053572E0,7.437493E0,1.2738024E0,6.052289E0,1.3852037E0,4.7403216E0,1.3119674E0],"tree_param":{"num_deleted":"0","num_feature":"367","num_nodes":"13","size_leaf_vector":"1"}},{"base_weights":[3.502925E-3,7.362648E-2,-7.130354E-2,2.2179168E-1,-1.5465166E-1,3.689355E-1,-2.7247792E-2,-3.8240856E-1,6.879445E-2,9.7937874E-2,-1.640034E-2,-2.3297809E-2,-1.0306118E-1],"categories":[],"categories_nodes":[],"categories_segments":[],"categories_sizes":[],"default_left":[0,0,0,0,0,0,0,0,0,0,0,0,0],"id":45,"left_children":[1,3,-1,5,7,9,-1,11,-1,-1,-1,-1,-1],"loss_changes":[3.593895E-1,4.358935E-1,0E0,4.512236E-1,7.2916955E-1,3.4856135E-1,0E0,8.4370255E-2,0E0,0E0,0E0,0E0,0E0],"parents":[2147483647,0,0,1,1,3,3,4,4,5,5,7,7],"right_children":[2,4,-1,6,8,10,-1,12,-1,-1,-1,-1,-1],"split_conditions":[3.8131264E-1,4.92913E-2,-7.130354E-2,1.6264835E-2,6.2745E-2,3.8342614E-2,-2.7247792E-2,8.212616E-3,6.879445E-2,9.7937874E-2,-1.640034E-2,-2.3297809E-2,-1.0306118E-1],"split_indices":[23,263,0,361,308,249,0,138,0,0,0,0,0],"split_type":[0,0,0,0,0,0,0,0,0,0,0,0,0],"sum_hessian":[1.2195807E1,1.0873415E1,1.3223919E0,6.6109533E0,4.2624617E0,4.663773E0,1.9471803E0,3.085958E0,1.1765039E0,3.6108954E0,1.0528777E0,1.6536461E0,1.432312E0],"tree_param":{"num_deleted":"0","num_feature":"367","num_nodes":"13","size_leaf_vector":"1"}},{"base_weights":[-3.0384038E-2,4.333831E-2,-5.728658E-2,1.3041115E-1,-6.550896E-2,2.3844832E-1,-3.817645E-2,3.2894802E-1,-3.416018E-2,4.7265995E-1,-3.2335952E-2,1.24573804E-1,1.7021988E-2],"categories":[],"categories_nodes":[],"categories_segments":[],"categories_sizes":[],"default_left":[0,0,0,0,0,0,0,0,0,0,0,0,0],"id":46,"left_children":[1,3,-1,5,-1,7,-1,9,-1,11,-1,-1,-1],"loss_changes":[2.688192E-1,4.113582E-1,0E0,3.9124572E-1,0E0,3.4871382E-1,0E0,5.565704E-1,0E0,2.684356E-1,0E0,0E0,0E0],"parents":[2147483647,0,0,1,1,3,3,5,5,7,7,9,9],"right_children":[2,4,-1,6,-1,8,-1,10,-1,12,-1,-1,-1],"split_conditions":[3.0718458E-1,3.770638E-1,-5.728658E-2,3.648461E-1,-6.550896E-2,2.2236861E-1,-3.817645E-2,3.1172156E-1,-3.416018E-2,9.360245E-3,-3.2335952E-2,1.24573804E-1,1.7021988E-2],"split_indices":[251,108,0,210,0,315,0,302,0,264,0,0,0],"split_type":[0,0,0,0,0,0,0,0,0,0,0,0,0],"sum_hessian":[1.2583313E1,1.0415261E1,2.168051E0,8.960068E0,1.4551934E0,6.898311E0,2.061757E0,5.809777E0,1.0885346E0,4.5218763E0,1.2879003E0,2.8212154E0,1.700661E0],"tree_param":{"num_deleted":"0","num_feature":"367","num_nodes":"13","size_leaf_vector":"1"}},{"base_weights":[-1.4305421E-2,-9.70231E-2,5.7463862E-2,-1.9868852E-1,1.7260416E-1,-6.812275E-2,-8.889713E-2,7.409897E-2,-2.7784694E-2,9.768085E-2,-7.2346665E-2,2.3435153E-1,-4.1295126E-2,6.907633E-2,-7.7952775E-3],"categories":[],"categories_nodes":[],"categories_segments":[],"categories_sizes":[],"default_left":[0,0,0,0,0,0,0,0,0,0,0,0,0,0,0],"id":47,"left_children":[1,3,-1,5,7,9,-1,-1,-1,11,-1,13,-1,-1,-1],"loss_changes":[3.37924E-1,3.221169E-1,0E0,2.2934353E-1,2.61702E-1,3.5002875E-1,0E0,0E0,0E0,2.5285533E-1,0E0,1.3066846E-1,0E0,0E0,0E0],"parents":[2147483647,0,0,1,1,3,3,4,4,5,5,9,9,11,11],"right_children":[2,4,-1,6,8,10,-1,-1,-1,12,-1,14,-1,-1,-1],"split_conditions":[3.4676477E-1,4.7221478E-2,5.7463862E-2,2.6854858E-1,7.6556176E-2,2.6580438E-1,-8.889713E-2,7.409897E-2,-2.7784694E-2,3.9129776E-1,-7.2346665E-2,6.1866753E-2,-4.1295126E-2,6.907633E-2,-7.7952775E-3],"split_indices":[40,83,0,169,257,352,0,0,0,38,0,98,0,0,0],"split_type":[0,0,0,0,0,0,0,0,0,0,0,0,0,0,0],"sum_hessian":[1.14269E1,9.499959E0,1.9269406E0,7.089789E0,2.4101703E0,5.4643264E0,1.6254625E0,1.3581519E0,1.0520183E0,3.9187162E0,1.5456102E0,2.8621373E0,1.0565789E0,1.8478819E0,1.0142553E0],"tree_param":{"num_deleted":"0","num_feature":"367","num_nodes":"15","size_leaf_vector":"1"}},{"base_weights":[-1.8066837E-2,-1.4938396E-1,2.5892255E-1,-2.3468821E-1,3.831143E-2,1.03918076E-1,-2.5156349E-2,-3.1849736E-1,2.7785707E-2,-8.872501E-2,8.586596E-3],"categories":[],"categories_nodes":[],"categories_segments":[],"categories_sizes":[],"default_left":[0,0,0,0,0,0,0,0,0,0,0],"id":48,"left_children":[1,3,5,7,-1,-1,-1,9,-1,-1,-1],"loss_changes":[5.038067E-1,3.156978E-1,5.144614E-1,2.9147413E-1,0E0,0E0,0E0,3.2443017E-1,0E0,0E0,0E0],"parents":[2147483647,0,0,1,1,2,2,3,3,7,7],"right_children":[2,4,6,8,-1,-1,-1,10,-1,-1,-1],"split_conditions":[4.7221478E-2,2.7149668E-1,7.586343E-2,5.266283E-1,3.831143E-2,1.03918076E-1,-2.5156349E-2,-1.4613887E-2,2.7785707E-2,-8.872501E-2,8.586596E-3],"split_indices":[83,301,256,211,0,0,0,103,0,0,0],"split_type":[0,0,0,0,0,0,0,0,0,0,0],"sum_hessian":[1.1787564E1,8.309041E0,3.4785233E0,6.895434E0,1.4136075E0,1.8645318E0,1.6139916E0,5.7525578E0,1.142876E0,4.104247E0,1.6483109E0],"tree_param":{"num_deleted":"0","num_feature":"367","num_nodes":"11","size_leaf_vector":"1"}},{"base_weights":[-3.606477E-3,-1.3636705E-1,1.8611573E-1,-1.923299E-2,-9.022206E-2,3.9556548E-1,-5.002111E-2,-1.18794315E-1,4.9082614E-2,1.0610821E-1,2.1144177E-3,-2.5398725E-1,4.762542E-2,-7.937622E-2,-8.200956E-2,1.8805265E-2,-4.1239724E-2],"categories":[],"categories_nodes":[],"categories_segments":[],"categories_sizes":[],"default_left":[0,0,0,0,0,0,0,0,0,0,0,0,0,0,0,0,0],"id":49,"left_children":[1,3,5,7,-1,9,-1,11,-1,-1,-1,13,-1,15,-1,-1,-1],"loss_changes":[3.3536717E-1,2.7953738E-1,6.0048854E-1,2.0679156E-1,0E0,2.0724422E-1,0E0,3.2938218E-1,0E0,0E0,0E0,9.077582E-2,0E0,9.3629345E-2,0E0,0E0,0E0],"parents":[2147483647,0,0,1,1,2,2,3,3,5,5,7,7,11,11,13,13],"right_children":[2,4,6,8,-1,10,-1,12,-1,-1,-1,14,-1,16,-1,-1,-1],"split_conditions":[-2.2124846E-2,3.7381098E-1,3.3855125E-1,4.2811084E-1,-9.022206E-2,8.493415E-2,-5.002111E-2,7.916964E-2,4.9082614E-2,1.0610821E-1,2.1144177E-3,2.4631712E-1,4.762542E-2,9.682093E-1,-8.200956E-2,1.8805265E-2,-4.1239724E-2],"split_indices":[174,202,303,227,0,91,0,253,0,0,0,41,0,0,0,0,0],"split_type":[0,0,0,0,0,0,0,0,0,0,0,0,0,0,0,0,0],"sum_hessian":[1.1307118E1,6.817625E0,4.4894934E0,5.7418566E0,1.075768E0,3.0961096E0,1.3933839E0,4.572701E0,1.1691557E0,2.0124934E0,1.0836164E0,3.5256624E0,1.0470386E0,2.3759332E0,1.1497293E0,1.112891E0,1.2630423E0],"tree_param":{"num_deleted":"0","num_feature":"367","num_nodes":"17","size_leaf_vector":"1"}}]},"name":"gbtree"},"learner_model_param":{"base_score":"5E-1","boost_from_average":"1","num_class":"0","num_feature":"367","num_target":"1"},"objective":{"name":"binary:logistic","reg_loss_param":{"scale_pos_weight":"1"}}},"version":[3,0,3]}