{"learner":{"attributes":{"scikit_learn":"{\"_estimator_type\": \"classifier\"}"},"feature_names":["Tau","length","GC","1-AAAAAAAAGAAG","1-AAAAAAAATTAATTT","1-AAAAAAATAAAATTG","1-AAAAACCACT","1-AAAACAAATAAAA","1-AAAACTCTTTT","1-AAAAGTGAA","1-AAAATATTTTAAAA","1-AAAGAGAACAAG","1-AAATATTTTTAAAA","1-AAATGAGACA","1-AACAGGACG","1-AACCGTCTC","1-AACGCGCTT","1-AAGACCAACT","1-AAGCATCCWGAA","1-AAGCTAGACAGAGWG","1-AAGTCKTTCTTGYTK","1-AATAAAAATGT","1-AATACTTCAACA","1-AATCCACTTGMTGAT","1-ACAAAGGTGAT","1-ACAACACAATG","1-ACAGACA","1-ACCAAAAGAA","1-ACCAGGTACA","1-AGAAAACAAAA","1-AGAGAGAGAGG","1-AGTATAGTACG","1-AMCGCGKT","1-ATAAAGCAA","1-ATATAAAAAAATTAA","1-ATATATATTTTTTA","1-ATATTTTAGAM","1-ATCCTGAAAATG","1-ATTGATCATAY","1-ATTGTTTTTTAA","1-ATTTGATTACC","1-ATTYTGTTTTGVKCT","1-BSMCGCGKSV","1-CAAAACAGAAATT","1-CAACTCCTC","1-CAATGCATCAGA","1-CACACGGCA","1-CAGCATCAAAA","1-CAGGAGAA","1-CATTAAGCTCTA","1-CATTCGCTTA","1-CCAAAAAATGACC","1-CCAATATTTCCA","1-CCACACGG","1-CCAGCAA","1-CCATGCCACCK","1-CCGCWCA","1-CCTGCAGG","1-CTGGAGTTCCTATT","1-GAAGAACCHAG","1-GAATTCTTTAA","1-GCACAATCAAAC","1-GGAAAACA","1-GGCAGATAC","1-GGGACCTTAA","1-GGGGCCTAK","1-GGTGGCA","1-GTATTGAAAGKAAMT","1-NWACGCGTWN","1-TAATTTAAAAA","1-TATTTTTTTAAAAAT","1-TCGATTCAA","1-TGTATAAAAAA","1-TTAAAAAAATAAA","1-TTAAAAAAATAAAA","1-TTAAAAAAATAAAAT","1-TTATTTTTTAAATA","1-TTGTTTTTTAAA","1-TTTAAAAAATAAATT","1-TTTAAAATAAATAAA","1-YAACGGCTASTTTT","10-AAAATAWTATTTT","10-CACACGGC","11-AAATATTTTTAAAA","11-AAATTAAAATA","12-TATTTTAAAATAA","12-TCAATAAAAAAAA","13-AAAAATTAAAAAAT","14-CACGTGG","15-ATTTTAAAAAAAAT","16-AGTAAAAAAAAAA","17-AATAAAAAAAATAAA","2-AAAAAAAAACTAA","2-AAAAAAAACTAAA","2-AAAAAATAAAATT","2-AAAAAATTTTAA","2-AAAAATAAATTT","2-AAAAATATTAA","2-AAAATAAATTTTA","2-AAAATTTTTAAT","2-AAACCCAAAAA","2-AAAGAAGCAGCAGA","2-AAAGTAAACGT","2-AAATATATAAAAATT","2-AAATCGGATTCTC","2-AAATTAATTCC","2-AACAAGARATTAAAA","2-AACAWAATCASCATC","2-AACCACCA","2-AACGCGGYTBSD","2-AACGCGKCSC","2-AACGGTCA","2-AAGTGCAAT","2-AATAATATTAAAATA","2-AATATTTTTAAAAWW","2-AATCATAACTCCTR","2-AATCGCTTC","2-AATGACCATYTV","2-AATGGCATATGC","2-ACAAGGTCTTTCAG","2-ACAATGAGAA","2-ACCAGGTACAYAG","2-ACGCGGTG","2-ACGCGTTT","2-ACGGCTA","2-ACTCATTAGT","2-AGATTATAAT","2-AGCCTCATCT","2-AGCTTAATGT","2-AGCTTTTCAYGA","2-AGCTTTTGGGATTTT","2-AGGTTCCAGCAGMT","2-ATAGCCATCCAAA","2-ATGAATTG","2-ATGCACGAGCACTT","2-ATGCATGA","2-ATTCCACTAAGAAAG","2-ATTTAAAAAAT","2-ATTTTATTTTTATAT","2-ATTTTATTTTTTTAA","2-ATTTTTTTAAAAHTM","2-AYGACCTGGATCATG","2-CAAACCCCCA","2-CAAGACAGCAAAMTM","2-CACGTGG","2-CAGAAAATGCWAGAA","2-CATACATTTATAGTT","2-CCAACGGCTABTTTT","2-CCCGCAG","2-CCYGCAGGTWCAA","2-CGGTAAG","2-CTAGACAGAGAAGG","2-CTATTTWTTA","2-CTCCAGG","2-CTGATGCAA","2-CTTCACAAGC","2-CTTTGTGCG","2-GAAGGAACAAAWTG","2-GAATTATGAAA","2-GATGTATCATATGAT","2-GCTTAAACAAA","2-GGAACACAA","2-GGTGGTGGAA","2-GTATGAC","2-GTTGTTTTTTAAAK","2-GWCATCCR","2-TAATTAAAA","2-TATAAAAAAAAA","2-TATTAAAATAATAW","2-TCAAAAGAAC","2-TTCCAACCAAA","2-TTTAAAAAATAAAAT","2-TTTAAATAAAA","2-VRMCGCGKYB","3-AAAAAAAACAAAACA","3-AAAAAATAACTGA","3-AAAAATAATTTTAA","3-AAAACAACGAA","3-AAAATAAGA","3-AAAATATAAA","3-AAAATATACT","3-AAAATTAAAAAATG","3-AAAGCTAAAATCAAG","3-AAAGTATAGTACGK","3-AAATATAAAATTA","3-AAATATTTTTAAAA","3-AAATTAATAT","3-AACGCGGYKBS","3-AAGAAAGTTCAG","3-AAGAAGCARCWGW","3-AAGCAAATAT","3-AAGCCAACTCA","3-AATATTAATGA","3-AATATTGGGCCAG","3-AATCCACTTG","3-AATCCACTTGCTRMK","3-AATGCAGAA","3-AATTTAAAATTGAA","3-AATTTGGTTTTCYY","3-AATTTTAAAAAAAT","3-ACAGTCAAAAT","3-ACCATGATA","3-ACCTGATCTTG","3-ACTCTGCA","3-ACTGTTTGGTT","3-ACTTGAAAA","3-AGATCATCTG","3-AGCCCATATGGGT","3-AGCCTTGGGVHRT","3-AGCTTTTGGGCTTWT","3-AGGGATGCTTTAGRT","3-AGGTTCCAA","3-AGTGCATY","3-AGTTCATTTG","3-AGWAGAGAAG","3-ATAACATTCAAAW","3-ATACAGGGA","3-ATATAAAAAAAT","3-ATCCAAGAGAAGAA","3-ATCCGATATGCTGA","3-ATCTGTTTTGDCMTA","3-ATGCAATACTTMWMG","3-ATGTTTACTGT","3-ATTAAAAAAATAAA","3-ATTAAAAAT","3-ATTCTATCATAAKAA","3-ATTTAAAAAAA","3-CAAAAGGAG","3-CAGCATCAAAATCT","3-CAGCGATTT","3-CAGTGAGC","3-CATCTTAGG","3-CCACCTTCAGG","3-CCATGCCACC","3-CCCAACCCGAHGA","3-CCCAATTCAT","3-CCTSSAGG","3-CCTTGTCATT","3-CGCCCACGCCA","3-CGCGTAAACCC","3-CTATATCATCAAW","3-CTGCAAAAC","3-CTTTATACTT","3-CTTTTATTTTTTAAR","3-GATGAAAAAAA","3-GATTAATCTG","3-GCACATCAAAM","3-GGATAAAATTAA","3-RTCACTTAACMCTTC","3-TAAAAATATATWA","3-TAAATAGAAA","3-TAAATTATAAGGT","3-TAAGGAGGA","3-TATTTTATATAAAA","3-TTAATTTAAAAATA","3-TTAGAAGAATT","3-TTGTTTTTTAAA","3-TTTAAATAAAAATT","3-TTTGTAAAAAA","3-TTTTAAAAATAATTT","3-WACAATATTTA","4-AAAAAAAKAAGAAAA","4-AAAAAAATTAAAAA","4-AAAAATAAAAATC","4-AAAAATATATATA","4-AAAAATATTAAAC","4-AAAGGAATCCG","4-AAAGTAATTAA","4-AAATAAAAAATTAAT","4-AACAGCCCCTMAC","4-AACGCGGTT","4-AAMCGCGKCGS","4-AATAGAAATG","4-AATCGAACACCG","4-AATTAATTAATA","4-AATTTACTGAAAT","4-AATTTTTCAAG","4-ACCTGCACTTCT","4-ACTTTTACCATAT","4-AGCGTGGTC","4-AGTTAAAAA","4-AGTTTATGGTA","4-ATAAATAAATAAA","4-ATAAGAAACAAAT","4-ATATAAAAAAAAAC","4-ATATAAAAAATAA","4-ATATATCAAAA","4-ATTTAAAATTTGG","4-CAACAACCC","4-CACTGAACTGGTT","4-CAGCACCCAWTA","4-CAGTCGCG","4-CCATTACAGC","4-CCCCCACTGC","4-CCWACCA","4-CGATTCAAAAAG","4-CGBSSVCG","4-CTATACAAAAC","4-CTTATTTTGGAAA","4-GCTGAAAACCCCMT","4-GGAAAACAAA","4-GGAAATCAAAG","4-GGAAGAACCAG","4-GGTGTTTTTAG","4-RAAACGCG","4-TAAGGAATA","4-TTAAAAAAAAAAAA","4-TTATTTAAAAA","5-AAAAAAAACTAAA","5-AAAAAAAATTAAATK","5-AAAAAAATTAAA","5-AAAAATATAAWAA","5-AAAACCAAATTTT","5-AATAATAATCTTAAG","5-AATATTGGGCMAGY","5-AATTAATTACC","5-AATTTAAAATTG","5-ACCAGCCAACA","5-ACGCGGYC","5-ATAACAACAAAAA","5-ATGTCCCGTT","5-ATTAAAGAAAAGAA","5-ATTAATTACTT","5-ATTWTTTTATTTTA","5-CATGCAWGSTMSAKC","5-CCACACGG","5-CCAGCAA","5-CTCGCKGA","5-CTTGGATCTATCT","5-TAAATTTTAAAAAT","5-TGACATGAACT","5-TTAAAAATATTTTTAA","5-TTTAAAAAACAAM","6-AAAAAAAAAAAMCAA","6-AAAATATAAAAAA","6-AAACGCGT","6-AACGCGTT","6-AAGCGCGTTCC","6-ACGCGCAYG","6-AGGTTCCAR","6-ATATAAAAAAAAT","6-ATATTATTTTAATAT","6-ATTAATATTTTA","6-CCAGACACCA","6-CTAGATCAACTT","6-GMCGCGKC","6-TAAGAAAAGAA","6-TATTTTTTTAAAAA","7-AAAATAAATAAATTC","7-AAGAAACTACTBT","7-AATATTTTAAAAT","7-AATTAATT","7-AATTTATAAT","7-AGGAGCCAAA","7-ATTTTGAAAAG","7-CAATGCAGGADG","7-TATTAAAATAATAT","7-TTATTTAAAAA","7-TTATTTTTTAAAAT","8-AAAAAAAATTAAATT","8-AATCCGATTCRC","8-AGAGAGAGAG","8-TAATTTTTAAAA","8-TTATTTAAAAAA","9-AAAAATATTTTTAAA","9-AAAATAGATTTA","9-ATATAAAAATA"],"feature_types":["float","int","float","float","float","float","float","float","float","float","float","float","float","float","float","float","float","float","float","float","float","float","float","float","float","float","float","float","float","float","float","float","float","float","float","float","float","float","float","float","float","float","float","float","float","float","float","float","float","float","float","float","float","float","float","float","float","float","float","float","float","float","float","float","float","float","float","float","float","float","float","float","float","float","float","float","float","float","float","float","float","float","float","float","float","float","float","float","float","float","float","float","float","float","float","float","float","float","float","float","float","float","float","float","float","float","float","float","float","float","float","float","float","float","float","float","float","float","float","float","float","float","float","float","float","float","float","float","float","float","float","float","float","float","float","float","float","float","float","float","float","float","float","float","float","float","float","float","float","float","float","float","float","float","float","float","float","float","float","float","float","float","float","float","float","float","float","float","float","float","float","float","float","float","float","float","float","float","float","float","float","float","float","float","float","float","float","float","float","float","float","float","float","float","float","float","float","float","float","float","float","float","float","float","float","float","float","float","float","float","float","float","float","float","float","float","float","float","float","float","float","float","float","float","float","float","float","float","float","float","float","float","float","float","float","float","float","float","float","float","float","float","float","float","float","float","float","float","float","float","float","float","float","float","float","float","float","float","float","float","float","float","float","float","float","float","float","float","float","float","float","float","float","float","float","float","float","float","float","float","float","float","float","float","float","float","float","float","float","float","float","float","float","float","float","float","float","float","float","float","float","float","float","float","float","float","float","float","float","float","float","float","float","float","float","float","float","float","float","float","float","float","float","float","float","float","float","float","float","float","float","float","float","float","float","float","float","float","float","float","float","float","float","float","float","float","float","float","float","float","float","float","float","float","float","float","float","float","float","float","float","float","float","float","float","float","float"],"gradient_booster":{"model":{"gbtree_model_param":{"num_parallel_tree":"1","num_trees":"50"},"iteration_indptr":[0,1,2,3,4,5,6,7,8,9,10,11,12,13,14,15,16,17,18,19,20,21,22,23,24,25,26,27,28,29,30,31,32,33,34,35,36,37,38,39,40,41,42,43,44,45,46,47,48,49,50],"tree_info":[0,0,0,0,0,0,0,0,0,0,0,0,0,0,0,0,0,0,0,0,0,0,0,0,0,0,0,0,0,0,0,0,0,0,0,0,0,0,0,0,0,0,0,0,0,0,0,0,0,0],"trees":[{"base_weights":[-0E0,5.7471263E-1,-5.3763443E-1,8.888889E-1,-7.368421E-1,-7.619048E-1,1.07692316E-1,1.3962264E0,-4.347826E-1,-1.4666668E-1,1E-1,-1E0,5E-1,1.6595745E0,-4.0000003E-2,7.692308E-1,-1.4285715E-1,-1.2982457E0,1.0526316E-1,1.2727273E-1,-6.666667E-2,1.7948718E-1,6.666667E-1,1.1111112E-1,-0E0,-1.4716982E0,5E-2,1.2727273E-1,-1E-1,1E-1,-0E0,-1.5918367E-1,-0E0],"categories":[],"categories_nodes":[],"categories_segments":[],"categories_sizes":[],"default_left":[0,0,0,0,0,0,0,0,0,0,0,0,0,0,0,0,0,0,0,0,0,0,0,0,0,0,0,0,0,0,0,0,0],"id":0,"left_children":[1,3,5,7,9,11,-1,13,15,-1,-1,17,19,21,-1,23,-1,25,27,-1,-1,-1,29,-1,-1,31,-1,-1,-1,-1,-1,-1,-1],"loss_changes":[1.3904338E1,9.617262E0,9.239277E0,1.2694922E1,7.4877205E0,6.8095236E0,0E0,6.9315147E0,7.9789777E0,0E0,0E0,6.070175E0,4.4545455E0,3.8188934E-1,0E0,8.5470104E-1,0E0,5.1805706E0,7.401914E0,0E0,0E0,0E0,6.666666E-1,0E0,0E0,2.3427029E0,0E0,0E0,0E0,0E0,0E0,0E0,0E0],"parents":[2147483647,0,0,1,1,2,2,3,3,4,4,5,5,7,7,8,8,11,11,12,12,13,13,15,15,17,17,18,18,22,22,25,25],"right_children":[2,4,6,8,10,12,-1,14,16,-1,-1,18,20,22,-1,24,-1,26,28,-1,-1,-1,30,-1,-1,32,-1,-1,-1,-1,-1,-1,-1],"split_conditions":[-1.2523832E-2,3.5677403E-1,3.890944E-1,6.6781975E-2,2.7640745E-1,1.1915521E-1,1.07692316E-1,5.106287E-1,2.4652313E-1,-1.4666668E-1,1E-1,2.186335E-1,9.725216E-2,5.266283E-1,-4.0000003E-2,5.0609827E-4,-1.4285715E-1,1.9095384E-1,4.2866535E-2,1.2727273E-1,-6.666667E-2,1.7948718E-1,-8.980539E-2,1.1111112E-1,-0E0,4.0667194E-1,5E-2,1.2727273E-1,-1E-1,1E-1,-0E0,-1.5918367E-1,-0E0],"split_indices":[86,269,25,95,151,162,0,320,300,0,0,214,284,211,0,259,0,257,282,0,0,0,261,0,0,28,0,0,0,0,0,0,0],"split_type":[0,0,0,0,0,0,0,0,0,0,0,0,0,0,0,0,0,0,0,0,0,0,0,0,0,0,0,0,0,0,0,0,0],"sum_hessian":[4.3E1,2.075E1,2.225E1,1.7E1,3.75E0,2E1,2.25E0,1.225E1,4.75E0,2.75E0,1E0,1.7E1,3E0,1.075E1,1.5E0,2.25E0,2.5E0,1.325E1,3.75E0,1.75E0,1.25E0,8.75E0,2E0,1.25E0,1E0,1.225E1,1E0,1.75E0,2E0,1E0,1E0,1.125E1,1E0],"tree_param":{"num_deleted":"0","num_feature":"367","num_nodes":"33","size_leaf_vector":"1"}},{"base_weights":[5.6516803E-3,5.273872E-1,-4.823357E-1,8.196828E-1,-6.894942E-1,-6.8991476E-1,1.00445114E-1,1.1677027E0,-6.8878037E-1,3.9526474E-2,-1.3114135E-1,-9.089765E-1,4.662043E-1,1.4404397E0,-7.689679E-2,-1.1157447E-1,1.3979247E-3,-1.0684094E0,6.79739E-2,-6.517845E-2,1.2122505E-1,1.6303115E-1,-4.581695E-3,-1.3005323E0,-8.075046E-2,-1.4707774E-1,2.0244364E-2,1.1773821E-1,-1.1962153E-1],"categories":[],"categories_nodes":[],"categories_segments":[],"categories_sizes":[],"default_left":[0,0,0,0,0,0,0,0,0,0,0,0,0,0,0,0,0,0,0,0,0,0,0,0,0,0,0,0,0],"id":1,"left_children":[1,3,5,7,9,11,-1,13,15,-1,-1,17,19,21,-1,-1,-1,23,-1,-1,-1,-1,-1,25,27,-1,-1,-1,-1],"loss_changes":[1.1404447E1,8.263351E0,7.8381004E0,1.0205593E1,3.7126908E0,5.718931E0,0E0,8.989489E0,1.2116311E0,0E0,0E0,5.2643375E0,4.119359E0,3.8640633E0,0E0,0E0,0E0,3.7169914E0,0E0,0E0,0E0,0E0,0E0,3.7347755E0,7.357017E0,0E0,0E0,0E0,0E0],"parents":[2147483647,0,0,1,1,2,2,3,3,4,4,5,5,7,7,8,8,11,11,12,12,13,13,17,17,23,23,24,24],"right_children":[2,4,6,8,10,12,-1,14,16,-1,-1,18,20,22,-1,-1,-1,24,-1,-1,-1,-1,-1,26,28,-1,-1,-1,-1],"split_conditions":[-1.2523832E-2,1.287747E-1,3.890944E-1,3.5677403E-1,1.6781344E-1,1.1915521E-1,1.00445114E-1,6.92068E-1,1.671594E-1,3.9526474E-2,-1.3114135E-1,5.641615E-1,9.3138106E-2,3.945534E-1,-7.689679E-2,-1.1157447E-1,1.3979247E-3,3.427656E-1,6.79739E-2,-6.517845E-2,1.2122505E-1,1.6303115E-1,-4.581695E-3,2.186335E-1,1.6781344E-1,-1.4707774E-1,2.0244364E-2,1.1773821E-1,-1.1962153E-1],"split_indices":[86,30,25,269,29,162,0,44,100,0,0,147,94,234,0,0,0,22,0,0,0,0,0,214,29,0,0,0,0],"split_type":[0,0,0,0,0,0,0,0,0,0,0,0,0,0,0,0,0,0,0,0,0,0,0,0,0,0,0,0,0],"sum_hessian":[4.2794395E1,2.0643015E1,2.215138E1,1.6908089E1,3.7349257E0,1.9907892E1,2.243489E0,1.3922018E1,2.986071E0,1.493824E0,2.2411017E0,1.6916348E1,2.9915445E0,1.2428035E1,1.4939837E0,1.4919621E0,1.4941092E0,1.5671192E1,1.2451557E0,1.24788E0,1.7436644E0,1.0934242E1,1.4937919E0,1.2432485E1,3.238708E0,1.1186761E1,1.2457231E0,1.4959351E0,1.742773E0],"tree_param":{"num_deleted":"0","num_feature":"367","num_nodes":"29","size_leaf_vector":"1"}},{"base_weights":[4.6050823E-3,4.7496065E-1,-4.349114E-1,7.4802434E-1,-6.4945203E-1,-6.2834585E-1,9.403458E-2,1.1855892E0,-3.8450623E-1,-1.0370203E-1,2.4245825E-2,-8.3153826E-1,4.359315E-1,1.4328867E0,-4.384389E-2,6.7423195E-2,-1.2604383E-1,-2.8228453E-1,-1.350081E0,-6.1630365E-2,1.1425173E-1,1.560429E-1,5.4320045E-2,-6.988935E-1,9.122877E-2,-1.5222797E-1,-2.9189145E-2,1.4743692E-2,-1.1102027E-1],"categories":[],"categories_nodes":[],"categories_segments":[],"categories_sizes":[],"default_left":[0,0,0,0,0,0,0,0,0,0,0,0,0,0,0,0,0,0,0,0,0,0,0,0,0,0,0,0,0],"id":2,"left_children":[1,3,5,7,9,11,-1,13,15,-1,-1,17,19,21,-1,-1,-1,23,25,-1,-1,-1,-1,27,-1,-1,-1,-1,-1],"loss_changes":[9.160366E0,7.056344E0,6.685934E0,9.218836E0,1.8819039E0,4.835925E0,0E0,5.8492565E0,6.120291E0,0E0,0E0,4.6639805E0,3.657535E0,4.5915794E-1,0E0,0E0,0E0,5.547854E0,1.1677952E0,0E0,0E0,0E0,0E0,2.9072676E0,0E0,0E0,0E0,0E0,0E0],"parents":[2147483647,0,0,1,1,2,2,3,3,4,4,5,5,7,7,8,8,11,11,12,12,13,13,17,17,18,18,23,23],"right_children":[2,4,6,8,10,12,-1,14,16,-1,-1,18,20,22,-1,-1,-1,24,26,-1,-1,-1,-1,28,-1,-1,-1,-1,-1],"split_conditions":[-1.2523832E-2,3.5677403E-1,3.890944E-1,6.6781975E-2,3.91277E-1,1.1915521E-1,9.403458E-2,3.3889303E-1,2.4652313E-1,-1.0370203E-1,2.4245825E-2,1.3434206E-1,9.3138106E-2,5.266283E-1,-4.384389E-2,6.7423195E-2,-1.2604383E-1,2.186335E-1,4.7267264E-1,-6.1630365E-2,1.1425173E-1,1.560429E-1,5.4320045E-2,9.18806E-2,9.122877E-2,-1.5222797E-1,-2.9189145E-2,1.4743692E-2,-1.1102027E-1],"split_indices":[86,269,25,95,24,162,0,235,300,0,0,198,94,211,0,0,0,214,161,0,0,0,0,7,0,0,0,0,0],"split_type":[0,0,0,0,0,0,0,0,0,0,0,0,0,0,0,0,0,0,0,0,0,0,0,0,0,0,0,0,0],"sum_hessian":[4.231177E1,2.0399876E1,2.1911896E1,1.668312E1,3.7167547E0,1.968609E1,2.2258067E0,1.1999962E1,4.683159E0,2.4774947E0,1.23926E0,1.671377E1,2.9723196E0,1.0516297E1,1.4836646E0,2.22458E0,2.4585788E0,8.866513E0,7.847257E0,1.2454259E0,1.7268935E0,8.53836E0,1.9779383E0,6.881516E0,1.984997E0,6.371807E0,1.4754502E0,2.4604053E0,4.4211106E0],"tree_param":{"num_deleted":"0","num_feature":"367","num_nodes":"29","size_leaf_vector":"1"}},{"base_weights":[3.997201E-3,4.4948477E-1,-3.9352793E-1,6.845299E-1,-9.3549944E-2,-9.0947485E-1,1.8804154E-1,9.064759E-1,-1.09917544E-1,-1.1219195E0,5.823567E-2,7.643601E-1,-5.168519E-1,1.1045918E0,-6.978818E-2,-1.2956218E0,1.6837101E-2,1.253223E-1,-6.254545E-2,-1.10808425E-1,7.3210806E-2,1.2993599E0,1.3997306E-1,-1.4491932E-1,-9.7670145E-3,1.4644636E-1,2.568668E-2,7.943218E-2,-6.454008E-2],"categories":[],"categories_nodes":[],"categories_segments":[],"categories_sizes":[],"default_left":[0,0,0,0,0,0,0,0,0,0,0,0,0,0,0,0,0,0,0,0,0,0,0,0,0,0,0,0,0],"id":3,"left_children":[1,3,5,7,-1,9,11,13,-1,15,-1,17,19,21,-1,23,-1,-1,-1,-1,-1,25,27,-1,-1,-1,-1,-1,-1],"loss_changes":[7.731762E0,7.34102E0,7.095502E0,8.191454E0,0E0,4.5832405E0,5.138881E0,6.0825863E0,0E0,2.727417E0,0E0,5.422964E0,5.130513E0,2.6854687E0,0E0,1.6949368E0,0E0,0E0,0E0,0E0,0E0,1.7886124E0,2.4062016E0,0E0,0E0,0E0,0E0,0E0,0E0],"parents":[2147483647,0,0,1,1,2,2,3,3,5,5,6,6,7,7,9,9,11,11,12,12,13,13,15,15,21,21,22,22],"right_children":[2,4,6,8,-1,10,12,14,-1,16,-1,18,20,22,-1,24,-1,-1,-1,-1,-1,26,28,-1,-1,-1,-1,-1,-1],"split_conditions":[-3.3912517E-2,4.4719064E-1,-1.4613887E-2,4.3231693E-1,-9.3549944E-2,4.0476128E-1,1.6331467E-1,4.78E1,-1.09917544E-1,2.6580438E-1,5.823567E-2,4.963515E-1,1.832877E-1,3.7164065E-1,-6.978818E-2,3.334234E-1,1.6837101E-2,1.253223E-1,-6.254545E-2,-1.10808425E-1,7.3210806E-2,-3.5544068E-2,3.8363314E-1,-1.4491932E-1,-9.7670145E-3,1.4644636E-1,2.568668E-2,7.943218E-2,-6.454008E-2],"split_indices":[5,190,103,154,0,160,181,2,0,352,0,49,79,159,0,115,0,0,0,0,0,78,129,0,0,0,0,0,0],"split_type":[0,0,0,0,0,0,0,0,0,0,0,0,0,0,0,0,0,0,0,0,0,0,0,0,0,0,0,0,0],"sum_hessian":[4.1660625E1,1.9583555E1,2.2077072E1,1.7174608E1,2.4089472E0,1.1399779E1,1.0677292E1,1.571144E1,1.4631686E0,1.0195802E1,1.2039772E0,5.8279867E0,4.849305E0,1.4261809E1,1.4496306E0,8.982432E0,1.2133702E0,4.384155E0,1.443832E0,3.367835E0,1.4814702E0,1.1577212E1,2.684597E0,7.7758775E0,1.2065547E0,9.644936E0,1.9322764E0,1.4582423E0,1.2263547E0],"tree_param":{"num_deleted":"0","num_feature":"367","num_nodes":"29","size_leaf_vector":"1"}},{"base_weights":[4.2101767E-4,4.1152677E-1,-3.8070527E-1,1.1123223E0,2.3258843E-3,-5.5602205E-1,8.48954E-2,1.3857046E-1,-2.0611972E-2,4.7704473E-1,-8.1727487E-1,-7.482793E-1,3.6897665E-1,8.794354E-1,-1.0320141E-1,7.895424E-3,-1.22651435E-1,4.6782948E-2,-9.1395026E-1,1.11675195E-1,-6.126535E-2,1.0837988E0,-4.04881E-3,-1.0822264E0,5.5364944E-2,1.2815206E-1,2.2757297E-2,-1.3227978E-1,-1.229286E-2],"categories":[],"categories_nodes":[],"categories_segments":[],"categories_sizes":[],"default_left":[0,0,0,0,0,0,0,0,0,0,0,0,0,0,0,0,0,0,0,0,0,0,0,0,0,0,0,0,0],"id":4,"left_children":[1,3,5,7,9,11,-1,-1,-1,13,15,17,19,21,-1,-1,-1,-1,23,-1,-1,25,-1,27,-1,-1,-1,-1,-1],"loss_changes":[6.7223997E0,5.9162436E0,5.2718306E0,3.0274143E0,5.849873E0,3.8489594E0,0E0,0E0,0E0,6.686972E0,2.1197712E0,3.8453045E0,3.7135088E0,1.5580034E0,0E0,0E0,0E0,0E0,4.369871E0,0E0,0E0,8.300967E-1,0E0,3.0766544E0,0E0,0E0,0E0,0E0,0E0],"parents":[2147483647,0,0,1,1,2,2,3,3,4,4,5,5,9,9,10,10,11,11,12,12,13,13,18,18,21,21,23,23],"right_children":[2,4,6,8,10,12,-1,-1,-1,14,16,18,20,22,-1,-1,-1,-1,24,-1,-1,26,-1,28,-1,-1,-1,-1,-1],"split_conditions":[-1.2523832E-2,4.04E1,3.890944E-1,2.8690103E-1,1.6781344E-1,5.1330596E-1,8.48954E-2,1.3857046E-1,-2.0611972E-2,3.4107792E-1,1.6264835E-2,-6.422683E-2,1.672911E-1,9.3138106E-2,-1.0320141E-1,7.895424E-3,-1.22651435E-1,4.6782948E-2,2.623129E-1,1.11675195E-1,-6.126535E-2,5.266283E-1,-4.04881E-3,2.620246E-1,5.5364944E-2,1.2815206E-1,2.2757297E-2,-1.3227978E-1,-1.229286E-2],"split_indices":[86,2,25,55,29,231,0,0,0,104,361,262,286,94,0,0,0,0,98,0,0,211,0,9,0,0,0,0,0],"split_type":[0,0,0,0,0,0,0,0,0,0,0,0,0,0,0,0,0,0,0,0,0,0,0,0,0,0,0,0,0],"sum_hessian":[4.0904484E1,1.963992E1,2.1264565E1,6.6068244E0,1.3033095E1,1.9090578E1,2.1739855E0,5.4299035E0,1.1769208E0,8.517595E0,4.5154996E0,1.5963648E1,3.126931E0,7.053901E0,1.4636943E0,1.668524E0,2.8469756E0,1.6953169E0,1.4268331E1,1.6967496E0,1.4301814E0,5.6259437E0,1.4279575E0,1.303618E1,1.2321512E0,4.1669846E0,1.4589595E0,1.0119502E1,2.9166777E0],"tree_param":{"num_deleted":"0","num_feature":"367","num_nodes":"29","size_leaf_vector":"1"}},{"base_weights":[3.7402704E-3,-1.7708169E-1,7.74824E-1,-3.1680244E-1,9.9433E-2,1.290286E-1,-2.964297E-1,-4.5639113E-1,1.0901524E-1,-9.637926E-2,5.179749E-2,-6.137365E-1,4.9522302E-1,-7.4485296E-1,5.6838434E-2,1.1545161E-1,-8.251006E-2,-9.12456E-2,1.975029E-2],"categories":[],"categories_nodes":[],"categories_segments":[],"categories_sizes":[],"default_left":[0,0,0,0,0,0,0,0,0,0,0,0,0,0,0,0,0,0,0],"id":5,"left_children":[1,3,5,7,-1,-1,9,11,-1,-1,-1,13,15,17,-1,-1,-1,-1,-1],"loss_changes":[5.8559985E0,5.8861103E0,4.787473E0,6.6190853E0,0E0,0E0,2.3496842E0,4.6553264E0,0E0,0E0,0E0,4.3578243E0,5.023651E0,3.8575315E0,0E0,0E0,0E0,0E0,0E0],"parents":[2147483647,0,0,1,1,2,2,3,3,6,6,7,7,11,11,12,12,13,13],"right_children":[2,4,6,8,-1,-1,10,12,-1,-1,-1,14,16,18,-1,-1,-1,-1,-1],"split_conditions":[1.1915521E-1,4.6472016E-1,-4.9399505E-3,3.890944E-1,9.9433E-2,1.290286E-1,-1.6403819E-2,4.8831204E-1,1.0901524E-1,-9.637926E-2,5.179749E-2,4.7267264E-1,6.234916E-2,1.0478578E-1,5.6838434E-2,1.1545161E-1,-8.251006E-2,-9.12456E-2,1.975029E-2],"split_indices":[162,204,140,25,0,0,87,222,0,0,0,161,261,249,0,0,0,0,0],"split_type":[0,0,0,0,0,0,0,0,0,0,0,0,0,0,0,0,0,0,0],"sum_hessian":[4.0015835E1,3.303853E1,6.9773083E0,3.0169588E1,2.868939E0,4.572612E0,2.4046962E0,2.8061165E1,2.1084237E0,1.2208445E0,1.1838517E0,2.4384369E1,3.6767957E0,2.2282751E1,2.101618E0,2.5360303E0,1.1407655E0,1.8945007E1,3.3377423E0],"tree_param":{"num_deleted":"0","num_feature":"367","num_nodes":"19","size_leaf_vector":"1"}},{"base_weights":[1.1328695E-2,3.728157E-1,-3.4685478E-1,7.2986674E-1,-5.845062E-1,-7.000677E-1,2.854768E-1,9.919981E-1,-9.52822E-2,-1.0465242E-1,6.0423225E-2,-9.3913704E-1,3.247645E-1,8.7149435E-1,-8.5630015E-2,1.1740681E0,-2.5272101E-2,-1.1257126E0,2.8062318E-2,-4.9188394E-2,9.679156E-2,1.291396E-1,-3.0798987E-2,1.3445579E0,-1.9705225E-2,-1.3259968E-1,-4.827553E-3,1.4085071E-1,4.116055E-2],"categories":[],"categories_nodes":[],"categories_segments":[],"categories_sizes":[],"default_left":[0,0,0,0,0,0,0,0,0,0,0,0,0,0,0,0,0,0,0,0,0,0,0,0,0,0,0,0,0],"id":6,"left_children":[1,3,5,7,9,11,13,15,-1,-1,-1,17,19,21,-1,23,-1,25,-1,-1,-1,-1,-1,27,-1,-1,-1,-1,-1],"loss_changes":[5.3398623E0,7.4374886E0,4.830223E0,7.730754E0,3.9974601E0,3.6349325E0,6.193036E0,3.424199E0,0E0,0E0,0E0,2.8823795E0,2.216632E0,3.3074527E0,0E0,3.1206589E0,0E0,2.0897732E0,0E0,0E0,0E0,0E0,0E0,7.611847E-2,0E0,0E0,0E0,0E0,0E0],"parents":[2147483647,0,0,1,1,2,2,3,3,4,4,5,5,6,6,7,7,11,11,12,12,13,13,15,15,17,17,23,23],"right_children":[2,4,6,8,10,12,14,16,-1,-1,-1,18,20,22,-1,24,-1,26,-1,-1,-1,-1,-1,28,-1,-1,-1,-1,-1],"split_conditions":[3.291724E-2,2.3896523E-1,5.5619612E-2,1.03556715E-1,1.792306E-1,2.3996712E-1,3.3602956E-1,5.544951E-1,-9.52822E-2,-1.0465242E-1,6.0423225E-2,6.2663E-1,-2.1901583E-2,9.9911815E-1,-8.5630015E-2,1.325335E-1,-2.5272101E-2,2.3896523E-1,2.8062318E-2,-4.9188394E-2,9.679156E-2,1.291396E-1,-3.0798987E-2,3.7046754E-1,-1.9705225E-2,-1.3259968E-1,-4.827553E-3,1.4085071E-1,4.116055E-2],"split_indices":[3,130,184,308,346,107,205,165,0,0,0,50,223,0,0,178,0,130,0,0,0,0,0,59,0,0,0,0,0],"split_type":[0,0,0,0,0,0,0,0,0,0,0,0,0,0,0,0,0,0,0,0,0,0,0,0,0,0,0,0,0],"sum_hessian":[3.9242535E1,1.9510866E1,1.9731667E1,1.4383768E1,5.127099E0,1.2591232E1,7.1404343E0,1.2800204E1,1.5835634E0,3.778264E0,1.3488348E0,1.0277379E1,2.3138535E0,4.875039E0,2.2653954E0,1.12163105E1,1.583894E0,8.980775E0,1.2966039E0,1.1230477E0,1.1908057E0,3.5251782E0,1.3498609E0,9.993107E0,1.2232038E0,7.3784957E0,1.6022793E0,8.875037E0,1.1180692E0],"tree_param":{"num_deleted":"0","num_feature":"367","num_nodes":"29","size_leaf_vector":"1"}},{"base_weights":[9.341186E-3,3.7190184E-1,-3.248984E-1,9.9555E-1,7.034307E-3,-4.7143883E-1,7.00129E-2,1.2417614E-1,-1.8671457E-2,4.2372778E-1,-7.080851E-1,-6.4269835E-1,3.4021437E-1,7.797831E-1,-8.939944E-2,7.3880493E-3,-1.0796018E-1,-7.820971E-1,5.793559E-2,9.8809436E-2,-5.2120704E-2,9.5969766E-1,-2.4740181E-3,-1.1708723E0,-1.3226275E-1,1.15867056E-1,1.6117487E-2,-1.3066098E-1,-9.8853065E-3,8.995383E-2,-8.221541E-2],"categories":[],"categories_nodes":[],"categories_segments":[],"categories_sizes":[],"default_left":[0,0,0,0,0,0,0,0,0,0,0,0,0,0,0,0,0,0,0,0,0,0,0,0,0,0,0,0,0,0,0],"id":7,"left_children":[1,3,5,7,9,11,-1,-1,-1,13,15,17,19,21,-1,-1,-1,23,-1,-1,-1,25,-1,27,29,-1,-1,-1,-1,-1,-1],"loss_changes":[4.8723035E0,4.378804E0,3.4747055E0,2.3006372E0,4.2236238E0,2.847797E0,0E0,0E0,0E0,4.8939652E0,1.5968273E0,3.1727643E0,2.7191672E0,1.1203794E0,0E0,0E0,0E0,3.5730162E0,0E0,0E0,0E0,8.0100393E-1,0E0,1.1957321E0,5.4737654E0,0E0,0E0,0E0,0E0,0E0,0E0],"parents":[2147483647,0,0,1,1,2,2,3,3,4,4,5,5,9,9,10,10,11,11,12,12,13,13,17,17,21,21,23,23,24,24],"right_children":[2,4,6,8,10,12,-1,-1,-1,14,16,18,20,22,-1,-1,-1,24,-1,-1,-1,26,-1,28,30,-1,-1,-1,-1,-1,-1],"split_conditions":[-1.2523832E-2,4.04E1,3.890944E-1,3.848517E-1,1.6781344E-1,5.1330596E-1,7.00129E-2,1.2417614E-1,-1.8671457E-2,3.4107792E-1,1.6264835E-2,5.325511E-1,1.672911E-1,9.3138106E-2,-8.939944E-2,7.3880493E-3,-1.0796018E-1,9.3829736E-2,5.793559E-2,9.8809436E-2,-5.2120704E-2,5.266283E-1,-2.4740181E-3,3.7765718E-1,1.5966518E-1,1.15867056E-1,1.6117487E-2,-1.3066098E-1,-9.8853065E-3,8.995383E-2,-8.221541E-2],"split_indices":[86,2,25,170,29,231,0,0,0,104,361,134,286,94,0,0,0,243,0,0,0,211,0,44,263,0,0,0,0,0,0],"split_type":[0,0,0,0,0,0,0,0,0,0,0,0,0,0,0,0,0,0,0,0,0,0,0,0,0,0,0,0,0,0,0],"sum_hessian":[3.8209354E1,1.8274128E1,1.9935228E1,6.1070895E0,1.2167039E1,1.7914236E1,2.0209908E0,5.012824E0,1.0942652E0,7.9450216E0,4.222018E0,1.4964809E1,2.9494267E0,6.576304E0,1.3687174E0,1.6178712E0,2.6041465E0,1.375572E1,1.2090898E0,1.599433E0,1.3499936E0,5.2168E0,1.3595039E0,8.104972E0,5.650748E0,3.8151407E0,1.4016596E0,6.999833E0,1.1051391E0,2.1425169E0,3.508231E0],"tree_param":{"num_deleted":"0","num_feature":"367","num_nodes":"31","size_leaf_vector":"1"}},{"base_weights":[1.0844861E-2,3.3965978E-1,-3.1181735E-1,6.6348183E-1,-5.260111E-1,-4.6345398E-1,9.050212E-2,1.1300335E0,-2.1451731E-1,-9.5350154E-2,5.5014897E-2,-7.951392E-1,1.8422666E-1,1.2776338E-1,-1.793893E-3,-8.631342E-2,3.9769804E-1,-1.0242114E0,4.759843E-2,6.2566054E-1,-7.073765E-2,1.0106043E-1,-5.3056814E-2,-1.1833947E0,-1.9719744E-2,9.9063896E-2,-2.5575379E-2,-1.3105719E-1,-2.3688253E-2],"categories":[],"categories_nodes":[],"categories_segments":[],"categories_sizes":[],"default_left":[0,0,0,0,0,0,0,0,0,0,0,0,0,0,0,0,0,0,0,0,0,0,0,0,0,0,0,0,0],"id":8,"left_children":[1,3,5,7,9,11,-1,13,15,-1,-1,17,19,-1,-1,-1,21,23,-1,25,-1,-1,-1,27,-1,-1,-1,-1,-1],"loss_changes":[4.1484714E0,5.7732835E0,4.064148E0,6.1921263E0,3.2046094E0,4.0617533E0,0E0,1.657033E0,2.678329E0,0E0,0E0,4.0518255E0,3.1914907E0,0E0,0E0,0E0,2.6467664E0,1.1738262E0,0E0,1.9268653E0,0E0,0E0,0E0,7.444906E-1,0E0,0E0,0E0,0E0,0E0],"parents":[2147483647,0,0,1,1,2,2,3,3,4,4,5,5,7,7,8,8,11,11,12,12,16,16,17,17,19,19,23,23],"right_children":[2,4,6,8,10,12,-1,14,16,-1,-1,18,20,-1,-1,-1,22,24,-1,26,-1,-1,-1,28,-1,-1,-1,-1,-1],"split_conditions":[3.291724E-2,2.3896523E-1,2.8388566E-1,9.725216E-2,1.792306E-1,-4.4588274E-3,9.050212E-2,5.158099E-1,1.519486E-1,-9.5350154E-2,5.5014897E-2,5.5700842E-2,2.2996159E-1,1.2776338E-1,-1.793893E-3,-8.631342E-2,4.7344235E-1,3.6145574E-1,4.759843E-2,1.6331467E-1,-7.073765E-2,1.0106043E-1,-5.3056814E-2,3.8454637E-1,-1.9719744E-2,9.9063896E-2,-2.5575379E-2,-1.3105719E-1,-2.3688253E-2],"split_indices":[3,130,189,284,346,257,0,121,172,0,0,223,89,0,0,0,52,18,0,181,0,0,0,195,0,0,0,0,0],"split_type":[0,0,0,0,0,0,0,0,0,0,0,0,0,0,0,0,0,0,0,0,0,0,0,0,0,0,0,0,0],"sum_hessian":[3.7102795E1,1.8350101E1,1.8752691E1,1.3524534E1,4.8255672E0,1.722529E1,1.5274009E0,8.644147E0,4.880388E0,3.535224E0,1.2903433E0,1.1240976E1,5.984314E0,7.559269E0,1.0848781E0,2.1707325E0,2.7096553E0,9.689123E0,1.5518532E0,4.2021155E0,1.7821984E0,1.5786314E0,1.1310239E0,7.7638216E0,1.9253016E0,2.883987E0,1.3181286E0,6.5051336E0,1.2586882E0],"tree_param":{"num_deleted":"0","num_feature":"367","num_nodes":"29","size_leaf_vector":"1"}},{"base_weights":[1.0530713E-2,3.3723757E-1,-2.8691885E-1,9.153842E-1,2.0268373E-3,-4.1895902E-1,7.367025E-2,1.1461786E-1,-1.660922E-2,3.9113235E-1,-6.548253E-1,-4.0413782E-2,-8.321903E-1,7.148309E-1,-8.049052E-2,5.372172E-3,-9.982039E-2,3.3302686E-1,-7.4845356E-1,-1.0574278E0,3.6262535E-2,8.786299E-1,-8.4595656E-4,8.347871E-1,-5.9301E-1,-9.394153E-2,-1.808448E-2,-1.2184254E-1,-2.8164757E-3,1.0697663E-1,1.4412877E-2,1.0411774E-1,-1.8990194E-4,-7.838824E-2,-9.313616E-3],"categories":[],"categories_nodes":[],"categories_segments":[],"categories_sizes":[],"default_left":[0,0,0,0,0,0,0,0,0,0,0,0,0,0,0,0,0,0,0,0,0,0,0,0,0,0,0,0,0,0,0,0,0,0,0],"id":9,"left_children":[1,3,5,7,9,11,-1,-1,-1,13,15,17,19,21,-1,-1,-1,23,25,27,-1,29,-1,31,33,-1,-1,-1,-1,-1,-1,-1,-1,-1,-1],"loss_changes":[3.6912541E0,3.5034232E0,2.9985116E0,1.8466787E0,3.438441E0,2.8235154E0,0E0,0E0,0E0,3.8449965E0,1.2715535E0,3.04769E0,2.719771E0,8.576133E-1,0E0,0E0,0E0,4.0361853E0,2.5961637E-1,1.2184095E0,0E0,6.685796E-1,0E0,9.2725706E-1,2.3831296E-1,0E0,0E0,0E0,0E0,0E0,0E0,0E0,0E0,0E0,0E0],"parents":[2147483647,0,0,1,1,2,2,3,3,4,4,5,5,9,9,10,10,11,11,12,12,13,13,17,17,18,18,19,19,21,21,23,23,24,24],"right_children":[2,4,6,8,10,12,-1,-1,-1,14,16,18,20,22,-1,-1,-1,24,26,28,-1,30,-1,32,34,-1,-1,-1,-1,-1,-1,-1,-1,-1,-1],"split_conditions":[-1.2523832E-2,4.04E1,2.3964138E-1,3.848517E-1,1.6781344E-1,9.397907E-2,7.367025E-2,1.1461786E-1,-1.660922E-2,3.4107792E-1,1.6264835E-2,2.3896523E-1,3.4384528E-1,9.3138106E-2,-8.049052E-2,5.372172E-3,-9.982039E-2,5.902076E-2,2.5719994E-1,3.96E1,3.6262535E-2,5.266283E-1,-8.4595656E-4,1.4202666E-1,1.8490781E-1,-9.394153E-2,-1.808448E-2,-1.2184254E-1,-2.8164757E-3,1.0697663E-1,1.4412877E-2,1.0411774E-1,-1.8990194E-4,-7.838824E-2,-9.313616E-3],"split_indices":[86,2,78,170,29,164,0,0,0,104,361,130,186,94,0,0,0,333,276,2,0,211,0,69,92,0,0,0,0,0,0,0,0,0,0],"split_type":[0,0,0,0,0,0,0,0,0,0,0,0,0,0,0,0,0,0,0,0,0,0,0,0,0,0,0,0,0,0,0,0,0,0,0],"sum_hessian":[3.5988457E1,1.7087004E1,1.8901455E1,5.6358814E0,1.1451122E1,1.7265085E1,1.6363692E0,4.5953703E0,1.040511E0,7.4452477E0,4.005874E0,9.583662E0,7.681423E0,6.176074E0,1.2691735E0,1.5829903E0,2.422884E0,6.621134E0,2.9625278E0,6.5598054E0,1.1216177E0,4.8605647E0,1.3155093E0,4.3582273E0,2.2629068E0,1.7266033E0,1.2359246E0,5.5135846E0,1.0462208E0,3.4947E0,1.3658649E0,3.2998319E0,1.0583951E0,1.2264411E0,1.0364656E0],"tree_param":{"num_deleted":"0","num_feature":"367","num_nodes":"35","size_leaf_vector":"1"}},{"base_weights":[7.908487E-3,-1.0008053E-1,8.666163E-2,9.7808905E-2,-6.7341524E-1,2.9107207E-1,-7.395126E-1,-9.3503E-1,3.1094057E-2,5.032912E-1,-5.570388E-1,-7.113018E-3,-1.0268195E-1,-1.0450529E-1,-2.302619E-2,8.4773946E-1,-2.7239534E-1,-8.479824E-2,1.4497808E-2,9.916025E-2,-2.6250798E-2,-9.560134E-2,6.215194E-2],"categories":[],"categories_nodes":[],"categories_segments":[],"categories_sizes":[],"default_left":[0,0,0,0,0,0,0,0,0,0,0,0,0,0,0,0,0,0,0,0,0,0,0],"id":10,"left_children":[1,3,-1,5,7,9,11,13,-1,15,17,-1,-1,-1,-1,19,21,-1,-1,-1,-1,-1,-1],"loss_changes":[3.4170735E0,3.7870872E0,0E0,4.302248E0,2.490658E0,4.102753E0,8.906913E-1,3.020339E-1,0E0,4.909873E0,1.0880438E0,0E0,0E0,0E0,0E0,2.2361183E0,4.3474727E0,0E0,0E0,0E0,0E0,0E0,0E0],"parents":[2147483647,0,0,1,1,3,3,4,4,5,5,6,6,7,7,9,9,10,10,15,15,16,16],"right_children":[2,4,-1,6,8,10,12,14,-1,16,18,-1,-1,-1,-1,20,22,-1,-1,-1,-1,-1,-1],"split_conditions":[3.890944E-1,4.7769602E-2,8.666163E-2,3.4107792E-1,1.707994E-1,1.287747E-1,-8.980539E-2,4.0476128E-1,3.1094057E-2,9.725216E-2,1.2665097E-1,-7.113018E-3,-1.0268195E-1,-1.0450529E-1,-2.302619E-2,3.3889303E-1,-2.1901583E-2,-8.479824E-2,1.4497808E-2,9.916025E-2,-2.6250798E-2,-9.560134E-2,6.215194E-2],"split_indices":[25,86,0,104,95,30,261,160,0,284,217,0,0,0,0,235,223,0,0,0,0,0,0],"split_type":[0,0,0,0,0,0,0,0,0,0,0,0,0,0,0,0,0,0,0,0,0,0,0],"sum_hessian":[3.491401E1,3.1798552E1,3.1154563E0,2.4255903E1,7.5426474E0,2.023729E1,4.0186152E0,5.998516E0,1.5441312E0,1.651211E1,3.7251797E0,1.5831641E0,2.4354515E0,4.7708893E0,1.2276267E0,1.137021E1,5.141899E0,2.4866788E0,1.238501E0,1.01605015E1,1.2097082E0,2.8743114E0,2.267588E0],"tree_param":{"num_deleted":"0","num_feature":"367","num_nodes":"23","size_leaf_vector":"1"}},{"base_weights":[2.9937136E-3,3.0067214E-1,-2.8119174E-1,7.52011E-1,-2.3974419E-1,-5.976825E-1,2.8345266E-1,1.1066361E-1,-3.2557818E-1,-4.9195367E-1,7.948303E-2,-8.1301564E-1,2.926619E-1,7.8113145E-1,-7.094719E-2,-8.6201465E-4,-4.9204122E-2,1.5798344E-1,-1.01555526E-1,-9.727559E-1,2.392414E-2,-3.818391E-2,8.00729E-2,1.1346382E-1,-2.5619447E-2,-3.835408E-2,7.716652E-2,-1.1589034E-1,6.0724345E-4],"categories":[],"categories_nodes":[],"categories_segments":[],"categories_sizes":[],"default_left":[0,0,0,0,0,0,0,0,0,0,0,0,0,0,0,0,0,0,0,0,0,0,0,0,0,0,0,0,0],"id":11,"left_children":[1,3,5,7,9,11,13,-1,15,17,-1,19,21,23,-1,-1,-1,25,-1,27,-1,-1,-1,-1,-1,-1,-1,-1,-1],"loss_changes":[3.0391233E0,4.4587803E0,3.4548264E0,4.1053047E0,2.6718318E0,2.5582957E0,4.152537E0,0E0,1.6455609E-1,2.762279E0,0E0,1.9153571E0,1.3654752E0,2.2439327E0,0E0,0E0,0E0,1.7171843E0,0E0,1.6265726E0,0E0,0E0,0E0,0E0,0E0,0E0,0E0,0E0,0E0],"parents":[2147483647,0,0,1,1,2,2,3,3,4,4,5,5,6,6,8,8,9,9,11,11,12,12,13,13,17,17,19,19],"right_children":[2,4,6,8,10,12,14,-1,16,18,-1,20,22,24,-1,-1,-1,26,-1,28,-1,-1,-1,-1,-1,-1,-1,-1,-1],"split_conditions":[3.291724E-2,-5.8260754E-2,5.5619612E-2,1.6781344E-1,2.5052348E-1,2.3996712E-1,3.3602956E-1,1.1066361E-1,1.6264835E-2,-4.9399505E-3,7.948303E-2,6.2663E-1,1.3454217E-1,9.9911815E-1,-7.094719E-2,-8.6201465E-4,-4.9204122E-2,-1.6403819E-2,-1.01555526E-1,2.3896523E-1,2.392414E-2,-3.818391E-2,8.00729E-2,1.1346382E-1,-2.5619447E-2,-3.835408E-2,7.716652E-2,-1.1589034E-1,6.0724345E-4],"split_indices":[3,309,184,29,347,107,205,0,361,140,0,50,321,0,0,0,0,87,0,130,0,0,0,0,0,0,0,0,0],"split_type":[0,0,0,0,0,0,0,0,0,0,0,0,0,0,0,0,0,0,0,0,0,0,0,0,0,0,0,0,0],"sum_hessian":[3.392578E1,1.6541199E1,1.738458E1,8.800095E0,7.741105E0,1.11028E1,6.2817802E0,6.6008563E0,2.199238E0,6.6455374E0,1.0955678E0,9.010444E0,2.0923574E0,4.326521E0,1.9552592E0,1.1194692E0,1.0797689E0,3.276613E0,3.3689241E0,7.8884697E0,1.121974E0,1.0056808E0,1.0866766E0,3.156886E0,1.1696349E0,1.9398607E0,1.3367523E0,6.4734244E0,1.415045E0],"tree_param":{"num_deleted":"0","num_feature":"367","num_nodes":"29","size_leaf_vector":"1"}},{"base_weights":[4.2264755E-3,-9.510045E-2,7.921416E-2,-2.2659156E-1,6.156154E-1,-3.373246E-1,5.3677154E-1,9.976292E-2,-4.3068722E-2,-4.8317686E-1,3.430019E-1,9.5640756E-2,-2.3313656E-2,-6.15542E-1,2.5675592E-1,7.2731245E-1,-5.0940294E-2,-8.011465E-2,5.480249E-3,7.402803E-2,-4.8320323E-2,1.7284384E-2,8.712117E-2],"categories":[],"categories_nodes":[],"categories_segments":[],"categories_sizes":[],"default_left":[0,0,0,0,0,0,0,0,0,0,0,0,0,0,0,0,0,0,0,0,0,0,0],"id":12,"left_children":[1,3,-1,5,7,9,11,-1,-1,13,15,-1,-1,17,19,21,-1,-1,-1,-1,-1,-1,-1],"loss_changes":[2.7235384E0,3.0311742E0,0E0,2.4500628E0,2.4681573E0,2.5527625E0,1.446294E0,0E0,0E0,2.138863E0,1.9532969E0,0E0,0E0,2.2150102E0,1.7082102E0,1.4799213E-1,0E0,0E0,0E0,0E0,0E0,0E0,0E0],"parents":[2147483647,0,0,1,1,3,3,4,4,5,5,6,6,9,9,10,10,13,13,14,14,15,15],"right_children":[2,4,-1,6,8,10,12,-1,-1,14,16,-1,-1,18,20,22,-1,-1,-1,-1,-1,-1,-1],"split_conditions":[3.890944E-1,4.8831204E-1,7.921416E-2,3.5063922E-1,2.2438636E-1,2.3996712E-1,1.6845363E-1,9.976292E-2,-4.3068722E-2,1.4202666E-1,2.9642993E-1,9.5640756E-2,-2.3313656E-2,1.3849129E-1,2.566584E-1,-2.2124846E-2,-5.0940294E-2,-8.011465E-2,5.480249E-3,7.402803E-2,-4.8320323E-2,1.7284384E-2,8.712117E-2],"split_indices":[25,222,0,218,319,107,228,0,0,69,244,0,0,189,287,174,0,0,0,0,0,0,0],"split_type":[0,0,0,0,0,0,0,0,0,0,0,0,0,0,0,0,0,0,0,0,0,0,0],"sum_hessian":[3.2838043E1,2.994268E1,2.8953621E0,2.5842651E1,4.100028E0,2.3056234E1,2.7864175E0,3.0375228E0,1.0625051E0,1.9224552E1,3.831682E0,1.6466694E0,1.1397481E0,1.6449963E1,2.7745907E0,2.742132E0,1.08955E0,1.2730128E1,3.7198343E0,1.6778017E0,1.096789E0,1.0185659E0,1.7235659E0],"tree_param":{"num_deleted":"0","num_feature":"367","num_nodes":"23","size_leaf_vector":"1"}},{"base_weights":[1.0503568E-2,3.028511E-1,-2.5392243E-1,4.9671838E-1,-4.3072248E-1,-3.857166E-1,5.848139E-2,8.092412E-1,-2.9118854E-1,8.811696E-3,-6.889188E-2,-5.076704E-1,5.587546E-2,9.812889E-1,-2.4435569E-2,3.5472285E-2,-8.303417E-2,-1.4620017E-1,-9.1512996E-1,1.1215563E-1,2.2183493E-2,1.9766188E-1,-7.3837236E-2,1.1519529E-2,-1.1352539E-1,-2.7836015E-2,7.802527E-2],"categories":[],"categories_nodes":[],"categories_segments":[],"categories_sizes":[],"default_left":[0,0,0,0,0,0,0,0,0,0,0,0,0,0,0,0,0,0,0,0,0,0,0,0,0,0,0],"id":13,"left_children":[1,3,5,7,9,11,-1,13,15,-1,-1,17,-1,19,-1,-1,-1,21,23,-1,-1,25,-1,-1,-1,-1,-1],"loss_changes":[2.6336117E0,2.5126448E0,2.2053423E0,3.4980936E0,5.8507425E-1,2.1358309E0,0E0,2.0073342E0,1.8610001E0,0E0,0E0,2.0409245E0,0E0,6.653662E-1,0E0,0E0,0E0,1.9815099E0,1.6619015E0,0E0,0E0,2.0175073E0,0E0,0E0,0E0,0E0,0E0],"parents":[2147483647,0,0,1,1,2,2,3,3,4,4,5,5,7,7,8,8,11,11,13,13,17,17,18,18,21,21],"right_children":[2,4,6,8,10,12,-1,14,16,-1,-1,18,-1,20,-1,-1,-1,22,24,-1,-1,26,-1,-1,-1,-1,-1],"split_conditions":[-1.2523832E-2,3.5677403E-1,3.9712712E-1,6.6781975E-2,9.702351E-1,2.3964138E-1,5.848139E-2,3.3889303E-1,2.4652313E-1,8.811696E-3,-6.889188E-2,9.397907E-2,5.587546E-2,5.266283E-1,-2.4435569E-2,3.5472285E-2,-8.303417E-2,5.0609827E-4,4.92913E-2,1.1215563E-1,2.2183493E-2,4.92913E-2,-7.3837236E-2,1.1519529E-2,-1.1352539E-1,-2.7836015E-2,7.802527E-2],"split_indices":[86,269,297,95,0,78,0,235,300,0,0,164,0,211,0,0,0,259,263,0,0,263,0,0,0,0,0],"split_type":[0,0,0,0,0,0,0,0,0,0,0,0,0,0,0,0,0,0,0,0,0,0,0,0,0,0,0],"sum_hessian":[3.207333E1,1.5163431E1,1.6909899E1,1.2249135E1,2.9142964E0,1.5080379E1,1.829521E0,8.750985E0,3.49815E0,1.1872556E0,1.7270408E0,1.3765416E1,1.3149624E0,7.5815763E0,1.1694087E0,1.7471361E0,1.751014E0,8.014399E0,5.751017E0,5.997141E0,1.5844353E0,5.491695E0,2.522704E0,1.0962983E0,4.654719E0,3.3096533E0,2.1820416E0],"tree_param":{"num_deleted":"0","num_feature":"367","num_nodes":"27","size_leaf_vector":"1"}},{"base_weights":[9.499512E-3,2.882119E-1,-2.5246742E-1,5.56229E-1,-4.318683E-1,-5.507903E-1,2.7488384E-1,8.129463E-1,-4.9668968E-2,-7.913144E-2,4.3808255E-2,-7.471652E-1,2.4959361E-2,7.3281264E-1,-6.38069E-2,1.1103829E-1,-1.5544579E-2,-8.905068E-1,2.0028401E-2,1.06184065E-1,-2.2995701E-2,-5.1806312E-2,4.2186435E-2,-1.06981754E-1,6.0494075E-4],"categories":[],"categories_nodes":[],"categories_segments":[],"categories_sizes":[],"default_left":[0,0,0,0,0,0,0,0,0,0,0,0,0,0,0,0,0,0,0,0,0,0,0,0,0],"id":14,"left_children":[1,3,5,7,9,11,13,15,-1,-1,-1,17,-1,19,-1,-1,21,23,-1,-1,-1,-1,-1,-1,-1],"loss_changes":[2.4163926E0,3.3318202E0,2.838354E0,3.6774464E0,1.8814139E0,1.9533587E0,3.3263364E0,2.5101619E0,0E0,0E0,0E0,1.4382668E0,0E0,1.8341792E0,0E0,0E0,1.0227412E0,1.3314104E0,0E0,0E0,0E0,0E0,0E0,0E0,0E0],"parents":[2147483647,0,0,1,1,2,2,3,3,4,4,5,5,6,6,7,7,11,11,13,13,16,16,17,17],"right_children":[2,4,6,8,10,12,14,16,-1,-1,-1,18,-1,20,-1,-1,22,24,-1,-1,-1,-1,-1,-1,-1],"split_conditions":[3.291724E-2,2.3896523E-1,5.5619612E-2,1.325335E-1,1.792306E-1,2.3996712E-1,3.3602956E-1,9.725216E-2,-4.9668968E-2,-7.913144E-2,4.3808255E-2,6.2663E-1,2.4959361E-2,9.9911815E-1,-6.38069E-2,1.1103829E-1,-5.0957114E-2,2.3896523E-1,2.0028401E-2,1.06184065E-1,-2.2995701E-2,-5.1806312E-2,4.2186435E-2,-1.06981754E-1,6.0494075E-4],"split_indices":[3,130,184,178,346,107,205,284,0,0,0,50,0,0,0,0,138,130,0,0,0,0,0,0,0],"split_type":[0,0,0,0,0,0,0,0,0,0,0,0,0,0,0,0,0,0,0,0,0,0,0,0,0],"sum_hessian":[3.1098597E1,1.5019178E1,1.6079418E1,1.1111116E1,3.908062E0,1.0241404E1,5.8380146E0,9.11633E0,1.9947861E0,2.8294022E0,1.0786597E0,8.2771015E0,1.9643025E0,4.019291E0,1.8187237E0,6.457702E0,2.6586277E0,7.241605E0,1.0354967E0,2.9188633E0,1.1004279E0,1.1514221E0,1.5072057E0,5.87363E0,1.3679748E0],"tree_param":{"num_deleted":"0","num_feature":"367","num_nodes":"25","size_leaf_vector":"1"}},{"base_weights":[8.269675E-3,1.2570709E-1,-5.796199E-1,3.116277E-1,-4.0294424E-1,-8.189644E-2,2.0498222E-2,6.625794E-1,-6.5115966E-2,-7.183354E-1,4.3103267E-2,9.403449E-1,-8.853936E-2,-4.7621915E-1,7.9829656E-2,-9.121738E-2,2.59386E-3,1.0884406E-1,7.528572E-3,3.841373E-2,-5.5881888E-2,-6.850206E-1,3.5700727E-2,-8.910995E-2,-1.9289343E-2],"categories":[],"categories_nodes":[],"categories_segments":[],"categories_sizes":[],"default_left":[0,0,0,0,0,0,0,0,0,0,0,0,0,0,0,0,0,0,0,0,0,0,0,0,0],"id":15,"left_children":[1,3,5,7,9,-1,-1,11,13,15,-1,17,19,21,-1,-1,-1,-1,-1,-1,-1,23,-1,-1,-1],"loss_changes":[2.215109E0,2.7483027E0,1.1715306E0,2.7279038E0,2.2505093E0,0E0,0E0,2.2952132E0,4.179347E0,8.5020113E-1,0E0,9.206414E-1,1.0540652E0,1.6150397E0,0E0,0E0,0E0,0E0,0E0,0E0,0E0,5.0166893E-1,0E0,0E0,0E0],"parents":[2147483647,0,0,1,1,2,2,3,3,4,4,7,7,8,8,9,9,11,11,12,12,13,13,21,21],"right_children":[2,4,6,8,10,-1,-1,12,14,16,-1,18,20,22,-1,-1,-1,-1,-1,-1,-1,24,-1,-1,-1],"split_conditions":[3.4107792E-1,4.7769602E-2,3.801928E-1,3.291724E-2,1.707994E-1,-8.189644E-2,2.0498222E-2,3.0467713E-1,5.5619612E-2,3.8131264E-1,4.3103267E-2,3.4644166E-1,3.8342614E-2,2.3996712E-1,7.9829656E-2,-9.121738E-2,2.59386E-3,1.0884406E-1,7.528572E-3,3.841373E-2,-5.5881888E-2,3.2297887E-2,3.5700727E-2,-8.910995E-2,-1.9289343E-2],"split_indices":[104,86,349,3,95,0,0,233,184,23,0,37,249,107,0,0,0,0,0,0,0,334,0,0,0],"split_type":[0,0,0,0,0,0,0,0,0,0,0,0,0,0,0,0,0,0,0,0,0,0,0,0,0],"sum_hessian":[3.0028965E1,2.5684397E1,4.344569E0,1.9305424E1,6.378972E0,3.2954803E0,1.0490887E0,9.60204E0,9.703383E0,4.72917E0,1.6498022E0,6.825886E0,2.7761548E0,6.8772917E0,2.826092E0,3.5730247E0,1.1561455E0,5.6076465E0,1.2182391E0,1.475902E0,1.3002527E0,5.6414485E0,1.2358431E0,3.404923E0,2.2365258E0],"tree_param":{"num_deleted":"0","num_feature":"367","num_nodes":"25","size_leaf_vector":"1"}},{"base_weights":[7.7620517E-3,-1.1530421E-1,5.291953E-1,1.1223163E-2,-8.8459894E-2,9.4460376E-2,-2.271518E-2,4.3954602E-1,-2.87024E-1,7.80959E-1,-4.7641137E-1,-6.391904E-1,3.3959743E-1,9.165413E-1,3.2531887E-3,-1.11122E-2,-6.370236E-2,-8.1201607E-1,2.9561952E-2,-2.659277E-1,7.925549E-2,1.04647E-1,1.2102963E-2,-9.264231E-2,-7.764784E-3,-6.322747E-2,2.1396928E-2],"categories":[],"categories_nodes":[],"categories_segments":[],"categories_sizes":[],"default_left":[0,0,0,0,0,0,0,0,0,0,0,0,0,0,0,0,0,0,0,0,0,0,0,0,0,0,0],"id":16,"left_children":[1,3,5,7,-1,-1,-1,9,11,13,15,17,19,21,-1,-1,-1,23,-1,25,-1,-1,-1,-1,-1,-1,-1],"loss_changes":[1.9922554E0,2.4598665E0,2.076334E0,3.0134966E0,0E0,0E0,0E0,3.3969705E0,3.2909026E0,7.236581E-1,1.19748354E-1,1.7368083E0,1.764477E0,5.193138E-1,0E0,0E0,0E0,6.074109E-1,0E0,6.9310987E-1,0E0,0E0,0E0,0E0,0E0,0E0,0E0],"parents":[2147483647,0,0,1,1,2,2,3,3,7,7,8,8,9,9,10,10,11,11,12,12,13,13,17,17,19,19],"right_children":[2,4,6,8,-1,-1,-1,10,12,14,16,18,20,22,-1,-1,-1,24,-1,26,-1,-1,-1,-1,-1,-1,-1],"split_conditions":[1.1915521E-1,3.5182902E-1,-4.9399505E-3,3.291724E-2,-8.8459894E-2,9.4460376E-2,-2.271518E-2,2.3896523E-1,1.2665097E-1,1.0345873E-1,3.5434657E-1,3.770638E-1,5.5619612E-2,4.6215844E-1,3.2531887E-3,-1.11122E-2,-6.370236E-2,3.5063922E-1,2.9561952E-2,9.581871E-1,7.925549E-2,1.04647E-1,1.2102963E-2,-9.264231E-2,-7.764784E-3,-6.322747E-2,2.1396928E-2],"split_indices":[162,260,140,3,0,0,0,130,217,224,43,108,184,221,0,0,0,218,0,0,0,0,0,0,0,0,0],"split_type":[0,0,0,0,0,0,0,0,0,0,0,0,0,0,0,0,0,0,0,0,0,0,0,0,0,0,0],"sum_hessian":[2.9095243E1,2.4169695E1,4.9255486E0,2.1602158E1,2.567537E0,3.0186908E0,1.9068576E0,8.672919E0,1.2929238E1,6.4253325E0,2.2475867E0,8.264476E0,4.664762E0,5.249694E0,1.1756386E0,1.2031226E0,1.0444641E0,7.085821E0,1.1786548E0,2.1728923E0,2.49187E0,4.241477E0,1.0082169E0,5.9044456E0,1.1813753E0,1.0521632E0,1.1207291E0],"tree_param":{"num_deleted":"0","num_feature":"367","num_nodes":"27","size_leaf_vector":"1"}},{"base_weights":[7.219094E-3,-8.26597E-2,6.956845E-2,-1.9427149E-1,5.353813E-1,-2.9502115E-1,5.576521E-1,8.6560555E-2,-2.7225507E-2,-4.0706602E-1,4.5141456E-1,1.6769452E-2,6.829097E-2,-5.311849E-1,3.9820856E-1,7.893306E-2,-1.337436E-2,-6.520551E-2,2.5636205E-2,-1.8377459E-2,7.832033E-2],"categories":[],"categories_nodes":[],"categories_segments":[],"categories_sizes":[],"default_left":[0,0,0,0,0,0,0,0,0,0,0,0,0,0,0,0,0,0,0,0,0],"id":17,"left_children":[1,3,-1,5,7,9,11,-1,-1,13,15,-1,-1,17,19,-1,-1,-1,-1,-1,-1],"loss_changes":[1.8641831E0,1.9471371E0,0E0,1.9346404E0,1.3967259E0,1.9617541E0,3.723526E-2,0E0,0E0,2.1116054E0,7.479717E-1,0E0,0E0,1.7758927E0,8.408376E-1,0E0,0E0,0E0,0E0,0E0,0E0],"parents":[2147483647,0,0,1,1,3,3,4,4,5,5,6,6,9,9,10,10,13,13,14,14],"right_children":[2,4,-1,6,8,10,12,-1,-1,14,16,-1,-1,18,20,-1,-1,-1,-1,-1,-1],"split_conditions":[3.890944E-1,4.8831204E-1,6.956845E-2,5.297445E-1,3.3731914E-1,3.648461E-1,1.3849129E-1,8.6560555E-2,-2.7225507E-2,3.5063922E-1,4.04E1,1.6769452E-2,6.829097E-2,4.122481E-1,-5.545392E-2,7.893306E-2,-1.337436E-2,-6.520551E-2,2.5636205E-2,-1.8377459E-2,7.832033E-2],"split_indices":[25,222,0,216,272,210,189,0,0,218,2,0,0,344,306,0,0,0,0,0,0],"split_type":[0,0,0,0,0,0,0,0,0,0,0,0,0,0,0,0,0,0,0,0,0],"sum_hessian":[2.8197216E1,2.5719486E1,2.477729E0,2.2366072E1,3.3534145E0,2.0259201E1,2.1068697E0,2.3292575E0,1.0241568E0,1.801038E1,2.2488225E0,1.0808173E0,1.0260525E0,1.5900037E1,2.1103423E0,1.2043931E0,1.0444292E0,1.3933597E1,1.9664408E0,1.0483081E0,1.0620342E0],"tree_param":{"num_deleted":"0","num_feature":"367","num_nodes":"21","size_leaf_vector":"1"}},{"base_weights":[1.7247543E-2,-1.021965E-1,5.1619756E-1,1.9879103E-2,-8.390098E-2,8.671308E-2,-2.739341E-2,4.1649255E-1,-2.5585082E-1,7.41412E-1,-4.4881072E-2,-5.936048E-1,3.3445227E-1,8.759305E-1,2.473587E-3,-7.604429E-1,2.7907744E-2,-2.3792101E-2,7.519378E-2,9.999382E-2,1.3601527E-2,-2.4350753E-2,-9.468632E-2],"categories":[],"categories_nodes":[],"categories_segments":[],"categories_sizes":[],"default_left":[0,0,0,0,0,0,0,0,0,0,0,0,0,0,0,0,0,0,0,0,0,0,0],"id":18,"left_children":[1,3,5,7,-1,-1,-1,9,11,13,-1,15,17,19,-1,21,-1,-1,-1,-1,-1,-1,-1],"loss_changes":[1.7578602E0,2.1681468E0,1.8156936E0,2.4573743E0,0E0,0E0,0E0,2.918328E0,2.850283E0,6.5923834E-1,0E0,1.496403E0,1.4883983E0,4.069667E-1,0E0,5.088577E-1,0E0,0E0,0E0,0E0,0E0,0E0,0E0],"parents":[2147483647,0,0,1,1,2,2,3,3,7,7,8,8,9,9,11,11,12,12,13,13,15,15],"right_children":[2,4,6,8,-1,-1,-1,10,12,14,-1,16,18,20,-1,22,-1,-1,-1,-1,-1,-1,-1],"split_conditions":[1.1915521E-1,3.5182902E-1,1.8772155E-1,3.291724E-2,-8.390098E-2,8.671308E-2,-2.739341E-2,2.3896523E-1,1.2665097E-1,1.0345873E-1,-4.4881072E-2,3.770638E-1,5.5619612E-2,-1.7883655E-2,2.473587E-3,-1.2523832E-2,2.7907744E-2,-2.3792101E-2,7.519378E-2,9.999382E-2,1.3601527E-2,-2.4350753E-2,-9.468632E-2],"split_indices":[162,260,192,3,0,0,0,130,217,224,0,108,184,359,0,86,0,0,0,0,0,0,0],"split_type":[0,0,0,0,0,0,0,0,0,0,0,0,0,0,0,0,0,0,0,0,0,0,0],"sum_hessian":[2.76108E1,2.2919306E1,4.691494E0,2.0496462E1,2.422844E0,3.18115E0,1.5103439E0,8.196296E0,1.2300166E1,6.0628757E0,2.1334195E0,7.820127E0,4.480039E0,4.9176345E0,1.1452413E0,6.6730056E0,1.1471211E0,2.0709174E0,2.4091218E0,3.9107773E0,1.0068574E0,2.3798933E0,4.2931128E0],"tree_param":{"num_deleted":"0","num_feature":"367","num_nodes":"23","size_leaf_vector":"1"}},{"base_weights":[1.6401462E-2,1.2383888E-1,-5.177746E-1,2.8595048E-1,-3.2828933E-1,-7.042298E-2,2.3749548E-3,5.2320164E-1,-2.2426726E-1,-6.3031185E-1,4.15929E-2,7.3581123E-1,-2.988251E-1,-6.992212E-1,5.0265443E-1,-8.328938E-2,7.646932E-3,8.8202775E-1,-1.50361685E-2,2.3305384E-2,-6.542495E-2,-9.539875E-2,3.4561572E-3,7.242825E-2,1.4967065E-3,9.482651E-2,1.8011896E-2],"categories":[],"categories_nodes":[],"categories_segments":[],"categories_sizes":[],"default_left":[0,0,0,0,0,0,0,0,0,0,0,0,0,0,0,0,0,0,0,0,0,0,0,0,0,0,0],"id":19,"left_children":[1,3,5,7,9,-1,-1,11,13,15,-1,17,19,21,23,-1,-1,25,-1,-1,-1,-1,-1,-1,-1,-1,-1],"loss_changes":[1.6595271E0,1.8493829E0,5.06222E-1,2.3161335E0,1.7876365E0,0E0,0E0,2.4392836E0,2.5836937E0,8.1183577E-1,0E0,1.4773641E0,7.8023183E-1,8.421886E-1,3.2819873E-1,0E0,0E0,2.50144E-1,0E0,0E0,0E0,0E0,0E0,0E0,0E0,0E0,0E0],"parents":[2147483647,0,0,1,1,2,2,3,3,4,4,7,7,8,8,9,9,11,11,12,12,13,13,14,14,17,17],"right_children":[2,4,6,8,10,-1,-1,12,14,16,-1,18,20,22,24,-1,-1,26,-1,-1,-1,-1,-1,-1,-1,-1,-1],"split_conditions":[3.4107792E-1,4.7769602E-2,2.9963142E-1,9.725216E-2,1.707994E-1,-7.042298E-2,2.3749548E-3,1.287747E-1,-2.1901583E-2,3.8131264E-1,4.15929E-2,4.4719064E-1,-1.6403819E-2,1.2518978E-1,9.702351E-1,-8.328938E-2,7.646932E-3,3.6598867E-1,-1.50361685E-2,2.3305384E-2,-6.542495E-2,-9.539875E-2,3.4561572E-3,7.242825E-2,1.4967065E-3,9.482651E-2,1.8011896E-2],"split_indices":[104,86,188,284,95,0,0,30,223,23,0,190,87,285,0,0,0,343,0,0,0,0,0,0,0,0,0],"split_type":[0,0,0,0,0,0,0,0,0,0,0,0,0,0,0,0,0,0,0,0,0,0,0,0,0,0,0],"sum_hessian":[2.6799139E1,2.2951195E1,3.8479445E0,1.7164404E1,5.786791E0,2.6388788E0,1.2090656E0,1.1698948E1,5.4654565E0,4.225167E0,1.5616236E0,9.378236E0,2.3207119E0,3.32868E0,2.1367764E0,3.1452298E0,1.0799373E0,8.054018E0,1.3242172E0,1.0675135E0,1.2531984E0,2.248066E0,1.0806141E0,1.1355793E0,1.0011972E0,7.038804E0,1.0152147E0],"tree_param":{"num_deleted":"0","num_feature":"367","num_nodes":"27","size_leaf_vector":"1"}},{"base_weights":[1.2957683E-2,-7.171516E-2,6.498784E-2,-1.8984713E-1,4.3045184E-1,-2.9818398E-1,7.5020336E-2,8.4286556E-2,-2.1958021E-2,-4.037964E-1,5.1296372E-2,-4.8569062E-1,3.75922E-2,-6.7181244E-2,3.449099E-3],"categories":[],"categories_nodes":[],"categories_segments":[],"categories_sizes":[],"default_left":[0,0,0,0,0,0,0,0,0,0,0,0,0,0,0],"id":20,"left_children":[1,3,-1,5,7,9,-1,-1,-1,11,-1,13,-1,-1,-1],"loss_changes":[1.501244E0,1.5474683E0,0E0,2.3314986E0,1.5285981E0,1.8582494E0,0E0,0E0,0E0,1.3072355E0,0E0,1.6085539E0,0E0,0E0,0E0],"parents":[2147483647,0,0,1,1,3,3,4,4,5,5,9,9,11,11],"right_children":[2,4,-1,6,8,10,-1,-1,-1,12,-1,14,-1,-1,-1],"split_conditions":[3.890944E-1,1.1915521E-1,6.498784E-2,4.6472016E-1,2.0678367E-2,4.8010898E-1,7.5020336E-2,8.4286556E-2,-2.1958021E-2,3.8454637E-1,5.1296372E-2,2.6854858E-1,3.75922E-2,-6.7181244E-2,3.449099E-3],"split_indices":[25,162,0,204,340,240,0,0,0,195,0,169,0,0,0],"split_type":[0,0,0,0,0,0,0,0,0,0,0,0,0,0,0],"sum_hessian":[2.5972757E1,2.370835E1,2.2644074E0,1.9696745E1,4.0116043E0,1.8273592E1,1.423154E0,2.2729049E0,1.7386997E0,1.6612778E1,1.6608131E0,1.5375026E1,1.2377517E0,1.11087885E1,4.2662377E0],"tree_param":{"num_deleted":"0","num_feature":"367","num_nodes":"15","size_leaf_vector":"1"}},{"base_weights":[2.0594828E-2,1.22278616E-1,-4.8358846E-1,7.6864935E-3,7.1114235E-2,-6.564821E-2,1.963744E-3,2.4080151E-1,-3.7001148E-1,4.4384465E-1,-5.0894535E-1,-7.5510937E-1,3.9506942E-1,6.8284583E-1,-3.9489772E-2,-6.6574305E-2,-9.822865E-3,-1.0344688E-1,7.0880973E-3,7.757931E-2,-1.7086146E-2,8.440728E-2,-1.2873374E-2],"categories":[],"categories_nodes":[],"categories_segments":[],"categories_sizes":[],"default_left":[0,0,0,0,0,0,0,0,0,0,0,0,0,0,0,0,0,0,0,0,0,0,0],"id":21,"left_children":[1,3,5,7,-1,-1,-1,9,11,13,15,17,19,21,-1,-1,-1,-1,-1,-1,-1,-1,-1],"loss_changes":[1.4131082E0,1.5314286E0,4.160955E-1,1.8567868E0,0E0,0E0,0E0,2.2079709E0,2.6719906E0,2.4305599E0,1.4329064E-1,1.3891625E0,8.5520166E-1,1.2543187E0,0E0,0E0,0E0,0E0,0E0,0E0,0E0,0E0,0E0],"parents":[2147483647,0,0,1,1,2,2,3,3,7,7,8,8,9,9,10,10,11,11,12,12,13,13],"right_children":[2,4,6,8,-1,-1,-1,10,12,14,16,18,20,22,-1,-1,-1,-1,-1,-1,-1,-1,-1],"split_conditions":[3.4107792E-1,3.648461E-1,2.9963142E-1,9.725216E-2,7.1114235E-2,-6.564821E-2,1.963744E-3,4.7769602E-2,4.8524577E-2,1.287747E-1,1.1065804E-1,1.0946581E-1,2.1899422E-1,4.4719064E-1,-3.9489772E-2,-6.6574305E-2,-9.822865E-3,-1.0344688E-1,7.0880973E-3,7.757931E-2,-1.7086146E-2,8.440728E-2,-1.2873374E-2],"split_indices":[104,210,188,284,0,0,0,86,103,30,90,226,168,190,0,0,0,0,0,0,0,0,0],"split_type":[0,0,0,0,0,0,0,0,0,0,0,0,0,0,0,0,0,0,0,0,0,0,0],"sum_hessian":[2.5410137E1,2.1775852E1,3.6342862E0,1.9076618E1,2.6992328E0,2.478276E0,1.1560102E0,1.2020204E1,7.056415E0,9.779713E0,2.240491E0,4.702486E0,2.353929E0,7.7556076E0,2.024105E0,1.172095E0,1.0683961E0,3.3253999E0,1.3770864E0,1.1855422E0,1.1683867E0,6.4368396E0,1.3187681E0],"tree_param":{"num_deleted":"0","num_feature":"367","num_nodes":"23","size_leaf_vector":"1"}},{"base_weights":[1.6375368E-2,1.5836918E-1,-3.2531038E-1,2.4953346E-1,-6.6123635E-2,-6.1369574E-1,6.9610626E-2,3.725197E-1,-4.4303473E-2,-8.068049E-2,1.1130592E-2,6.1735624E-1,-2.6622236E-1,7.394276E-1,-1.8344235E-2,2.3687121E-1,-8.216268E-2,9.313377E-2,1.5419903E-2,6.512558E-2,-2.9494649E-2],"categories":[],"categories_nodes":[],"categories_segments":[],"categories_sizes":[],"default_left":[0,0,0,0,0,0,0,0,0,0,0,0,0,0,0,0,0,0,0,0,0],"id":22,"left_children":[1,3,5,7,-1,9,-1,11,-1,-1,-1,13,15,17,-1,19,-1,-1,-1,-1,-1],"loss_changes":[1.2957196E0,1.5688617E0,2.7412376E0,1.6670362E0,0E0,1.0219054E0,0E0,2.5911708E0,0E0,0E0,0E0,1.2617068E0,1.5913525E0,1.0013318E0,0E0,9.411637E-1,0E0,0E0,0E0,0E0,0E0],"parents":[2147483647,0,0,1,1,2,2,3,3,5,5,7,7,11,11,12,12,13,13,15,15],"right_children":[2,4,6,8,-1,10,-1,12,-1,-1,-1,14,16,18,-1,20,-1,-1,-1,-1,-1],"split_conditions":[1.6781344E-1,5.4215825E-1,1.519486E-1,3.3889303E-1,-6.6123635E-2,2.620246E-1,6.9610626E-2,3.4356582E-1,-4.4303473E-2,-8.068049E-2,1.1130592E-2,5.266283E-1,1.0345873E-1,3.7648982E-1,-1.8344235E-2,1.1065804E-1,-8.216268E-2,9.313377E-2,1.5419903E-2,6.512558E-2,-2.9494649E-2],"split_indices":[29,225,172,235,0,9,0,8,0,0,0,211,224,232,0,90,0,0,0,0,0],"split_type":[0,0,0,0,0,0,0,0,0,0,0,0,0,0,0,0,0,0,0,0,0],"sum_hessian":[2.4644487E1,1.7788609E1,6.855879E0,1.6633966E1,1.1546426E0,5.6576715E0,1.1982074E0,1.45179825E1,2.1159844E0,4.3785763E0,1.2790952E0,1.0519303E1,3.9986787E0,9.194377E0,1.3249267E0,2.399076E0,1.5996027E0,6.4785132E0,2.7158635E0,1.2221838E0,1.176892E0],"tree_param":{"num_deleted":"0","num_feature":"367","num_nodes":"21","size_leaf_vector":"1"}},{"base_weights":[1.2660325E-2,-9.149399E-2,4.5159733E-1,2.365626E-2,-7.6221526E-2,7.818734E-2,-2.5350729E-2,3.9826113E-1,-2.2495164E-1,6.942618E-1,-3.8983967E-2,-5.4616374E-1,3.1578457E-1,8.602332E-2,-5.1610887E-6,-7.0267874E-1,2.5138913E-2,-2.3257714E-2,7.0762925E-2,-8.199508E-2,-2.6500875E-3],"categories":[],"categories_nodes":[],"categories_segments":[],"categories_sizes":[],"default_left":[0,0,0,0,0,0,0,0,0,0,0,0,0,0,0,0,0,0,0,0,0],"id":23,"left_children":[1,3,5,7,-1,-1,-1,9,11,13,-1,15,17,-1,-1,19,-1,-1,-1,-1,-1],"loss_changes":[1.1801118E0,1.6371506E0,1.3499444E0,1.846207E0,0E0,0E0,0E0,2.110115E0,2.252727E0,7.020514E-1,0E0,1.1602848E0,1.2597579E0,0E0,0E0,5.215075E-1,0E0,0E0,0E0,0E0,0E0],"parents":[2147483647,0,0,1,1,2,2,3,3,7,7,8,8,9,9,11,11,12,12,15,15],"right_children":[2,4,6,8,-1,-1,-1,10,12,14,-1,16,18,-1,-1,20,-1,-1,-1,-1,-1],"split_conditions":[1.1915521E-1,3.5182902E-1,1.8772155E-1,3.291724E-2,-7.6221526E-2,7.818734E-2,-2.5350729E-2,2.3896523E-1,1.2665097E-1,2.7149668E-1,-3.8983967E-2,3.770638E-1,5.5619612E-2,8.602332E-2,-5.1610887E-6,2.3735994E-1,2.5138913E-2,-2.3257714E-2,7.0762925E-2,-8.199508E-2,-2.6500875E-3],"split_indices":[162,260,192,3,0,0,0,130,217,301,0,108,184,0,0,27,0,0,0,0,0],"split_type":[0,0,0,0,0,0,0,0,0,0,0,0,0,0,0,0,0,0,0,0,0],"sum_hessian":[2.3909525E1,1.9963896E1,3.9456296E0,1.7862047E1,2.1018481E0,2.612868E0,1.3327615E0,6.8852773E0,1.0976769E1,5.091896E0,1.7933813E0,6.87989E0,4.0968795E0,3.9166698E0,1.1752261E0,5.850684E0,1.0292058E0,1.8768302E0,2.2200494E0,4.804753E0,1.0459316E0],"tree_param":{"num_deleted":"0","num_feature":"367","num_nodes":"21","size_leaf_vector":"1"}},{"base_weights":[1.2340511E-2,-6.7207E-2,5.9287637E-2,-1.634985E-1,4.6480015E-1,-2.6455852E-1,4.55698E-1,7.1986966E-2,-9.462269E-3,-3.5518628E-1,4.0816694E-2,1.7334198E-3,6.8135165E-2,-4.6609738E-1,3.6038507E-2,-5.8827795E-2,2.352028E-2],"categories":[],"categories_nodes":[],"categories_segments":[],"categories_sizes":[],"default_left":[0,0,0,0,0,0,0,0,0,0,0,0,0,0,0,0,0],"id":24,"left_children":[1,3,-1,5,7,9,11,-1,-1,13,-1,-1,-1,15,-1,-1,-1],"loss_changes":[1.1581479E0,1.2130429E0,0E0,1.3429201E0,5.906417E-1,1.2073889E0,2.956426E-1,0E0,0E0,1.4292178E0,0E0,0E0,0E0,1.3546796E0,0E0,0E0,0E0],"parents":[2147483647,0,0,1,1,3,3,4,4,5,5,6,6,9,9,13,13],"right_children":[2,4,-1,6,8,10,12,-1,-1,14,-1,-1,-1,16,-1,-1,-1],"split_conditions":[3.890944E-1,4.8831204E-1,5.9287637E-2,3.5063922E-1,-1.2523832E-2,5.297445E-1,2.601344E-1,7.1986966E-2,-9.462269E-3,3.648461E-1,4.0816694E-2,1.7334198E-3,6.8135165E-2,3.9129776E-1,3.6038507E-2,-5.8827795E-2,2.352028E-2],"split_indices":[25,222,0,218,86,216,51,0,0,210,0,0,0,38,0,0,0],"split_type":[0,0,0,0,0,0,0,0,0,0,0,0,0,0,0,0,0],"sum_hessian":[2.321607E1,2.1195944E1,2.0201263E0,1.8534025E1,2.6619203E0,1.6425873E1,2.1081524E0,1.6313131E0,1.0306072E0,1.4891719E1,1.5341532E0,1.0823511E0,1.0258014E0,1.3195151E1,1.6965673E0,1.1374625E1,1.8205266E0],"tree_param":{"num_deleted":"0","num_feature":"367","num_nodes":"17","size_leaf_vector":"1"}},{"base_weights":[2.1141946E-2,1.5786803E-1,-3.054939E-1,2.4356517E-1,-6.0934614E-2,-5.809805E-1,6.569276E-2,4.0298244E-1,-2.4795523E-1,-7.682156E-2,1.0382205E-2,5.853201E-1,-4.0479448E-2,2.2607613E-1,-7.602863E-2,6.9905293E-1,-1.50013E-2,6.0709167E-2,-2.6586968E-2,8.108391E-2,-6.712445E-3],"categories":[],"categories_nodes":[],"categories_segments":[],"categories_sizes":[],"default_left":[0,0,0,0,0,0,0,0,0,0,0,0,0,0,0,0,0,0,0,0,0],"id":25,"left_children":[1,3,5,7,-1,9,-1,11,13,-1,-1,15,-1,17,-1,19,-1,-1,-1,-1,-1],"loss_changes":[1.1096293E0,1.2932796E0,2.3313444E0,1.38323E0,0E0,8.808403E-1,0E0,2.114518E0,1.2963426E0,0E0,0E0,1.0088346E0,0E0,7.5666046E-1,0E0,8.713174E-1,0E0,0E0,0E0,0E0,0E0],"parents":[2147483647,0,0,1,1,2,2,3,3,5,5,7,7,8,8,11,11,13,13,15,15],"right_children":[2,4,6,8,-1,10,-1,12,14,-1,-1,16,-1,18,-1,20,-1,-1,-1,-1,-1],"split_conditions":[1.6781344E-1,5.4215825E-1,1.519486E-1,3.4356582E-1,-6.0934614E-2,2.620246E-1,6.569276E-2,3.3889303E-1,1.0345873E-1,-7.682156E-2,1.0382205E-2,5.266283E-1,-4.0479448E-2,1.1065804E-1,-7.602863E-2,3.4107792E-1,-1.50013E-2,6.0709167E-2,-2.6586968E-2,8.108391E-2,-6.712445E-3],"split_indices":[29,225,172,8,0,9,0,235,224,0,0,211,0,90,0,104,0,0,0,0,0],"split_type":[0,0,0,0,0,0,0,0,0,0,0,0,0,0,0,0,0,0,0,0,0],"sum_hessian":[2.2766462E1,1.6412895E1,6.353568E0,1.5377747E1,1.0351477E0,5.2477655E0,1.1058024E0,1.174769E1,3.6300564E0,4.0253654E0,1.2224004E0,9.808935E0,1.9387549E0,2.1757169E0,1.4543393E0,8.537753E0,1.2711825E0,1.0941938E0,1.0815232E0,7.3998194E0,1.1379335E0],"tree_param":{"num_deleted":"0","num_feature":"367","num_nodes":"21","size_leaf_vector":"1"}},{"base_weights":[1.605662E-2,-8.3598435E-2,4.292003E-1,2.7241755E-2,-7.195441E-2,7.866138E-2,-1.6814893E-2,3.7801585E-1,-2.042693E-1,6.589352E-1,-3.641881E-2,-5.1733214E-1,3.1672144E-1,8.14335E-2,8.915318E-4,-6.570741E-1,9.245146E-3,-1.9950723E-2,6.721064E-2,-8.423846E-2,1.4869147E-3],"categories":[],"categories_nodes":[],"categories_segments":[],"categories_sizes":[],"default_left":[0,0,0,0,0,0,0,0,0,0,0,0,0,0,0,0,0,0,0,0,0],"id":26,"left_children":[1,3,5,7,-1,-1,-1,9,11,13,-1,15,17,-1,-1,19,-1,-1,-1,-1,-1],"loss_changes":[9.864402E-1,1.3897427E0,1.1249973E0,1.4996856E0,0E0,0E0,0E0,1.7651786E0,1.9907982E0,5.647335E-1,0E0,6.893214E-1,1.0192187E0,0E0,0E0,7.751515E-1,0E0,0E0,0E0,0E0,0E0],"parents":[2147483647,0,0,1,1,2,2,3,3,7,7,8,8,9,9,11,11,12,12,15,15],"right_children":[2,4,6,8,-1,-1,-1,10,12,14,-1,16,18,-1,-1,20,-1,-1,-1,-1,-1],"split_conditions":[1.1915521E-1,3.5182902E-1,-4.9399505E-3,3.291724E-2,-7.195441E-2,7.866138E-2,-1.6814893E-2,2.3896523E-1,1.2665097E-1,2.7149668E-1,-3.641881E-2,2.62038E-1,5.5619612E-2,8.14335E-2,8.915318E-4,2.601344E-1,9.245146E-3,-1.9950723E-2,6.721064E-2,-8.423846E-2,1.4869147E-3],"split_indices":[162,260,140,3,0,0,0,130,217,301,0,209,184,0,0,51,0,0,0,0,0],"split_type":[0,0,0,0,0,0,0,0,0,0,0,0,0,0,0,0,0,0,0,0,0],"sum_hessian":[2.2087612E1,1.8437841E1,3.649769E0,1.651634E1,1.9215015E0,2.085253E0,1.564516E0,6.3151374E0,1.0201203E1,4.662575E0,1.6525629E0,6.376558E0,3.8246453E0,3.5589533E0,1.1036214E0,5.124615E0,1.2519429E0,1.7382692E0,2.0863762E0,3.8180165E0,1.3065985E0],"tree_param":{"num_deleted":"0","num_feature":"367","num_nodes":"21","size_leaf_vector":"1"}},{"base_weights":[1.5412203E-2,2.2627695E-1,-1.6977508E-1,6.686805E-1,-5.1142033E-2,-3.9420766E-1,2.2056675E-1,8.082871E-2,1.2739933E-2,1.468825E-1,-6.411294E-2,-5.506963E-1,2.5628356E-2,6.6661805E-2,-2.087126E-1,3.9983812E-1,-4.7378715E-2,-6.8248284E-1,3.5468605E-3,-5.3390373E-2,2.3738561E-2,6.295746E-1,-1.5818814E-2,-8.1577994E-2,-6.209431E-3,7.379861E-2,2.1603E-2],"categories":[],"categories_nodes":[],"categories_segments":[],"categories_sizes":[],"default_left":[0,0,0,0,0,0,0,0,0,0,0,0,0,0,0,0,0,0,0,0,0,0,0,0,0,0,0],"id":27,"left_children":[1,3,5,7,9,11,13,-1,-1,15,-1,17,-1,-1,19,21,-1,23,-1,-1,-1,25,-1,-1,-1,-1,-1],"loss_changes":[9.152288E-1,1.3753707E0,1.1843088E0,2.2064435E-1,9.873681E-1,9.8725784E-1,1.1375277E0,0E0,0E0,1.2158461E0,0E0,5.663214E-1,0E0,0E0,6.2266135E-1,7.645525E-1,0E0,4.2724586E-1,0E0,0E0,0E0,1.4304042E-2,0E0,0E0,0E0,0E0,0E0],"parents":[2147483647,0,0,1,1,2,2,3,3,4,4,5,5,6,6,9,9,11,11,14,14,15,15,17,17,21,21],"right_children":[2,4,6,8,10,12,14,-1,-1,16,-1,18,-1,-1,20,22,-1,24,-1,-1,-1,26,-1,-1,-1,-1,-1],"split_conditions":[-1.2523832E-2,4.04E1,3.60991E-2,9.200486E-2,3.4107792E-1,3.555874E-1,1.541476E-1,8.082871E-2,1.2739933E-2,9.725216E-2,-6.411294E-2,1.2665097E-1,2.5628356E-2,6.6661805E-2,1.9428313E-1,9.3138106E-2,-4.7378715E-2,5.5619612E-2,3.5468605E-3,-5.3390373E-2,2.3738561E-2,9.693322E-1,-1.5818814E-2,-8.1577994E-2,-6.209431E-3,7.379861E-2,2.1603E-2],"split_indices":[86,2,76,350,104,58,184,0,0,284,0,217,0,0,312,94,0,184,0,0,0,0,0,0,0,0,0],"split_type":[0,0,0,0,0,0,0,0,0,0,0,0,0,0,0,0,0,0,0,0,0,0,0,0,0,0,0],"sum_hessian":[2.1453892E1,9.927732E0,1.152616E1,3.2825866E0,6.645146E0,7.312075E0,4.214085E0,2.217394E0,1.0651925E0,5.537552E0,1.1075938E0,6.0177903E0,1.2942848E0,1.7955283E0,2.4185567E0,4.186946E0,1.350606E0,4.7790136E0,1.2387769E0,1.285002E0,1.1335547E0,2.8750758E0,1.3118703E0,3.6745474E0,1.104466E0,1.6563283E0,1.2187474E0],"tree_param":{"num_deleted":"0","num_feature":"367","num_nodes":"27","size_leaf_vector":"1"}},{"base_weights":[1.6057411E-2,1.0532793E-1,-4.0964845E-1,-5.5447444E-2,4.6649474E-1,3.7694406E-3,-5.7708215E-2,2.4661197E-1,-3.7456575E-1,8.265614E-2,-2.7418403E-2,4.640401E-1,-5.9375912E-2,-6.068614E-1,1.4348258E-1,6.1272323E-1,-1.6981425E-2,-7.2124206E-2,-1.4684846E-2,4.048616E-2,-1.9111061E-2,7.637776E-2,2.7215967E-5],"categories":[],"categories_nodes":[],"categories_segments":[],"categories_sizes":[],"default_left":[0,0,0,0,0,0,0,0,0,0,0,0,0,0,0,0,0,0,0,0,0,0,0],"id":28,"left_children":[1,3,5,7,9,-1,-1,11,13,-1,-1,15,-1,17,19,21,-1,-1,-1,-1,-1,-1,-1],"loss_changes":[8.7508935E-1,1.1228682E0,3.213083E-1,1.4386386E0,1.8069559E0,0E0,0E0,1.6967279E0,9.521375E-1,0E0,0E0,7.393038E-1,0E0,1.6528547E-1,3.4273338E-1,5.249772E-1,0E0,0E0,0E0,0E0,0E0,0E0,0E0],"parents":[2147483647,0,0,1,1,2,2,3,3,4,4,7,7,8,8,11,11,13,13,14,14,15,15],"right_children":[2,4,6,8,10,-1,-1,12,14,-1,-1,16,-1,18,20,22,-1,-1,-1,-1,-1,-1,-1],"split_conditions":[3.4107792E-1,1.3594216E-3,-8.980539E-2,-3.3912517E-2,1.541476E-1,3.7694406E-3,-5.7708215E-2,4.4719064E-1,-1.4613887E-2,8.265614E-2,-2.7418403E-2,-7.713456E-2,-5.9375912E-2,2.9963142E-1,7.58883E-2,1.325335E-1,-1.6981425E-2,-7.2124206E-2,-1.4684846E-2,4.048616E-2,-1.9111061E-2,7.637776E-2,2.7215967E-5],"split_indices":[104,176,261,5,184,0,0,190,103,0,0,75,0,188,35,178,0,0,0,0,0,0,0],"split_type":[0,0,0,0,0,0,0,0,0,0,0,0,0,0,0,0,0,0,0,0,0,0,0],"sum_hessian":[2.0891489E1,1.7892096E1,2.9993918E0,1.2966476E1,4.9256206E0,1.0279157E0,1.9714762E0,6.778006E0,6.18847E0,3.23637E0,1.6892502E0,5.7405705E0,1.0374352E0,4.154246E0,2.034224E0,4.676858E0,1.0637128E0,2.8722084E0,1.2820377E0,1.024157E0,1.010067E0,3.553374E0,1.1234837E0],"tree_param":{"num_deleted":"0","num_feature":"367","num_nodes":"23","size_leaf_vector":"1"}},{"base_weights":[1.2094577E-2,-8.6042315E-2,4.1725475E-1,1.872776E-2,-6.724744E-2,7.138541E-2,-2.0293027E-2,-8.134622E-2,6.733296E-2,-2.5788525E-1,4.3386853E-1,1.4843044E-1,-4.8532882E-1,6.886277E-2,-1.8914754E-2,5.1098365E-2,-4.6853412E-2,-7.6573126E-2,1.7117035E-2],"categories":[],"categories_nodes":[],"categories_segments":[],"categories_sizes":[],"default_left":[0,0,0,0,0,0,0,0,0,0,0,0,0,0,0,0,0,0,0],"id":29,"left_children":[1,3,5,7,-1,-1,-1,9,-1,11,13,15,17,-1,-1,-1,-1,-1,-1],"loss_changes":[8.8367337E-1,1.1181052E0,9.410595E-1,1.1185509E0,0E0,0E0,0E0,1.4741851E0,0E0,1.1609004E0,7.9610455E-1,1.3565469E0,1.5647482E0,0E0,0E0,0E0,0E0,0E0,0E0],"parents":[2147483647,0,0,1,1,2,2,3,3,7,7,9,9,10,10,11,11,12,12],"right_children":[2,4,6,8,-1,-1,-1,10,-1,12,14,16,18,-1,-1,-1,-1,-1,-1],"split_conditions":[1.1915521E-1,3.5182902E-1,1.8772155E-1,4.6472016E-1,-6.724744E-2,7.138541E-2,-2.0293027E-2,7.58883E-2,6.733296E-2,3.291724E-2,1.22894846E-1,2.3896523E-1,1.2665097E-1,6.886277E-2,-1.8914754E-2,5.1098365E-2,-4.6853412E-2,-7.6573126E-2,1.7117035E-2],"split_indices":[162,260,192,204,0,0,0,35,0,3,309,130,217,0,0,0,0,0,0],"split_type":[0,0,0,0,0,0,0,0,0,0,0,0,0,0,0,0,0,0,0],"sum_hessian":[2.0321608E1,1.6993193E1,3.3284152E0,1.523875E1,1.7544416E0,2.1494303E0,1.1789849E0,1.3977617E1,1.2611334E0,1.0782455E1,3.195162E0,3.9942825E0,6.7881727E0,2.1930735E0,1.0020885E0,2.624058E0,1.3702244E0,4.6399727E0,2.1482003E0],"tree_param":{"num_deleted":"0","num_feature":"367","num_nodes":"19","size_leaf_vector":"1"}},{"base_weights":[1.3365225E-2,1.3894917E-1,-2.8440243E-1,3.707193E-1,-1.2223259E-1,-5.9854007E-1,4.5170717E-2,5.9857976E-1,-4.101429E-2,3.129715E-1,-4.7104988E-1,-7.319396E-2,-4.028314E-3,7.646292E-1,-1.514013E-2,5.7949465E-2,-2.1077178E-2,-7.287711E-2,1.9327283E-2,9.3992874E-2,2.5513181E-3],"categories":[],"categories_nodes":[],"categories_segments":[],"categories_sizes":[],"default_left":[0,0,0,0,0,0,0,0,0,0,0,0,0,0,0,0,0,0,0,0,0],"id":30,"left_children":[1,3,5,7,9,11,-1,13,-1,15,17,-1,-1,19,-1,-1,-1,-1,-1,-1,-1],"loss_changes":[8.146136E-1,9.684919E-1,1.7680628E0,1.7273172E0,1.3500912E0,3.4061074E-1,0E0,9.692621E-1,0E0,6.980226E-1,9.621161E-1,0E0,0E0,7.244568E-1,0E0,0E0,0E0,0E0,0E0,0E0,0E0],"parents":[2147483647,0,0,1,1,2,2,3,3,4,4,5,5,7,7,9,9,10,10,13,13],"right_children":[2,4,6,8,10,12,-1,14,-1,16,18,-1,-1,20,-1,-1,-1,-1,-1,-1,-1],"split_conditions":[1.6781344E-1,4.92913E-2,-4.4588274E-3,3.3889303E-1,9.702351E-1,2.1559803E-1,4.5170717E-2,8.7243244E-2,-4.101429E-2,4.7769602E-2,8.7243244E-2,-7.319396E-2,-4.028314E-3,-3.5544068E-2,-1.514013E-2,5.7949465E-2,-2.1077178E-2,-7.287711E-2,1.9327283E-2,9.3992874E-2,2.5513181E-3],"split_indices":[29,263,257,235,0,20,0,319,0,86,319,0,0,78,0,0,0,0,0,0,0],"split_type":[0,0,0,0,0,0,0,0,0,0,0,0,0,0,0,0,0,0,0,0,0],"sum_hessian":[1.9727354E1,1.4250535E1,5.47682E0,7.328184E0,6.922351E0,3.9696453E0,1.5071745E0,5.853526E0,1.4746581E0,3.1255288E0,3.7968223E0,2.9529102E0,1.0167351E0,4.776463E0,1.0770631E0,2.0008738E0,1.124655E0,2.665672E0,1.1311501E0,3.6411755E0,1.1352874E0],"tree_param":{"num_deleted":"0","num_feature":"367","num_nodes":"21","size_leaf_vector":"1"}},{"base_weights":[1.2161411E-2,-6.1047256E-2,5.1834326E-2,-1.4368099E-1,4.3074876E-2,4.6656314E-2,-4.6564957E-1,2.0511647E-1,-4.8788767E-2,-7.494201E-1,4.9132895E-2,3.7119225E-1,-4.5210302E-2,-9.0250485E-2,-8.374622E-3,5.744964E-2,-3.0154526E-2],"categories":[],"categories_nodes":[],"categories_segments":[],"categories_sizes":[],"default_left":[0,0,0,0,0,0,0,0,0,0,0,0,0,0,0,0,0],"id":31,"left_children":[1,3,-1,5,-1,7,9,11,-1,13,-1,15,-1,-1,-1,-1,-1],"loss_changes":[7.7813876E-1,8.134608E-1,0E0,1.0379946E0,0E0,1.0598569E0,2.0660954E0,1.1986277E0,0E0,4.5618868E-1,0E0,1.2794616E0,0E0,0E0,0E0,0E0,0E0],"parents":[2147483647,0,0,1,1,3,3,5,5,6,6,7,7,9,9,11,11],"right_children":[2,4,-1,6,-1,8,10,12,-1,14,-1,16,-1,-1,-1,-1,-1],"split_conditions":[3.890944E-1,3.5063922E-1,5.1834326E-2,9.725216E-2,4.3074876E-2,3.4107792E-1,3.427656E-1,4.4719064E-1,-4.8788767E-2,8.8986345E-2,4.9132895E-2,2.3896523E-1,-4.5210302E-2,-9.0250485E-2,-8.374622E-3,5.744964E-2,-3.0154526E-2],"split_indices":[25,218,0,284,0,104,22,190,0,101,0,130,0,0,0,0,0],"split_type":[0,0,0,0,0,0,0,0,0,0,0,0,0,0,0,0,0],"sum_hessian":[1.9144571E1,1.7493847E1,1.6507239E0,1.5583314E1,1.910533E0,1.0331034E1,5.2522798E0,8.444134E0,1.8869003E0,4.2183204E0,1.0339592E0,7.088194E0,1.3559396E0,3.140358E0,1.0779625E0,5.5553694E0,1.5328248E0],"tree_param":{"num_deleted":"0","num_feature":"367","num_nodes":"17","size_leaf_vector":"1"}},{"base_weights":[9.903825E-3,-8.304679E-2,3.9279702E-1,1.591779E-2,-6.2758505E-2,6.6061735E-2,-1.7431801E-2,-8.154991E-2,6.32096E-2,-2.2246724E-1,3.7455994E-1,1.7203042E-1,-4.6223566E-1,7.6521926E-2,-2.9559985E-2,4.267269E-2,-3.8013246E-2,-6.1757054E-2,1.4543702E-2],"categories":[],"categories_nodes":[],"categories_segments":[],"categories_sizes":[],"default_left":[0,0,0,0,0,0,0,0,0,0,0,0,0,0,0,0,0,0,0],"id":32,"left_children":[1,3,5,7,-1,-1,-1,9,-1,11,13,15,17,-1,-1,-1,-1,-1,-1],"loss_changes":[7.316624E-1,9.0619045E-1,7.244066E-1,9.5528525E-1,0E0,0E0,0E0,9.753456E-1,0E0,1.1417472E0,1.1813574E0,8.617274E-1,7.7473474E-1,0E0,0E0,0E0,0E0,0E0,0E0],"parents":[2147483647,0,0,1,1,2,2,3,3,7,7,9,9,10,10,11,11,12,12],"right_children":[2,4,6,8,-1,-1,-1,10,-1,12,14,16,18,-1,-1,-1,-1,-1,-1],"split_conditions":[1.1915521E-1,3.5182902E-1,1.8772155E-1,3.890944E-1,-6.2758505E-2,6.6061735E-2,-1.7431801E-2,1.5259494E-2,6.32096E-2,3.291724E-2,1.541476E-1,2.3896523E-1,5.5619612E-2,7.6521926E-2,-2.9559985E-2,4.267269E-2,-3.8013246E-2,-6.1757054E-2,1.4543702E-2],"split_indices":[162,260,192,25,0,0,0,70,0,3,184,130,184,0,0,0,0,0,0],"split_type":[0,0,0,0,0,0,0,0,0,0,0,0,0,0,0,0,0,0,0],"sum_hessian":[1.8641438E1,1.5630184E1,3.0112543E0,1.4047885E1,1.5822992E0,1.9333535E0,1.0779006E0,1.2878416E1,1.1694689E0,1.0230044E1,2.648371E0,3.97401E0,6.256035E0,1.5834671E0,1.0649037E0,2.87502E0,1.09899E0,4.9694448E0,1.2865902E0],"tree_param":{"num_deleted":"0","num_feature":"367","num_nodes":"19","size_leaf_vector":"1"}},{"base_weights":[1.2009726E-2,1.5418065E-1,-2.3210245E-1,-1.3481389E-2,4.8814926E-1,-4.589094E-1,4.9477607E-2,-1.8604238E-1,5.612567E-2,7.887572E-2,-1.4395455E-2,-6.740237E-1,1.5559812E-2,-3.6564502E-1,3.848226E-2,-7.583641E-2,-1.970428E-2,-3.9614446E-2,-5.7612777E-1,4.1313887E-2,-5.084612E-2,-7.3437326E-2,-1.3920017E-2],"categories":[],"categories_nodes":[],"categories_segments":[],"categories_sizes":[],"default_left":[0,0,0,0,0,0,0,0,0,0,0,0,0,0,0,0,0,0,0,0,0,0,0],"id":33,"left_children":[1,3,5,7,9,11,-1,13,-1,-1,-1,15,-1,17,-1,-1,-1,19,21,-1,-1,-1,-1],"loss_changes":[7.0028687E-1,7.1774155E-1,1.4546262E0,1.0395424E0,9.2526793E-1,9.236636E-1,0E0,9.612085E-1,0E0,0E0,0E0,4.26836E-2,0E0,4.301082E-1,0E0,0E0,0E0,9.876602E-1,1.699866E-1,0E0,0E0,0E0,0E0],"parents":[2147483647,0,0,1,1,2,2,3,3,4,4,5,5,7,7,11,11,13,13,17,17,18,18],"right_children":[2,4,6,8,10,12,-1,14,-1,-1,-1,16,-1,18,-1,-1,-1,20,22,-1,-1,-1,-1],"split_conditions":[9.725216E-2,1.3849129E-1,2.6854858E-1,4.0476128E-1,5.2999355E-2,4.8524577E-2,4.9477607E-2,-4.661934E-2,5.612567E-2,7.887572E-2,-1.4395455E-2,3.3731914E-1,1.5559812E-2,3.291724E-2,3.848226E-2,-7.583641E-2,-1.970428E-2,-3.5562902E-3,-5.545392E-2,4.1313887E-2,-5.084612E-2,-7.3437326E-2,-1.3920017E-2],"split_indices":[284,189,169,160,30,103,0,70,0,0,0,272,0,3,0,0,0,364,306,0,0,0,0],"split_type":[0,0,0,0,0,0,0,0,0,0,0,0,0,0,0,0,0,0,0,0,0,0,0],"sum_hessian":[1.814677E1,1.1700691E1,6.4460797E0,8.428813E0,3.2718785E0,5.1940455E0,1.2520338E0,7.002625E0,1.4261874E0,2.0494149E0,1.2224636E0,3.7755322E0,1.4185134E0,5.600206E0,1.4024191E0,2.7069588E0,1.0685736E0,2.663203E0,2.9370031E0,1.4153013E0,1.2479016E0,1.6563452E0,1.2806579E0],"tree_param":{"num_deleted":"0","num_feature":"367","num_nodes":"23","size_leaf_vector":"1"}},{"base_weights":[1.2731634E-2,1.3459086E-1,-2.7560803E-1,3.568455E-1,-1.14119634E-1,-5.622219E-2,4.0777307E-2,5.664119E-1,-3.6733624E-2,2.8024775E-1,-4.289581E-1,8.434127E-2,9.4237864E-2,5.3892106E-2,-2.1010166E-2,-6.897246E-2,1.5077888E-2,-2.9556302E-2,4.7166187E-2],"categories":[],"categories_nodes":[],"categories_segments":[],"categories_sizes":[],"default_left":[0,0,0,0,0,0,0,0,0,0,0,0,0,0,0,0,0,0,0],"id":34,"left_children":[1,3,5,7,9,-1,-1,11,-1,13,15,-1,17,-1,-1,-1,-1,-1,-1],"loss_changes":[6.929409E-1,8.0312383E-1,1.3796092E0,1.3502214E0,1.0224357E0,0E0,0E0,7.353823E-1,0E0,5.991103E-1,7.745858E-1,0E0,6.439324E-1,0E0,0E0,0E0,0E0,0E0,0E0],"parents":[2147483647,0,0,1,1,2,2,3,3,4,4,7,7,9,9,10,10,12,12],"right_children":[2,4,6,8,10,-1,-1,12,-1,14,16,-1,18,-1,-1,-1,-1,-1,-1],"split_conditions":[1.6781344E-1,4.92913E-2,-4.4588274E-3,3.3889303E-1,9.702351E-1,-5.622219E-2,4.0777307E-2,-8.980539E-2,-3.6733624E-2,4.7769602E-2,1.671594E-1,8.434127E-2,5.4670397E-2,5.3892106E-2,-2.1010166E-2,-6.897246E-2,1.5077888E-2,-2.9556302E-2,4.7166187E-2],"split_indices":[29,263,257,235,0,0,0,261,0,86,100,0,92,0,0,0,0,0,0],"split_type":[0,0,0,0,0,0,0,0,0,0,0,0,0,0,0,0,0,0,0],"sum_hessian":[1.7665491E1,1.27923565E1,4.8731346E0,6.5258727E0,6.266484E0,3.558129E0,1.3150055E0,5.230198E0,1.2956749E0,2.8306603E0,3.4358234E0,2.8008482E0,2.4293494E0,1.7882514E0,1.0424088E0,2.238999E0,1.1968244E0,1.3017771E0,1.1275723E0],"tree_param":{"num_deleted":"0","num_feature":"367","num_nodes":"19","size_leaf_vector":"1"}},{"base_weights":[1.3535204E-2,-6.636716E-2,4.3260045E-2,-1.5122423E-1,5.0664254E-2,-2.7634212E-1,2.1890594E-1,-3.906139E-1,3.124836E-2,5.0631937E-2,-2.6412297E-2,-1.07274406E-1,-6.9654095E-1,-2.7791325E-2,3.9144095E-2,-8.079732E-2,-1.8085025E-2],"categories":[],"categories_nodes":[],"categories_segments":[],"categories_sizes":[],"default_left":[0,0,0,0,0,0,0,0,0,0,0,0,0,0,0,0,0],"id":35,"left_children":[1,3,-1,5,-1,7,9,11,-1,-1,-1,13,15,-1,-1,-1,-1],"loss_changes":[6.3737226E-1,8.610983E-1,0E0,7.469322E-1,0E0,8.9719546E-1,7.3107773E-1,8.00076E-1,0E0,0E0,0E0,6.5526015E-1,1.2227154E-1,0E0,0E0,0E0,0E0],"parents":[2147483647,0,0,1,1,3,3,5,5,6,6,7,7,11,11,12,12],"right_children":[2,4,-1,6,-1,8,10,12,-1,-1,-1,14,16,-1,-1,-1,-1],"split_conditions":[3.648461E-1,5.297445E-1,4.3260045E-2,3.60991E-2,5.0664254E-2,4.0476128E-1,1.5796894E-1,-3.3912517E-2,3.124836E-2,5.0631937E-2,-2.6412297E-2,1.4648214E-1,3.3419285E-2,-2.7791325E-2,3.9144095E-2,-8.079732E-2,-1.8085025E-2],"split_indices":[210,216,0,76,0,160,185,5,0,0,0,146,262,0,0,0,0],"split_type":[0,0,0,0,0,0,0,0,0,0,0,0,0,0,0,0,0],"sum_hessian":[1.7177528E1,1.5133655E1,2.0438743E0,1.3822732E1,1.3109223E0,1.0519977E1,3.302755E0,9.092117E0,1.4278597E0,2.040433E0,1.2623224E0,5.4215293E0,3.6705875E0,4.3692894E0,1.0522403E0,2.552299E0,1.1182885E0],"tree_param":{"num_deleted":"0","num_feature":"367","num_nodes":"17","size_leaf_vector":"1"}},{"base_weights":[1.5671497E-2,1.5457763E-1,-2.1941145E-1,2.6155177E-1,-2.80871E-2,-4.3522167E-1,4.586548E-2,4.0303227E-1,-3.0928642E-2,-6.3712454E-1,1.3362697E-2,5.925321E-1,-2.3238022E-2,-7.1421124E-2,-1.8621897E-2,8.046037E-2,-1.798353E-2],"categories":[],"categories_nodes":[],"categories_segments":[],"categories_sizes":[],"default_left":[0,0,0,0,0,0,0,0,0,0,0,0,0,0,0,0,0],"id":36,"left_children":[1,3,5,7,-1,9,-1,11,-1,13,-1,15,-1,-1,-1,-1,-1],"loss_changes":[6.1663395E-1,6.232997E-1,1.2299893E0,9.317641E-1,0E0,7.5752544E-1,0E0,1.1543082E0,0E0,2.3212314E-2,0E0,1.2560756E0,0E0,0E0,0E0,0E0,0E0],"parents":[2147483647,0,0,1,1,2,2,3,3,5,5,7,7,9,9,11,11],"right_children":[2,4,6,8,-1,10,-1,12,-1,14,-1,16,-1,-1,-1,-1,-1],"split_conditions":[9.725216E-2,1.2398362E-1,2.6854858E-1,3.4676477E-1,-2.80871E-2,4.8524577E-2,4.586548E-2,3.427656E-1,-3.0928642E-2,3.3731914E-1,1.3362697E-2,3.1000495E-1,-2.3238022E-2,-7.1421124E-2,-1.8621897E-2,8.046037E-2,-1.798353E-2],"split_indices":[284,307,169,40,0,103,0,22,0,272,0,242,0,0,0,0,0],"split_type":[0,0,0,0,0,0,0,0,0,0,0,0,0,0,0,0,0],"sum_hessian":[1.684497E1,1.0803713E1,6.0412574E0,8.993647E0,1.8100657E0,4.8543816E0,1.186876E0,7.4429083E0,1.5507382E0,3.4941645E0,1.3602171E0,5.7850966E0,1.657812E0,2.4853249E0,1.0088395E0,4.506103E0,1.2789935E0],"tree_param":{"num_deleted":"0","num_feature":"367","num_nodes":"17","size_leaf_vector":"1"}},{"base_weights":[1.1843358E-2,8.9750156E-2,-4.0532544E-2,-9.298682E-3,6.8825126E-2,-1.3482577E-1,6.056553E-2,6.96052E-2,-5.509057E-1,2.2848025E-1,-4.713572E-2,-7.8433834E-2,-2.3298354E-3,3.991547E-2,-2.9207587E-2],"categories":[],"categories_nodes":[],"categories_segments":[],"categories_sizes":[],"default_left":[0,0,0,0,0,0,0,0,0,0,0,0,0,0,0],"id":37,"left_children":[1,3,-1,5,-1,7,-1,9,11,13,-1,-1,-1,-1,-1],"loss_changes":[6.031765E-1,9.2609036E-1,0E0,1.1853582E0,0E0,1.1179224E0,0E0,9.154426E-1,5.105326E-1,8.2186675E-1,0E0,0E0,0E0,0E0,0E0],"parents":[2147483647,0,0,1,1,3,3,5,5,7,7,8,8,9,9],"right_children":[2,4,-1,6,-1,8,-1,10,12,14,-1,-1,-1,-1,-1],"split_conditions":[3.7705985E-1,1.5242921E-1,-4.0532544E-2,3.648461E-1,6.8825126E-2,9.725216E-2,6.056553E-2,1.2398362E-1,1.0946581E-1,3.4676477E-1,-4.713572E-2,-7.8433834E-2,-2.3298354E-3,3.991547E-2,-2.9207587E-2],"split_indices":[155,34,0,210,0,284,0,307,226,40,0,0,0,0,0],"split_type":[0,0,0,0,0,0,0,0,0,0,0,0,0,0,0],"sum_hessian":[1.6439798E1,1.4514127E1,1.9256725E0,1.3297862E1,1.216264E0,1.1691996E1,1.6058666E0,8.398369E0,3.293627E0,6.9383025E0,1.4600664E0,1.9460355E0,1.3475915E0,5.40077E0,1.5375323E0],"tree_param":{"num_deleted":"0","num_feature":"367","num_nodes":"15","size_leaf_vector":"1"}},{"base_weights":[9.168072E-3,-7.907273E-2,3.707338E-1,1.7245434E-2,-5.739929E-2,6.363917E-2,-9.351313E-3,2.9624248E-1,-1.6297027E-1,5.3680307E-1,-2.937322E-2,-3.5967287E-1,3.394979E-2,7.045043E-2,1.2796216E-2,-5.212338E-1,2.42618E-2,-7.1313374E-2,9.248966E-3],"categories":[],"categories_nodes":[],"categories_segments":[],"categories_sizes":[],"default_left":[0,0,0,0,0,0,0,0,0,0,0,0,0,0,0,0,0,0,0],"id":38,"left_children":[1,3,5,7,-1,-1,-1,9,11,13,-1,15,-1,-1,-1,17,-1,-1,-1],"loss_changes":[5.743014E-1,7.0372504E-1,4.9447173E-1,7.096851E-1,0E0,0E0,0E0,9.4072115E-1,9.7578406E-1,2.0281541E-1,0E0,7.777174E-1,0E0,0E0,0E0,7.2488415E-1,0E0,0E0,0E0],"parents":[2147483647,0,0,1,1,2,2,3,3,7,7,8,8,9,9,11,11,15,15],"right_children":[2,4,6,8,-1,-1,-1,10,12,14,-1,16,-1,-1,-1,18,-1,-1,-1],"split_conditions":[1.1915521E-1,3.5182902E-1,-4.9399505E-3,3.291724E-2,-5.739929E-2,6.363917E-2,-9.351313E-3,2.3896523E-1,1.5259494E-2,9.725216E-2,-2.937322E-2,3.7381098E-1,3.394979E-2,7.045043E-2,1.2796216E-2,9.397907E-2,2.42618E-2,-7.1313374E-2,9.248966E-3],"split_indices":[162,260,140,3,0,0,0,130,70,284,0,202,0,0,0,164,0,0,0],"split_type":[0,0,0,0,0,0,0,0,0,0,0,0,0,0,0,0,0,0,0],"sum_hessian":[1.608162E1,1.355484E1,2.52678E0,1.2154554E1,1.4002856E0,1.3712815E0,1.1554983E0,4.5173287E0,7.637226E0,3.2729268E0,1.2444018E0,5.6928267E0,1.9443992E0,1.808095E0,1.4648318E0,4.5948634E0,1.0979633E0,3.3769689E0,1.2178947E0],"tree_param":{"num_deleted":"0","num_feature":"367","num_nodes":"19","size_leaf_vector":"1"}},{"base_weights":[1.1229912E-2,-7.9156496E-2,3.5469383E-1,-1.650818E-1,3.9528582E-2,6.4084835E-2,-9.073498E-3,-3.1306118E-1,2.5422847E-1,-4.6925807E-1,2.9137451E-2,5.7007648E-2,-1.7767351E-2,-6.057719E-1,1.8339084E-2,-6.9805734E-2,-5.1853494E-3],"categories":[],"categories_nodes":[],"categories_segments":[],"categories_sizes":[],"default_left":[0,0,0,0,0,0,0,0,0,0,0,0,0,0,0,0,0],"id":39,"left_children":[1,3,5,7,-1,-1,-1,9,11,13,-1,-1,-1,15,-1,-1,-1],"loss_changes":[5.4548943E-1,6.3647985E-1,5.2398646E-1,8.5948145E-1,0E0,0E0,0E0,1.056144E0,6.2382627E-1,8.347002E-1,0E0,0E0,0E0,3.1903362E-1,0E0,0E0,0E0],"parents":[2147483647,0,0,1,1,2,2,3,3,7,7,8,8,9,9,13,13],"right_children":[2,4,6,8,-1,-1,-1,10,12,14,-1,-1,-1,16,-1,-1,-1],"split_conditions":[2.3996712E-1,1.775374E-1,9.8547184E-1,2.9963142E-1,3.9528582E-2,6.4084835E-2,-9.073498E-3,2.7640745E-1,4.92913E-2,4.8831204E-1,2.9137451E-2,5.7007648E-2,-1.7767351E-2,2.910667E-1,1.8339084E-2,-6.9805734E-2,-5.1853494E-3],"split_indices":[107,70,0,188,0,0,0,151,263,222,0,0,0,298,0,0,0],"split_type":[0,0,0,0,0,0,0,0,0,0,0,0,0,0,0,0,0],"sum_hessian":[1.5666838E1,1.3012094E1,2.6547444E0,1.156892E1,1.4431733E0,1.3492382E0,1.3055063E0,8.738421E0,2.8304982E0,7.1216927E0,1.6167291E0,1.450115E0,1.3803834E0,5.949143E0,1.1725496E0,4.876481E0,1.0726618E0],"tree_param":{"num_deleted":"0","num_feature":"367","num_nodes":"17","size_leaf_vector":"1"}},{"base_weights":[1.6710423E-2,-5.0463073E-2,4.505018E-2,-1.3692208E-1,3.7672933E-2,-3.1054837E-1,1.4464763E-1,-4.3415824E-1,2.322947E-2,-1.3391261E-1,6.645727E-2,-5.5075276E-1,1.0643541E-2,1.6925058E-1,-5.3664368E-2,-6.803062E-2,-1.9573493E-2,3.3496104E-2,-9.689433E-3],"categories":[],"categories_nodes":[],"categories_segments":[],"categories_sizes":[],"default_left":[0,0,0,0,0,0,0,0,0,0,0,0,0,0,0,0,0,0,0],"id":40,"left_children":[1,3,-1,5,-1,7,9,11,-1,13,-1,15,-1,17,-1,-1,-1,-1,-1],"loss_changes":[4.981647E-1,6.0661113E-1,0E0,6.9177175E-1,0E0,6.713595E-1,9.187396E-1,5.170921E-1,0E0,6.479044E-1,0E0,1.4948666E-1,0E0,1.8079108E-1,0E0,0E0,0E0,0E0,0E0],"parents":[2147483647,0,0,1,1,3,3,5,5,6,6,7,7,9,9,11,11,13,13],"right_children":[2,4,-1,6,-1,8,10,12,-1,14,-1,16,-1,18,-1,-1,-1,-1,-1],"split_conditions":[3.890944E-1,4.8831204E-1,4.505018E-2,8.8986345E-2,3.7672933E-2,4.122481E-1,3.2806322E-2,2.9963142E-1,2.322947E-2,-1.551561E-2,6.645727E-2,9.3829736E-2,1.0643541E-2,1.9002402E-1,-5.3664368E-2,-6.803062E-2,-1.9573493E-2,3.3496104E-2,-9.689433E-3],"split_indices":[25,222,0,101,0,344,333,188,0,113,0,243,0,47,0,0,0,0,0],"split_type":[0,0,0,0,0,0,0,0,0,0,0,0,0,0,0,0,0,0,0],"sum_hessian":[1.531581E1,1.402732E1,1.2884898E0,1.223132E1,1.7959998E0,7.502242E0,4.7290783E0,6.273849E0,1.2283933E0,3.562719E0,1.1663592E0,5.145321E0,1.1285282E0,2.3633826E0,1.1993366E0,3.098393E0,2.046928E0,1.2971613E0,1.0662212E0],"tree_param":{"num_deleted":"0","num_feature":"367","num_nodes":"19","size_leaf_vector":"1"}},{"base_weights":[1.9277383E-2,9.4035685E-2,-3.6949262E-2,-2.7105795E-2,5.231451E-1,2.1744108E-1,-3.0794066E-1,6.385546E-2,1.4659725E-2,4.643527E-1,-2.2387223E-1,-5.1957196E-1,1.34253E-2,6.2216308E-2,4.372721E-3,-4.6840366E-2,1.3112563E-2,-6.272373E-2,-1.5552454E-2],"categories":[],"categories_nodes":[],"categories_segments":[],"categories_sizes":[],"default_left":[0,0,0,0,0,0,0,0,0,0,0,0,0,0,0,0,0,0,0],"id":41,"left_children":[1,3,-1,5,7,9,11,-1,-1,13,15,17,-1,-1,-1,-1,-1,-1,-1],"loss_changes":[4.997002E-1,7.5310385E-1,0E0,8.9355904E-1,4.4528425E-2,8.688698E-1,6.327634E-1,0E0,0E0,2.9318106E-1,3.3861303E-1,6.997812E-2,0E0,0E0,0E0,0E0,0E0,0E0,0E0],"parents":[2147483647,0,0,1,1,3,3,4,4,5,5,6,6,9,9,10,10,11,11],"right_children":[2,4,-1,6,8,10,12,-1,-1,14,16,18,-1,-1,-1,-1,-1,-1,-1],"split_conditions":[3.7705985E-1,1.4722787E-1,-3.6949262E-2,3.291724E-2,1.788681E-1,1.0345873E-1,2.3735994E-1,6.385546E-2,1.4659725E-2,3.2887807E-1,1.577543E-1,-2.1901583E-2,1.34253E-2,6.2216308E-2,4.372721E-3,-4.6840366E-2,1.3112563E-2,-6.272373E-2,-1.5552454E-2],"split_indices":[155,3,0,3,366,224,27,0,0,157,357,223,0,0,0,0,0,0,0],"split_type":[0,0,0,0,0,0,0,0,0,0,0,0,0,0,0,0,0,0,0],"sum_hessian":[1.4997733E1,1.3214734E1,1.7829993E0,1.1036002E1,2.1787314E0,6.0197906E0,5.0162115E0,1.1350367E0,1.0436946E0,3.8266187E0,2.193172E0,3.2742078E0,1.7420039E0,2.4342124E0,1.3924061E0,1.1094797E0,1.0836923E0,1.9689459E0,1.3052619E0],"tree_param":{"num_deleted":"0","num_feature":"367","num_nodes":"19","size_leaf_vector":"1"}},{"base_weights":[1.8338045E-2,1.2769532E-1,-2.4146278E-1,3.3321416E-1,-9.780299E-2,-4.9920303E-1,3.4910206E-2,5.2650774E-1,-3.2263767E-2,2.4844834E-1,-3.744001E-1,-2.0437768E-2,-6.209101E-2,7.737997E-2,8.295446E-2,-8.365586E-3,4.6274364E-2,-6.264367E-2,1.7283643E-2,-1.29712215E-2,2.5346478E-2],"categories":[],"categories_nodes":[],"categories_segments":[],"categories_sizes":[],"default_left":[0,0,0,0,0,0,0,0,0,0,0,0,0,0,0,0,0,0,0,0,0],"id":42,"left_children":[1,3,5,7,9,11,-1,13,-1,15,17,-1,-1,-1,19,-1,-1,-1,-1,-1,-1],"loss_changes":[4.7725025E-1,5.7538044E-1,9.354203E-1,9.754383E-1,7.0191187E-1,1.278168E-2,0E0,5.15828E-1,0E0,2.8242546E-1,6.507595E-1,0E0,0E0,0E0,1.4213163E-1,0E0,0E0,0E0,0E0,0E0,0E0],"parents":[2147483647,0,0,1,1,2,2,3,3,4,4,5,5,7,7,9,9,10,10,14,14],"right_children":[2,4,6,8,10,12,-1,14,-1,16,18,-1,-1,-1,20,-1,-1,-1,-1,-1,-1],"split_conditions":[1.6781344E-1,4.92913E-2,-4.4588274E-3,3.3889303E-1,9.702351E-1,3.732689E-2,3.4910206E-2,-8.980539E-2,-3.2263767E-2,3.2297887E-2,1.671594E-1,-2.0437768E-2,-6.209101E-2,7.737997E-2,-1.6403819E-2,-8.365586E-3,4.6274364E-2,-6.264367E-2,1.7283643E-2,-1.29712215E-2,2.5346478E-2],"split_indices":[29,263,257,235,0,174,0,261,0,334,100,0,0,0,87,0,0,0,0,0,0],"split_type":[0,0,0,0,0,0,0,0,0,0,0,0,0,0,0,0,0,0,0,0,0],"sum_hessian":[1.4712748E1,1.0712184E1,4.000564E0,5.354459E0,5.3577247E0,2.8927732E0,1.1077907E0,4.2879295E0,1.066529E0,2.4244742E0,2.9332507E0,1.6280986E0,1.2646747E0,2.2750082E0,2.0129216E0,1.1899587E0,1.2345155E0,1.9092118E0,1.0240389E0,1.0022054E0,1.0107162E0],"tree_param":{"num_deleted":"0","num_feature":"367","num_nodes":"21","size_leaf_vector":"1"}},{"base_weights":[1.7160391E-2,-6.638948E-2,3.516432E-1,2.7433809E-2,-5.350375E-2,5.8716346E-2,-7.0767696E-3,2.8118166E-1,-1.3884E-1,5.060266E-1,-2.6785797E-2,-3.824199E-1,2.3273085E-1,6.5975286E-2,1.2349977E-2,-5.616823E-2,3.5997406E-3,-1.7690828E-2,5.0800975E-2],"categories":[],"categories_nodes":[],"categories_segments":[],"categories_sizes":[],"default_left":[0,0,0,0,0,0,0,0,0,0,0,0,0,0,0,0,0,0,0],"id":43,"left_children":[1,3,5,7,-1,-1,-1,9,11,13,-1,15,17,-1,-1,-1,-1,-1,-1],"loss_changes":[4.526941E-1,5.921849E-1,3.6283666E-1,5.408862E-1,0E0,0E0,0E0,7.5762814E-1,7.999581E-1,1.4910674E-1,0E0,4.0448922E-1,5.1072097E-1,0E0,0E0,0E0,0E0,0E0,0E0],"parents":[2147483647,0,0,1,1,2,2,3,3,7,7,8,8,9,9,11,11,12,12],"right_children":[2,4,6,8,-1,-1,-1,10,12,14,-1,16,18,-1,-1,-1,-1,-1,-1],"split_conditions":[1.1915521E-1,3.5182902E-1,-4.9399505E-3,3.291724E-2,-5.350375E-2,5.8716346E-2,-7.0767696E-3,2.3896523E-1,1.2665097E-1,9.725216E-2,-2.6785797E-2,2.601344E-1,5.5619612E-2,6.5975286E-2,1.2349977E-2,-5.616823E-2,3.5997406E-3,-1.7690828E-2,5.0800975E-2],"split_indices":[162,260,140,3,0,0,0,130,217,284,0,51,184,0,0,0,0,0,0],"split_type":[0,0,0,0,0,0,0,0,0,0,0,0,0,0,0,0,0,0,0],"sum_hessian":[1.4363513E1,1.2134079E1,2.229434E0,1.0894469E1,1.2396098E0,1.1809514E0,1.0484828E0,4.039213E0,6.855256E0,2.921238E0,1.1179751E0,4.123159E0,2.7320974E0,1.566846E0,1.3543919E0,2.646796E0,1.4763628E0,1.241695E0,1.4904023E0],"tree_param":{"num_deleted":"0","num_feature":"367","num_nodes":"19","size_leaf_vector":"1"}},{"base_weights":[1.7914362E-2,1.2539357E-1,-2.3530799E-1,-3.0908117E-3,5.016744E-2,-4.8379734E-1,3.3121794E-2,2.211468E-1,-2.2543792E-1,-1.9474415E-2,-6.0178578E-2,4.2309457E-1,-3.050678E-2,1.1376002E-2,-5.652636E-2,7.0104256E-2,-5.9282077E-3,-3.0064976E-2,3.788209E-2],"categories":[],"categories_nodes":[],"categories_segments":[],"categories_sizes":[],"default_left":[0,0,0,0,0,0,0,0,0,0,0,0,0,0,0,0,0,0,0],"id":44,"left_children":[1,3,5,7,-1,9,-1,11,13,-1,-1,15,-1,17,-1,-1,-1,-1,-1],"loss_changes":[4.388252E-1,5.4353833E-1,8.400508E-1,5.160757E-1,0E0,1.1146009E-2,0E0,6.774618E-1,4.2413178E-1,0E0,0E0,5.977328E-1,0E0,5.769837E-1,0E0,0E0,0E0,0E0,0E0],"parents":[2147483647,0,0,1,1,2,2,3,3,5,5,7,7,8,8,11,11,13,13],"right_children":[2,4,6,8,-1,10,-1,12,14,-1,-1,16,-1,18,-1,-1,-1,-1,-1],"split_conditions":[1.6781344E-1,3.074341E-1,-4.4588274E-3,4.92913E-2,5.016744E-2,3.732689E-2,3.3121794E-2,3.3889303E-1,1.958251E-1,-1.9474415E-2,-6.0178578E-2,-8.980539E-2,-3.050678E-2,5.5619612E-2,-5.652636E-2,7.0104256E-2,-5.9282077E-3,-3.0064976E-2,3.788209E-2],"split_indices":[29,182,257,263,0,174,0,235,72,0,0,261,0,184,0,0,0,0,0],"split_type":[0,0,0,0,0,0,0,0,0,0,0,0,0,0,0,0,0,0,0],"sum_hessian":[1.4039574E1,1.0210553E1,3.82902E0,8.350863E0,1.8596896E0,2.7630987E0,1.0659212E0,4.160444E0,4.1904197E0,1.5692408E0,1.1938579E0,3.1482077E0,1.0122362E0,3.039094E0,1.1513258E0,1.709738E0,1.4384696E0,1.7417892E0,1.2973047E0],"tree_param":{"num_deleted":"0","num_feature":"367","num_nodes":"19","size_leaf_vector":"1"}},{"base_weights":[1.5802598E-2,-7.1046196E-2,3.376743E-1,-1.9259442E-1,2.4783158E-1,5.9182018E-2,-7.6365485E-3,8.726222E-2,-3.7438282E-1,4.011339E-2,-9.2394445E-3,3.3882786E-2,-2.4533939E-2,-9.196625E-2,-5.720715E-2,1.3886034E-2,-3.5194334E-2],"categories":[],"categories_nodes":[],"categories_segments":[],"categories_sizes":[],"default_left":[0,0,0,0,0,0,0,0,0,0,0,0,0,0,0,0,0],"id":45,"left_children":[1,3,5,7,9,-1,-1,11,13,-1,-1,-1,-1,15,-1,-1,-1],"loss_changes":[4.3559486E-1,5.2918327E-1,3.927132E-1,5.1884186E-1,2.3867252E-1,0E0,0E0,4.6584633E-1,2.8137767E-1,0E0,0E0,0E0,0E0,2.6819336E-1,0E0,0E0,0E0],"parents":[2147483647,0,0,1,1,2,2,3,3,4,4,7,7,8,8,13,13],"right_children":[2,4,6,8,10,-1,-1,12,14,-1,-1,-1,-1,16,-1,-1,-1],"split_conditions":[2.3996712E-1,1.1978172E-1,9.8547184E-1,-8.980539E-2,1.6781344E-1,5.9182018E-2,-7.6365485E-3,3.2887807E-1,9.18806E-2,4.011339E-2,-9.2394445E-3,3.3882786E-2,-2.4533939E-2,4.04E1,-5.720715E-2,1.3886034E-2,-3.5194334E-2],"split_indices":[107,84,0,261,29,0,0,157,7,0,0,0,0,2,0,0,0],"split_type":[0,0,0,0,0,0,0,0,0,0,0,0,0,0,0,0,0],"sum_hessian":[1.3724257E1,1.1421681E1,2.3025753E0,8.556271E0,2.8654115E0,1.1607213E0,1.1418542E0,3.5740812E0,4.982189E0,1.8519295E0,1.013482E0,2.0242815E0,1.5497997E0,2.6547873E0,2.3274019E0,1.6530044E0,1.0017829E0],"tree_param":{"num_deleted":"0","num_feature":"367","num_nodes":"17","size_leaf_vector":"1"}},{"base_weights":[1.5352764E-2,-5.9776045E-2,3.7723064E-2,-1.349421E-1,4.1455314E-2,-2.294047E-1,2.6495788E-2,-3.3759224E-1,2.7679682E-2,-4.522247E-1,1.26757445E-2,-5.9375048E-2,-1.7080565E-4],"categories":[],"categories_nodes":[],"categories_segments":[],"categories_sizes":[],"default_left":[0,0,0,0,0,0,0,0,0,0,0,0,0],"id":46,"left_children":[1,3,-1,5,-1,7,-1,9,-1,11,-1,-1,-1],"loss_changes":[4.1698414E-1,5.15051E-1,0E0,5.091783E-1,0E0,6.486397E-1,0E0,5.2591264E-1,0E0,4.6310425E-1,0E0,0E0,0E0],"parents":[2147483647,0,0,1,1,3,3,5,5,7,7,9,9],"right_children":[2,4,-1,6,-1,8,-1,10,-1,12,-1,-1,-1],"split_conditions":[3.648461E-1,5.297445E-1,3.7723064E-2,4.8831204E-1,4.1455314E-2,3.9129776E-1,2.6495788E-2,7.7312045E-2,2.7679682E-2,1.3849129E-1,1.26757445E-2,-5.9375048E-2,-1.7080565E-4],"split_indices":[210,216,0,222,0,38,0,174,0,189,0,0,0],"split_type":[0,0,0,0,0,0,0,0,0,0,0,0,0],"sum_hessian":[1.3507972E1,1.1877022E1,1.63095E0,1.0869986E1,1.0070367E0,9.137832E0,1.7321534E0,7.803189E0,1.3346432E0,6.27918E0,1.5240086E0,4.5362315E0,1.7429487E0],"tree_param":{"num_deleted":"0","num_feature":"367","num_nodes":"13","size_leaf_vector":"1"}},{"base_weights":[1.9881835E-2,9.351615E-2,-3.505826E-2,-5.481686E-3,5.391704E-2,-1.359963E-1,5.0174147E-2,6.1657134E-2,-5.175005E-1,-1.3198517E-1,5.389532E-2,-6.3347064E-2,-1.6024563E-2,-3.5683874E-2,4.120639E-2],"categories":[],"categories_nodes":[],"categories_segments":[],"categories_sizes":[],"default_left":[0,0,0,0,0,0,0,0,0,0,0,0,0,0,0],"id":47,"left_children":[1,3,-1,5,-1,7,-1,9,11,13,-1,-1,-1,-1,-1],"loss_changes":[4.2284614E-1,5.6403935E-1,0E0,8.226448E-1,0E0,7.7468777E-1,0E0,7.534373E-1,4.2179704E-2,8.8774705E-1,0E0,0E0,0E0,0E0,0E0],"parents":[2147483647,0,0,1,1,3,3,5,5,7,7,8,8,9,9],"right_children":[2,4,-1,6,-1,8,-1,10,12,14,-1,-1,-1,-1,-1],"split_conditions":[3.7705985E-1,3.648461E-1,-3.505826E-2,9.206567E-2,5.391704E-2,9.725216E-2,5.0174147E-2,2.9963142E-1,-2.1901583E-2,9.3829736E-2,5.389532E-2,-6.3347064E-2,-1.6024563E-2,-3.5683874E-2,4.120639E-2],"split_indices":[155,210,0,103,0,284,0,188,223,243,0,0,0,0,0],"split_type":[0,0,0,0,0,0,0,0,0,0,0,0,0,0,0],"sum_hessian":[1.3299005E1,1.17175665E1,1.5814383E0,1.0395913E1,1.3216531E0,8.850463E0,1.54545E0,6.3822627E0,2.468201E0,5.0549197E0,1.3273427E0,1.2796475E0,1.1885533E0,3.8201647E0,1.234755E0],"tree_param":{"num_deleted":"0","num_feature":"367","num_nodes":"15","size_leaf_vector":"1"}},{"base_weights":[2.1810008E-2,-6.146032E-2,3.49733E-2,2.9389624E-2,-5.0044443E-2,2.7291363E-1,-1.3308334E-1,4.8840126E-1,-2.515207E-2,-3.560503E-1,2.142641E-1,6.291263E-2,1.2075165E-2,-2.3461213E-2,-6.0476463E-2,-1.5426938E-2,4.5663737E-2,-2.48579E-2,2.216457E-2],"categories":[],"categories_nodes":[],"categories_segments":[],"categories_sizes":[],"default_left":[0,0,0,0,0,0,0,0,0,0,0,0,0,0,0,0,0,0,0],"id":48,"left_children":[1,3,-1,5,-1,7,9,11,-1,13,15,-1,-1,17,-1,-1,-1,-1,-1],"loss_changes":[4.0423948E-1,4.9443495E-1,0E0,4.6801507E-1,0E0,6.533171E-1,6.35197E-1,1.13750875E-1,0E0,3.8046414E-1,3.7822318E-1,0E0,0E0,2.2513536E-1,0E0,0E0,0E0,0E0,0E0],"parents":[2147483647,0,0,1,1,3,3,5,5,6,6,7,7,9,9,10,10,13,13],"right_children":[2,4,-1,6,-1,8,10,12,-1,14,16,-1,-1,18,-1,-1,-1,-1,-1],"split_conditions":[1.1915521E-1,3.5182902E-1,3.49733E-2,3.291724E-2,-5.0044443E-2,2.3896523E-1,1.2665097E-1,9.725216E-2,-2.515207E-2,2.9642993E-1,5.5619612E-2,6.291263E-2,1.2075165E-2,-7.713456E-2,-6.0476463E-2,-1.5426938E-2,4.5663737E-2,-2.48579E-2,2.216457E-2],"split_indices":[162,260,0,3,0,130,217,284,0,244,184,0,0,75,0,0,0,0,0],"split_type":[0,0,0,0,0,0,0,0,0,0,0,0,0,0,0,0,0,0,0],"sum_hessian":[1.3016744E1,1.1028759E1,1.9879842E0,9.910734E0,1.118025E0,3.6940813E0,6.216653E0,2.6669517E0,1.0271297E0,3.770965E0,2.445688E0,1.4143646E0,1.252587E0,2.0816472E0,1.6893178E0,1.114529E0,1.331159E0,1.0776849E0,1.0039623E0],"tree_param":{"num_deleted":"0","num_feature":"367","num_nodes":"19","size_leaf_vector":"1"}},{"base_weights":[2.017338E-2,1.2481108E-1,-2.2337277E-1,3.1399563E-1,-8.354954E-2,-3.9547075E-2,1.2396697E-2,4.1697043E-1,-5.8303988E-3,2.2443269E-1,-3.2742515E-1,5.231313E-2,1.9784495E-1,-7.484139E-3,4.172447E-2,-2.2777512E-4,-5.0500073E-2,-1.4895538E-2,4.554553E-2],"categories":[],"categories_nodes":[],"categories_segments":[],"categories_sizes":[],"default_left":[0,0,0,0,0,0,0,0,0,0,0,0,0,0,0,0,0,0,0],"id":49,"left_children":[1,3,5,7,9,-1,-1,11,-1,13,15,-1,17,-1,-1,-1,-1,-1,-1],"loss_changes":[3.779778E-1,4.303093E-1,3.1724465E-1,2.3834264E-1,4.9920776E-1,0E0,0E0,1.0874271E-3,0E0,2.1000001E-1,2.0497063E-1,0E0,3.426064E-1,0E0,0E0,0E0,0E0,0E0,0E0],"parents":[2147483647,0,0,1,1,2,2,3,3,4,4,7,7,9,9,10,10,12,12],"right_children":[2,4,6,8,10,-1,-1,12,-1,14,16,-1,18,-1,-1,-1,-1,-1,-1],"split_conditions":[1.6781344E-1,4.92913E-2,7.355908E-2,2.914491E-1,9.702351E-1,-3.9547075E-2,1.2396697E-2,3.291724E-2,-5.8303988E-3,3.2297887E-2,9.397907E-2,5.231313E-2,-1.6382113E-2,-7.484139E-3,4.172447E-2,-2.2777512E-4,-5.0500073E-2,-1.4895538E-2,4.554553E-2],"split_indices":[29,263,332,324,0,0,0,3,0,334,164,0,310,0,0,0,0,0,0],"split_type":[0,0,0,0,0,0,0,0,0,0,0,0,0,0,0,0,0,0,0],"sum_hessian":[1.2737909E1,9.250872E0,3.4870384E0,4.582831E0,4.6680403E0,2.2390673E0,1.247971E0,3.4959073E0,1.0869235E0,2.0981202E0,2.56992E0,1.4203993E0,2.075508E0,1.0618333E0,1.036287E0,1.2655249E0,1.3043952E0,1.0643877E0,1.0111204E0],"tree_param":{"num_deleted":"0","num_feature":"367","num_nodes":"19","size_leaf_vector":"1"}}]},"name":"gbtree"},"learner_model_param":{"base_score":"5E-1","boost_from_average":"1","num_class":"0","num_feature":"367","num_target":"1"},"objective":{"name":"binary:logistic","reg_loss_param":{"scale_pos_weight":"1"}}},"version":[3,0,3]}